<?xml version="1.0"?>
<opencv_storage>
<my_svm type_id="opencv-ml-svm">
  <svm_type>C_SVC</svm_type>
  <kernel><type>LINEAR</type></kernel>
  <C>1.0000000000000000e-002</C>
  <term_criteria><epsilon>1.1920928955078125e-007</epsilon>
    <iterations>2000</iterations></term_criteria>
  <var_all>3780</var_all>
  <var_count>3780</var_count>
  <class_count>4</class_count>
  <class_labels type_id="opencv-matrix">
    <rows>1</rows>
    <cols>4</cols>
    <dt>i</dt>
    <data>
      -1 1 2 3</data></class_labels>
  <sv_total>6</sv_total>
  <support_vectors>
    <_>
      1.72661003e-002 1.21665113e-002 9.62055475e-003 -3.25034261e-002
      -9.39449295e-003 -3.06156445e-002 1.92079227e-002 1.54223908e-002
      7.76206888e-003 6.61544176e-003 1.68472491e-002 2.02966575e-002
      -2.93518081e-002 7.77882943e-003 -4.32100426e-003 1.93020981e-002
      1.24664640e-003 -4.19045426e-003 1.83470640e-002 1.92756280e-002
      8.03985447e-003 -4.10204194e-002 -1.06037371e-002 -3.05181462e-002
      3.57691497e-002 2.37679034e-002 3.64954234e-003 3.24181397e-003
      -9.85188293e-004 4.63397289e-003 -4.40004356e-002 -1.63086888e-003
      -8.51195422e-004 2.91796494e-002 1.33619122e-002 -3.77966184e-003
      1.53803779e-003 2.00023223e-002 2.18711421e-002 -2.57016998e-002
      2.45692916e-002 -9.78323398e-004 1.45733617e-002 -2.33813771e-003
      -1.68467816e-002 -1.58190832e-003 7.14852288e-003 1.14428848e-002
      -1.97497290e-002 3.43480636e-003 -1.00586480e-002 8.41921382e-003
      -2.34922441e-003 -1.60002094e-002 1.27111713e-003 6.22775638e-004
      1.05602080e-002 -4.28726152e-002 3.65565531e-003 -4.56195045e-003
      1.34923169e-002 5.66509599e-003 -4.50298283e-003 1.93771943e-002
      -9.29462723e-004 6.23893086e-003 -3.62453312e-002 6.67478750e-003
      -2.28527430e-002 1.56150209e-002 1.46302888e-002 1.15973838e-002
      1.27943524e-003 1.22717200e-002 1.17023317e-002 -2.01344565e-002
      -3.12768901e-003 -2.24155411e-002 -4.59096074e-004
      -7.02268444e-003 -1.96984932e-002 1.19371638e-002 1.67168044e-002
      3.17452196e-003 -1.46737192e-002 -1.84325234e-003 -2.67940070e-002
      8.11902154e-003 -1.34904310e-002 -1.02109052e-002 8.58567469e-003
      2.64498964e-003 -1.83553610e-003 -2.53241360e-002 4.06488637e-003
      -2.32803058e-002 5.48024196e-003 4.59345384e-003 2.64909305e-003
      2.26881932e-002 1.74705200e-002 1.50402859e-002 2.86599365e-003
      1.72355007e-002 -3.12571973e-003 1.65783651e-002 -1.10327138e-003
      2.30021495e-002 -7.76018621e-003 3.76842194e-003 -1.22843459e-002
      -2.79965494e-002 -1.46282036e-002 -2.88986377e-002 8.74081597e-005
      -1.33935539e-002 -1.25012714e-002 8.73561110e-003 1.27503118e-002
      -3.82254436e-003 -1.76038723e-002 8.77848268e-003 -3.68144340e-003
      5.10811526e-003 -3.87814105e-003 4.50708391e-003 1.57818757e-002
      6.50831917e-003 -1.58194136e-002 -1.22053130e-002 -1.48554298e-003
      -1.79374628e-002 2.86056753e-003 2.87089893e-003 1.87074579e-002
      3.73328924e-002 1.29930563e-002 -6.90298341e-003 -2.99590291e-003
      8.78193602e-003 -1.37237376e-002 1.03909150e-002 1.02931829e-002
      3.08377724e-002 7.57478469e-004 6.37861155e-003 2.35383559e-004
      -8.12808052e-003 1.83062684e-002 3.63706518e-003 1.00408848e-002
      4.04232461e-003 -1.19094225e-002 3.30729992e-003 2.36996822e-003
      1.54321897e-003 -8.09858902e-004 1.80301536e-002 7.49360537e-004
      1.78258698e-002 8.99228454e-003 -1.15981195e-002 1.70866996e-002
      2.57583102e-003 -1.01079242e-002 -8.72476585e-003 2.53654402e-002
      -1.80334598e-003 1.36897741e-002 2.79875327e-004 1.49490396e-002
      4.80663218e-003 5.73705300e-004 7.11726490e-003 2.09364668e-003
      2.16912944e-002 -4.66851145e-003 9.91456304e-003 -1.74872596e-002
      -8.64248909e-003 -7.10839545e-003 2.07080762e-003 4.71702917e-003
      4.27122839e-004 5.07651176e-003 -1.47040943e-002 4.05993545e-003
      -4.14985837e-003 -9.63631365e-003 1.95036232e-002 1.44618908e-002
      1.66829806e-002 -7.92950019e-003 1.07710185e-002 -4.70579369e-003
      1.03951599e-002 -7.68929254e-003 8.40059423e-004 -4.52454202e-003
      -7.61075551e-003 1.70335508e-004 -1.10824155e-002 1.27104316e-002
      -2.00126562e-002 -9.80329118e-004 -2.30442770e-002
      -1.35854743e-002 2.27050185e-002 2.15128195e-002 1.54709490e-002
      -1.13950493e-002 1.91618316e-002 2.72637320e-004 9.03431419e-003
      -2.48645665e-003 1.70761980e-002 1.37472851e-002 1.18606528e-002
      1.29845934e-002 -1.36868050e-002 1.57172140e-003 -1.25429714e-002
      1.64273172e-003 -1.54527333e-002 -9.78977303e-004 2.22156141e-002
      1.17739076e-002 3.96315102e-003 -6.31240569e-003 -1.85494276e-003
      -9.09526367e-003 1.29257487e-002 5.53215097e-004 1.63881928e-002
      9.27286968e-003 8.91500991e-003 9.71527118e-003 -7.69217778e-003
      1.79353182e-003 -6.37383619e-003 -1.02861067e-002 -3.20165679e-002
      4.73371288e-003 2.15231273e-002 -5.21053420e-003 8.23024102e-003
      -8.42435285e-003 8.97953846e-003 2.47350009e-003 6.84848055e-003
      -1.68297198e-002 1.24836778e-002 1.04665831e-002 4.05281549e-003
      4.26416285e-003 -6.29923912e-003 -5.67650376e-003 -9.74732172e-003
      8.83899629e-003 -1.17931282e-002 -2.42869864e-004 1.51021639e-002
      1.44108161e-002 1.35266557e-002 4.01249807e-003 1.16072902e-002
      1.23839802e-003 -2.27052090e-003 -2.95813363e-002 -1.87276583e-002
      1.58572644e-002 -1.02152536e-002 -2.23942869e-003 -1.15698362e-002
      2.78833765e-003 1.26035826e-003 1.53936148e-002 -8.61053262e-003
      1.20029161e-002 2.16694307e-002 1.44032333e-002 7.08361482e-003
      -1.21385697e-003 1.28520988e-002 4.10732534e-003 5.20694954e-003
      -1.75786838e-002 2.47971551e-003 1.86370835e-002 1.29059441e-002
      5.63672278e-003 -8.91708676e-003 -1.78656299e-002 -1.90461390e-002
      -1.36802103e-002 -2.72270888e-002 -7.50030158e-003 2.20328849e-002
      1.30578848e-002 8.70785676e-003 -1.53456330e-002 -3.64511693e-003
      -4.29798709e-003 -4.15650393e-005 -8.74092150e-003 1.59805734e-002
      3.74221280e-002 1.52366171e-002 6.33544102e-003 -5.54341916e-003
      3.06178094e-003 -8.64017848e-003 -8.22663540e-004 -2.31972933e-002
      9.82668716e-003 2.75925063e-002 1.37647428e-002 1.86289418e-002
      4.37690597e-003 1.67561509e-003 -3.63919465e-003 1.46615468e-002
      -3.09971248e-004 1.39671937e-002 2.04230403e-003 -2.01813923e-003
      4.43792809e-003 -6.83645112e-003 6.20525423e-003 -4.82267700e-003
      -1.06541375e-002 -3.40840430e-003 7.91255943e-003 -1.58217491e-003
      1.10996549e-003 1.03886956e-002 9.24219750e-003 1.79882906e-002
      -1.58611825e-003 -1.73079483e-002 -1.43097034e-002
      -5.40676061e-004 6.42702496e-003 -6.02463551e-004 1.94222052e-002
      2.77230353e-003 7.09662214e-003 -1.01665163e-003 8.23114882e-004
      -2.02121702e-003 5.70096122e-003 8.45252443e-003 2.45237979e-003
      2.08793934e-002 1.49713736e-002 2.33331509e-002 9.65157803e-003
      -4.86421073e-003 -8.90424941e-003 9.17119440e-003 1.84982771e-003
      6.41592592e-003 1.44592440e-002 4.08269046e-003 -5.00594079e-003
      -7.27059273e-003 -1.72303095e-002 -2.97156442e-002
      -8.49594083e-003 1.86643992e-002 1.65028069e-002 3.12129371e-002
      9.67392419e-003 -7.03878747e-003 -3.50639410e-003 4.47905157e-003
      -4.89983428e-003 1.50836958e-002 1.12357410e-002 6.83169998e-003
      2.88843568e-002 9.01855435e-003 9.87679698e-003 5.61822113e-003
      4.88661521e-004 -1.38811469e-002 4.86741448e-003 1.48521233e-002
      1.69713926e-002 3.02835032e-002 9.40008368e-003 8.56586732e-003
      2.43245391e-003 1.23418514e-002 3.14720208e-004 1.48157859e-002
      6.29732199e-003 1.32784806e-003 1.31830871e-002 4.18755552e-003
      -6.78360369e-003 -1.07395789e-003 7.81050185e-003 8.77089798e-003
      1.48076117e-002 7.83050340e-003 2.89133959e-003 1.61637776e-002
      5.75213926e-003 2.48970091e-003 2.04560570e-002 2.09325962e-002
      2.11940967e-002 1.91130396e-002 2.66910298e-003 -7.18579674e-003
      8.48551560e-003 6.08388009e-003 1.02973869e-002 1.16320057e-002
      2.18243003e-002 4.28325357e-003 7.24232011e-003 5.37518132e-003
      -1.12204365e-002 1.65043690e-003 8.10006913e-003 2.59980820e-002
      3.36754546e-002 3.76114063e-002 1.34454444e-002 9.33828857e-003
      -4.60187468e-004 -3.65629094e-004 2.27944832e-002 2.23336508e-003
      -7.54597178e-003 1.18799126e-002 1.46169411e-002 1.49593633e-002
      6.21672580e-003 -8.25684424e-003 -5.30750398e-003 2.33963802e-002
      2.15081088e-002 2.56143347e-003 1.63882654e-002 9.00423992e-003
      1.14715740e-003 2.87049799e-003 4.60315775e-003 -4.07855306e-003
      6.31865487e-003 1.02922050e-002 2.06164010e-002 2.72291508e-002
      3.00928652e-002 2.32520793e-002 1.26514398e-002 -1.28242681e-002
      -5.45982365e-003 1.38410460e-002 2.04434842e-002 2.36874949e-002
      1.61665846e-002 9.31080431e-003 1.61446352e-002 1.26690073e-002
      3.14694084e-003 2.26623588e-003 1.32020870e-002 1.28787225e-002
      1.78672913e-002 1.26878414e-002 4.15035756e-003 2.48609507e-003
      7.20061408e-003 -2.15334818e-003 1.68063585e-002 2.00530794e-002
      9.09758359e-003 5.25083067e-003 -5.36772748e-003 -2.64227064e-003
      2.42328993e-003 2.48886202e-003 4.42799972e-003 5.16035454e-003
      3.38178012e-003 2.43514348e-002 2.11500321e-002 5.72622148e-003
      -1.86937265e-004 4.23430232e-003 1.06382193e-002 1.51734035e-002
      9.09233652e-003 4.16381005e-003 1.82420760e-002 1.06942225e-002
      2.82205548e-003 -5.67387833e-005 4.91521787e-003 1.38140600e-002
      6.42826874e-003 1.07995477e-002 1.30811157e-002 1.26955006e-003
      -2.61728349e-003 -2.07340010e-002 -9.23576578e-003
      -2.71458179e-003 5.55531867e-003 2.70007197e-002 2.85675544e-002
      3.41385528e-002 1.19185681e-002 1.48599837e-002 -1.17292919e-003
      -1.00706993e-002 4.44260804e-005 2.02459414e-002 1.66645404e-002
      3.18790530e-003 1.66334934e-003 3.83489020e-003 8.84658471e-003
      -1.25657720e-002 -1.23953363e-002 -8.32301565e-003 1.84390675e-002
      2.61601023e-002 2.57912967e-002 1.65902879e-002 1.13842627e-002
      1.03040431e-002 -3.45082115e-003 -1.32455369e-002 -3.26309382e-004
      3.41536887e-002 2.44399067e-002 5.71485609e-003 3.74269066e-003
      -3.71131897e-002 3.67328664e-003 -3.55642028e-002 3.05485297e-002
      1.02803297e-002 1.74900107e-002 1.37835294e-002 -8.60945135e-003
      -6.72587194e-003 -3.55868042e-002 7.67590431e-003 -8.31622630e-003
      2.96476390e-002 1.05930744e-002 8.15722905e-003 5.50475321e-004
      4.37527755e-003 1.17682584e-003 -3.01861130e-002 1.07576081e-003
      -3.35514061e-002 1.23379799e-002 4.75169439e-003 -6.36688760e-003
      1.16473157e-002 1.98620022e-003 -1.08627765e-003 -2.16098893e-002
      1.37588214e-002 -1.31517649e-002 1.57501493e-002 -6.28753146e-003
      -2.15079240e-003 8.73077195e-003 -4.78002848e-003 8.74602795e-003
      -3.73115726e-002 1.43290032e-002 -5.92664815e-003 2.60130651e-002
      1.13845766e-002 1.20843919e-002 2.76120175e-002 -5.14931977e-003
      -6.12610718e-003 -4.06659767e-002 1.47633599e-002 -2.38845050e-002
      2.57634204e-002 2.21217629e-002 2.58939248e-002 6.41354639e-003
      -1.02968710e-002 -7.77345663e-003 -2.87295729e-002 3.09198210e-003
      -2.06498317e-002 2.04950683e-002 -7.15754926e-003 -1.25974882e-002
      4.24600765e-003 -9.95022431e-003 -1.22667355e-002 -3.48947905e-002
      1.34428218e-002 -2.87082233e-002 2.19169240e-002 2.96252547e-003
      6.13028463e-003 9.81790014e-003 -9.91466921e-003 -1.73209291e-002
      -2.91759744e-002 1.07246181e-002 -2.88704988e-002 3.78505234e-003
      1.09636469e-003 8.99972208e-003 1.17651150e-002 1.16314646e-002
      1.03411144e-002 -6.79340912e-003 3.70788015e-002 -9.38588753e-003
      1.49891470e-002 5.95371053e-003 1.25490399e-002 5.20261331e-003
      -2.13933382e-002 -2.05520485e-002 -2.85097267e-002 1.24823181e-002
      -3.09038609e-002 4.77647362e-003 -1.19467825e-002 -1.93009025e-003
      1.32806096e-002 -7.58457510e-003 -9.66302957e-003 -1.85593124e-002
      3.94618623e-002 -1.63366087e-002 2.11445652e-002 3.98285873e-003
      2.08387282e-002 1.23570450e-002 -3.88504565e-003 -2.25110911e-002
      -2.71342546e-002 -2.54710508e-003 -2.91648656e-002
      -5.48892003e-003 3.76878044e-004 1.88783910e-002 3.95692065e-002
      -7.55719608e-003 -3.42625827e-002 -2.92640999e-002
      -5.23595465e-003 -2.35970858e-002 6.50329143e-003 7.92218000e-003
      3.14531885e-002 1.20427143e-002 -2.45219767e-002 -3.35164368e-002
      -4.24846150e-002 7.66878948e-003 -3.24939750e-002 -1.47872750e-004
      1.92605332e-003 2.25521475e-002 3.53184491e-002 -2.95288069e-003
      -2.76403893e-002 -3.26009616e-002 2.10172683e-002 -4.12978092e-003
      7.47777522e-003 5.73172001e-003 2.89291665e-002 1.43580437e-002
      -2.06630100e-002 -3.48621905e-002 -2.86872759e-002 8.29676259e-003
      -1.69958249e-002 6.63672481e-003 -5.15670283e-003 1.72861274e-002
      3.72482953e-003 -2.46996097e-002 -1.80227943e-002 -5.30790212e-003
      1.81030016e-002 -9.75831784e-003 6.84923539e-003 -1.70423277e-002
      7.61606358e-003 2.60416362e-002 -6.52746717e-003 -1.85451992e-002
      -2.83350181e-002 2.43897270e-002 1.16868515e-003 3.99046810e-003
      -1.04246205e-002 2.08809488e-002 2.06320640e-002 -9.17573832e-003
      1.02595733e-002 2.83054402e-003 2.51061022e-002 4.18222370e-003
      7.68076861e-003 -3.94308008e-003 1.87644828e-002 -6.57858793e-003
      -2.21097041e-002 -8.36545974e-003 -1.55389803e-002 1.12129403e-002
      -1.12928646e-002 2.39239517e-003 -1.70061104e-002 3.38762795e-004
      1.67817064e-002 -8.96896049e-003 5.19713573e-003 -1.41964890e-002
      1.97404381e-002 5.45144454e-003 1.36764459e-002 -9.35496017e-003
      1.40795335e-002 1.46766333e-002 -1.63641721e-002 6.43584086e-003
      -2.63747387e-003 1.78947076e-002 -6.20639184e-004 7.84583762e-003
      3.17872129e-003 1.60100162e-002 3.11918631e-002 -9.83642507e-003
      1.19587621e-002 9.09496332e-004 2.08474603e-002 4.34249826e-003
      1.93179771e-002 1.29078683e-002 2.13850513e-002 8.20712000e-003
      -1.47926155e-002 9.69586987e-003 -9.40963533e-003 5.23773208e-003
      -7.11086963e-004 -1.54836094e-002 -2.66311187e-002
      -4.87367762e-003 2.10146233e-002 -1.09616509e-002 1.31170386e-002
      -8.56006611e-003 2.41064513e-003 5.92088886e-003 5.04834461e-004
      -2.13015340e-002 7.00086867e-003 1.66354384e-002 -6.48044376e-003
      -2.74989475e-003 -4.90438659e-003 1.10952919e-002 1.57511560e-004
      -1.24013727e-003 -4.88074264e-003 1.80940647e-002 2.21693926e-002
      -1.55059528e-003 4.29880433e-003 1.39850934e-004 1.15871187e-002
      -2.80551007e-003 8.34994949e-003 -1.59750860e-002 2.39851754e-002
      1.92522928e-002 -1.10073285e-002 -5.15619805e-003 -1.20512759e-002
      -3.58666643e-003 -8.95733852e-003 -3.55243916e-003
      -2.08879858e-002 1.67809613e-002 2.33632345e-002 3.34128621e-003
      5.83452545e-003 -4.41463152e-003 2.36966554e-003 -8.15755595e-003
      -9.99552291e-003 -1.37704434e-002 2.31707245e-002 8.34205281e-003
      -1.20294811e-002 2.13658926e-003 -2.48604367e-004 -6.35975180e-003
      -1.97935924e-002 -6.45938748e-003 -1.75839737e-002 2.13865396e-002
      1.83854755e-002 -1.47413742e-002 7.44662154e-003 1.78559758e-002
      1.47336451e-002 -3.79983126e-003 -5.87168057e-003 -7.71996798e-003
      2.14106403e-002 1.39160603e-002 -8.38962384e-003 -1.29739300e-003
      -1.19865192e-002 3.63105698e-003 -1.30477957e-002 -7.30720628e-003
      -1.87943652e-002 1.37801319e-002 1.01581095e-002 -6.37983577e-003
      5.45050995e-003 4.91900975e-003 4.92487242e-003 -7.02456711e-003
      -1.96862430e-003 -1.34884585e-002 1.48307690e-002 1.11338915e-002
      -2.68619079e-002 -3.68948211e-004 4.93526086e-003 1.60461944e-002
      -1.14406354e-003 2.67875171e-003 -6.15376630e-004 1.59609951e-002
      1.33180730e-002 -2.10729660e-003 1.41657321e-002 1.54904621e-002
      2.63844244e-002 2.06155293e-002 2.03846507e-002 1.00188917e-002
      2.07545348e-002 5.14833955e-003 3.09310213e-004 1.25163849e-002
      2.06686580e-003 -2.19305092e-003 -1.11920014e-002 -7.70835625e-003
      -2.33934429e-002 -3.75796622e-003 7.10818218e-003 -9.96588824e-006
      1.97622571e-002 1.26905376e-002 2.66591944e-002 8.69371742e-003
      -1.06026381e-002 -2.31566746e-002 -3.42423003e-003 5.91963762e-003
      -8.17044231e-004 1.19667826e-002 1.33200763e-002 2.47287638e-002
      1.51378047e-002 9.44831874e-003 -3.62724252e-003 1.04584200e-002
      1.89788602e-002 1.36439614e-002 1.84603091e-002 3.28111388e-002
      4.43879738e-002 2.68690716e-002 4.02746489e-003 -9.26623354e-004
      1.20841004e-002 1.44981202e-002 3.44151934e-003 2.19977181e-002
      1.79476831e-002 2.43607499e-002 1.04741380e-002 -4.69430117e-003
      -1.84173565e-002 -8.65415391e-003 9.26426426e-003 4.75648791e-003
      2.16162875e-002 7.23831542e-003 1.57581437e-002 3.43689602e-003
      4.61956672e-003 -3.41084646e-003 -1.04175799e-003 1.24740871e-002
      1.27965165e-002 2.03970652e-002 2.72287931e-002 3.03513631e-002
      1.67881101e-002 3.23471497e-003 4.38534888e-003 1.28599536e-002
      1.01013738e-003 3.08905472e-003 2.45739352e-002 1.64943151e-002
      2.41793916e-002 1.58867463e-002 1.08325239e-002 1.00724278e-002
      1.77315110e-003 2.00443063e-003 -3.15817259e-003 1.02449497e-002
      9.17870831e-003 1.98688582e-002 1.84265487e-002 1.19176758e-002
      -2.04649707e-003 4.23945021e-003 -1.09504057e-004 -4.93375538e-003
      4.04145056e-003 1.75582357e-002 3.34181860e-002 3.96988727e-002
      1.59966294e-002 9.12114605e-003 6.36454858e-003 1.12603251e-002
      -6.64103776e-003 1.94462594e-002 1.51809901e-002 2.50403751e-002
      1.04705738e-002 1.54026346e-002 3.88236041e-003 1.21035734e-002
      2.61884229e-003 -7.11247139e-003 6.04284089e-003 1.55641641e-002
      2.35560685e-002 2.08002832e-002 1.74062271e-002 1.56441226e-003
      4.50796448e-003 -4.52329172e-003 3.55196302e-003 9.27968882e-003
      1.20001417e-002 2.39127465e-002 3.04622520e-002 1.04788514e-002
      1.54136745e-002 -3.44361848e-004 -4.34963405e-003 5.60289109e-003
      1.30697843e-002 2.91421264e-003 2.06134040e-002 6.73262263e-003
      -2.33908859e-003 1.39292274e-002 4.05461201e-003 6.63945510e-004
      9.93192568e-003 1.62578616e-002 1.32239498e-002 1.36942929e-002
      2.72523314e-002 1.22499578e-002 1.54493349e-002 -1.61601871e-003
      1.68079399e-002 7.09003070e-003 1.70236453e-002 9.76447668e-003
      1.80693045e-002 2.08386090e-002 3.27518163e-003 4.91507584e-003
      1.69286951e-002 3.89995798e-003 8.70769005e-003 2.42694980e-003
      5.67703461e-003 1.59629211e-002 -2.10301951e-004 -5.76443877e-003
      8.52936588e-004 9.10584815e-003 1.84070840e-002 1.49802128e-002
      3.87423881e-003 1.15309851e-002 1.25943683e-002 -3.52407061e-003
      1.53014320e-003 3.46365641e-003 7.64418021e-003 2.12460663e-002
      2.80655478e-003 1.37377111e-002 6.14573155e-003 1.97649226e-002
      9.07971617e-003 -2.88152951e-003 -4.38597193e-003 2.54738592e-002
      1.93667058e-002 9.26760398e-003 1.01783443e-002 1.36130042e-002
      1.17936032e-002 8.28170218e-003 5.01702633e-003 -7.12092314e-003
      1.60864983e-002 1.30124316e-002 9.17398185e-003 -5.51620638e-003
      1.14393020e-002 1.26365200e-002 -1.38769476e-002 -7.06669781e-003
      -6.19559502e-003 7.01628160e-003 2.05926280e-002 2.96845343e-002
      5.43257082e-003 1.19097838e-002 9.40777455e-003 -1.52215408e-002
      -1.01746460e-002 6.06623478e-003 2.23740619e-002 7.34088849e-003
      1.60796719e-003 -5.33329032e-004 1.60194859e-002 1.50645813e-002
      2.30037654e-003 9.00155678e-003 -3.03989789e-003 6.77593565e-003
      1.39448736e-002 1.56179611e-002 7.04106456e-003 2.32734904e-002
      1.31476829e-002 9.09486378e-004 3.72646237e-003 1.46832736e-002
      1.40529340e-002 1.09936832e-003 -1.05867097e-002 -8.14766064e-003
      -3.13594043e-002 1.28238192e-002 -2.70882305e-002 1.04068443e-002
      1.22368699e-002 3.27551854e-003 1.79077331e-002 -4.13222937e-003
      -1.16622290e-002 -2.53005289e-002 1.00163799e-002 -1.62352268e-002
      1.89440958e-002 1.00222081e-002 5.52392611e-003 1.44065153e-002
      -1.94782913e-002 -2.90236846e-002 -5.11669666e-002 4.43627872e-003
      -3.90523151e-002 -3.42179276e-003 -1.82882149e-003 1.02799106e-002
      3.01925931e-002 -1.54454047e-002 -3.25462855e-002 -3.82267125e-002
      5.49727725e-003 -2.45615933e-002 1.50278443e-002 9.42563545e-003
      3.03762741e-002 1.90267917e-002 -7.45856669e-003 -1.29832951e-002
      -3.36524770e-002 -9.34988726e-003 -2.33940519e-002 1.50758103e-002
      2.50887388e-004 -3.46431253e-003 2.57191192e-002 -1.40038189e-002
      -1.76303294e-002 -3.86626273e-002 -1.78561341e-002
      -3.49405557e-002 1.06966691e-002 6.88793091e-003 3.25513608e-003
      3.86463925e-002 -2.16109492e-002 -2.90098563e-002 -4.61892299e-002
      -7.78607791e-003 -2.65139639e-002 1.07111074e-002 -6.17152546e-003
      2.94332094e-002 4.99813035e-002 -2.04276126e-002 -2.19823718e-002
      -4.59171012e-002 -1.05233872e-002 -3.52022052e-002 1.55764977e-002
      -6.05466869e-003 3.45095247e-002 8.12968984e-003 -1.88620873e-002
      -3.60195488e-002 -4.50867303e-002 -1.14124101e-002
      -3.09643354e-002 8.61904491e-003 -1.25264246e-002 5.67215355e-003
      4.07403335e-002 -1.71861760e-002 -3.20520997e-002 -4.23169881e-002
      2.16455534e-002 -1.69123653e-002 2.96431817e-002 8.71856976e-003
      3.75571884e-002 3.17750461e-002 -1.83625855e-002 -3.14312242e-002
      -5.32539263e-002 -1.96075793e-002 -4.17815894e-002 1.51861506e-003
      -7.03435205e-003 1.79947410e-002 4.16248441e-002 -6.91173458e-003
      -3.47033776e-002 -3.91201004e-002 -1.41733699e-003
      -3.18175256e-002 6.23770198e-003 -3.54287913e-004 3.94985341e-002
      1.79902576e-002 -3.61212417e-002 -5.67367077e-002 -6.18973412e-002
      -7.48085277e-003 -3.92427407e-002 -3.00757331e-003
      -7.16496317e-004 2.38398965e-002 4.97257486e-002 -1.53592359e-002
      -3.41049507e-002 -4.74086739e-002 1.19161801e-002 -1.34981228e-002
      -2.17497186e-003 -1.95005370e-004 4.04850431e-002 2.78518815e-002
      -2.71323677e-002 -5.50495349e-002 -6.03991896e-002
      -1.83621552e-002 -4.43487279e-002 -1.46151958e-002
      -1.09019494e-002 2.59872042e-002 5.65384477e-002 -7.08521856e-003
      -2.57711336e-002 -4.33897786e-002 1.10911066e-002 -1.66612590e-004
      2.33573257e-003 -2.99390196e-003 4.51058336e-002 1.26223490e-002
      -2.26902999e-002 -3.27276438e-002 -4.23868261e-002 1.33711612e-002
      -1.19656278e-002 -6.22594170e-003 -1.98809337e-002 5.77972410e-003
      1.62091646e-002 -2.47396082e-002 -9.45969205e-003 -1.21531226e-002
      5.00266254e-003 -7.71471951e-003 -7.01972423e-003 -1.42673440e-002
      1.33610796e-002 3.22717726e-002 -1.58294588e-002 -2.09745355e-002
      -2.71122027e-002 2.18869690e-002 -3.21965781e-003 -6.27654744e-003
      -4.91517130e-003 2.98762452e-002 3.15738544e-002 -2.32870206e-002
      -1.47554269e-002 -5.31332521e-003 2.04254612e-002 -1.45193504e-003
      8.35810788e-003 4.19887900e-003 3.55259366e-002 7.04613468e-003
      -1.85285080e-002 -3.83424736e-003 -1.06818136e-002 2.41549569e-003
      -1.42821521e-002 -7.43829366e-003 -8.21657386e-003 1.18215932e-002
      2.39923280e-002 -2.37223879e-002 -1.61048546e-002 -1.29014300e-002
      2.26448718e-002 -8.90721846e-003 8.10491387e-003 5.21764532e-003
      2.93195453e-002 2.42855214e-002 -2.85539273e-002 -9.20691527e-003
      -8.09426513e-003 1.45283807e-002 -1.74400141e-003 8.03660695e-003
      -4.31292085e-003 2.19691098e-002 3.68657522e-002 -2.83126961e-002
      -5.91473002e-003 3.86147760e-003 3.34206708e-002 -2.68133567e-003
      1.07689658e-002 -5.57050249e-003 3.01608685e-002 1.40610756e-002
      -2.62275189e-002 -2.30586100e-002 -2.88133752e-002 3.98505758e-003
      -2.07273159e-002 -3.89994425e-003 -1.33923544e-002 1.93238799e-002
      1.59008000e-002 -9.27940384e-003 -3.68427625e-003 -3.59357218e-003
      1.96295399e-002 -1.21008614e-002 4.17985767e-003 -1.26695875e-002
      1.70834884e-002 2.19084080e-002 -2.93843020e-002 -1.36724943e-002
      -1.25392918e-002 1.37138935e-002 -1.63841583e-002 -3.98872001e-003
      -1.41897751e-002 2.49956250e-002 2.87593119e-002 7.96296299e-005
      1.90423392e-002 1.18604153e-002 2.64546424e-002 7.92001188e-003
      4.80215903e-003 -8.76109768e-003 2.28813142e-002 -6.85333600e-003
      -1.98090933e-002 -3.02573503e-003 3.88081814e-003 7.92971812e-003
      -8.27281643e-003 4.74206498e-003 -1.02395834e-002 3.48426867e-003
      2.73104338e-003 -3.81572917e-002 -1.31679578e-002 4.07102238e-003
      1.71406884e-002 -1.69503829e-003 1.46030532e-002 -4.69858525e-003
      9.90928058e-003 7.62815913e-003 -2.99378019e-003 1.34545900e-002
      2.37095281e-002 2.54396088e-002 1.59830600e-002 1.86099671e-002
      -5.72330365e-003 8.59215390e-003 1.59356873e-002 2.59314198e-003
      3.59546556e-003 9.89090186e-003 1.78981256e-002 7.74231879e-003
      2.24825349e-002 9.03912913e-003 2.79313792e-002 -2.01220694e-003
      -3.55731472e-002 -1.20158345e-002 -7.10289786e-003 5.82209229e-003
      -5.55468164e-003 3.12076532e-003 -2.10943911e-003 6.69582700e-003
      5.68031985e-003 -2.13023983e-002 3.74937267e-003 1.85106217e-003
      1.95145886e-002 1.01283714e-002 1.05577558e-002 1.31920876e-003
      1.44650759e-002 2.45377216e-002 -4.98001697e-003 -6.68876455e-004
      -3.12319584e-003 1.03588048e-002 -8.26853327e-004 -3.64944129e-003
      2.58175400e-003 1.87749323e-002 2.68253423e-002 1.51318789e-003
      1.15034627e-002 5.44442562e-003 2.14662831e-002 1.83434878e-002
      9.64558590e-003 8.90512951e-003 1.79388095e-002 -9.78014199e-004
      -2.10597627e-002 -9.99893434e-003 -9.85383615e-003 8.54117330e-003
      5.17968414e-003 -1.21507002e-003 -1.43180564e-002 8.91836081e-003
      1.34485820e-002 -5.63917449e-003 -7.96629116e-004 8.52363557e-003
      2.88702529e-002 6.73550274e-003 -1.58143824e-003 -1.69219151e-002
      1.87291335e-002 2.22268924e-002 -1.97710656e-003 -7.16569647e-003
      -9.60508175e-003 1.89187340e-002 2.55399244e-003 2.96034035e-003
      -2.25513661e-003 1.23566678e-002 2.53296494e-002 1.50980847e-002
      -9.97736002e-004 6.60571689e-003 2.85192840e-002 7.42541160e-004
      1.08844256e-002 -1.92644969e-002 1.28053427e-002 7.03244423e-003
      4.03434690e-003 1.51506141e-002 7.99028669e-003 2.09483411e-002
      6.28066808e-003 2.99883704e-003 -1.42662693e-002 5.75325824e-003
      -1.60867255e-002 -7.68598123e-003 1.90425068e-002 1.87645562e-003
      1.14458390e-002 5.73794032e-003 1.20092677e-002 -1.03925895e-002
      -1.28473388e-002 2.05991361e-002 4.72907955e-003 4.20189695e-003
      1.32352225e-002 3.21819335e-002 3.54468334e-003 9.20604728e-003
      -1.48601290e-002 7.36847566e-003 5.66279225e-004 -1.08899930e-002
      1.58419888e-002 9.04927962e-003 2.37342492e-002 1.17086479e-002
      1.81886666e-002 -8.40048585e-003 7.51885027e-003 -1.55842130e-003
      -5.88869303e-003 1.94589235e-002 1.19988825e-002 9.45015904e-003
      5.08941989e-003 1.37732606e-002 -8.40017339e-004 8.05935822e-003
      3.92787671e-003 -1.05903354e-002 4.09364421e-003 6.51071128e-003
      6.04559015e-003 4.41324431e-003 1.50370933e-002 2.43636617e-003
      6.50951546e-003 1.18551627e-002 -6.26761746e-003 1.39089571e-002
      5.92609169e-003 1.37283029e-002 1.79568995e-002 1.67355966e-002
      4.98415960e-004 2.00418811e-002 2.50848718e-002 -7.04083778e-003
      9.74071585e-003 9.58042312e-003 5.54188900e-003 1.45659121e-002
      1.84442243e-003 2.51098350e-003 1.92932673e-002 2.35227589e-003
      -8.39889050e-003 7.94347562e-003 4.40920750e-003 -2.00702227e-004
      2.47090030e-003 1.06489556e-002 7.80700892e-003 -1.39259850e-003
      1.03700636e-002 -1.37972236e-002 -1.60754810e-003 -5.59694041e-003
      1.32678812e-002 4.90012160e-003 6.51828945e-004 7.41155818e-003
      1.47051010e-002 1.56554580e-002 -9.22784675e-003 9.02375858e-003
      1.09685808e-002 6.08823402e-003 7.11182691e-003 9.29548463e-004
      9.50701593e-004 2.27554645e-002 2.24839468e-002 -1.80328134e-002
      -4.39715525e-003 5.45202103e-003 2.02766750e-002 1.51967341e-002
      6.45430153e-003 1.01961661e-002 2.76156571e-002 2.45858002e-002
      -7.94988405e-003 -5.44412015e-003 -2.98989727e-003 1.57043897e-002
      7.82306015e-004 6.27830043e-004 -4.69259266e-003 2.77351923e-002
      2.04950348e-002 2.07851059e-003 4.43191128e-003 1.19849406e-002
      5.31620206e-003 -9.09648556e-003 -1.42313621e-003 -1.43066673e-002
      2.00740434e-002 3.05838250e-002 -5.58778923e-003 -1.90014008e-003
      8.11213907e-003 2.10520662e-002 1.40336873e-002 8.42132140e-003
      2.72760098e-003 3.72949615e-002 2.06343625e-002 1.15815802e-002
      1.38202112e-003 1.28572993e-002 7.06424471e-003 -1.61015466e-002
      -1.07620433e-002 -1.44781489e-002 2.43564676e-002 -4.62765776e-004
      -4.02287394e-003 4.10950836e-003 2.04650406e-002 2.00843178e-002
      3.99168464e-004 1.00015951e-002 -8.69780499e-003 2.77658785e-003
      1.25710918e-002 9.73691698e-003 -3.29001434e-003 1.83649603e-002
      2.00733840e-002 9.22772288e-003 1.26388893e-002 1.72877219e-002
      7.02475989e-003 6.38553826e-003 6.08211895e-003 -1.17193758e-002
      1.74833357e-003 1.82330441e-002 -9.09954496e-003 -3.41842417e-003
      -9.93280672e-003 2.86026648e-003 1.70163028e-002 1.04070446e-002
      -1.57696977e-002 7.07540195e-004 1.10818092e-002 -6.08296040e-003
      2.74084305e-004 -7.05354963e-004 9.61298030e-003 2.39559170e-002
      -1.29859662e-002 -2.48553790e-002 -4.81293499e-002 2.51717139e-002
      -1.91364139e-002 -4.68655210e-003 -9.17550176e-003 1.29367635e-002
      1.86992530e-002 -2.32663099e-002 -3.36692967e-002 -4.03354913e-002
      3.13634947e-002 -2.28062905e-002 -2.29793740e-003 -6.13817107e-003
      1.83879733e-002 1.62454937e-002 -1.32707774e-003 -3.35631473e-003
      -4.07611057e-002 2.94932835e-002 -3.64702865e-002 -1.54090459e-002
      -1.09657636e-002 2.21333047e-003 1.15984520e-002 -9.60589852e-003
      5.52732544e-003 -2.79876031e-002 2.04215776e-002 -2.99102273e-002
      1.11633411e-003 -2.00493895e-002 -2.00523017e-003 1.52340261e-002
      -3.02077476e-002 -2.73245368e-002 -3.15119140e-002 1.05087804e-002
      -2.37792339e-002 3.82135448e-004 -4.08704253e-003 1.56342313e-002
      3.42575312e-002 -2.33854204e-002 -2.49217879e-002 -4.49315123e-002
      8.06897413e-004 -3.29559296e-002 -3.78788798e-003 -9.40739177e-003
      3.45342308e-002 4.17547487e-003 -1.11905932e-002 1.93047815e-003
      -2.75861826e-002 2.24203691e-002 -2.96626948e-002 -5.38638327e-003
      -2.03318242e-002 -6.28384668e-003 2.68983729e-002 -9.61728301e-003
      -8.74697696e-003 -4.96439338e-002 1.30928447e-002 -3.63887399e-002
      -3.57006583e-003 -1.00422893e-002 1.51235117e-002 4.02114280e-002
      -3.00294557e-003 -1.56686958e-002 -3.87872756e-002
      -6.97661750e-003 -4.02634367e-002 -9.78383515e-003 2.19416711e-003
      3.31976935e-002 5.54620773e-002 4.94348584e-003 -1.20753385e-002
      -2.46070102e-002 6.86951587e-003 -3.11705116e-002 -1.32359490e-002
      4.35200706e-003 4.71014567e-002 1.51684377e-002 -1.07582677e-002
      -1.43342912e-002 -4.20014262e-002 -1.07787352e-003
      -4.52322587e-002 -2.29583737e-002 -1.55773684e-002 4.85459529e-003
      1.83671564e-002 -8.98928568e-003 -3.54797975e-003 -2.35217828e-002
      2.04432812e-002 -2.84529775e-002 -1.55733321e-002 -7.41622830e-003
      2.35057771e-002 3.93843763e-002 -1.58358105e-002 -3.92257087e-002
      -4.39425223e-002 -9.79883317e-003 -4.63240109e-002
      -3.36850211e-002 -2.22355258e-002 3.07812672e-002 6.89658076e-002
      9.15599428e-003 -4.26177401e-003 -1.55631602e-002 2.58717407e-002
      -9.05314088e-003 -8.44450481e-003 -3.28728650e-003 5.39669879e-002
      5.23071038e-003 -2.50590872e-002 -2.76962407e-002 -5.08979745e-002
      -1.11680906e-002 -5.62371537e-002 -4.52361517e-002
      -3.60233299e-002 1.03021795e-002 4.22397889e-002 -7.39492569e-003
      -2.84062652e-003 -1.82399359e-002 1.92916524e-002 -2.97695789e-002
      -1.93198081e-002 -2.12599859e-002 2.97546498e-002 3.52455303e-002
      -1.96482334e-002 -9.92217381e-003 -1.92227252e-002 9.35185049e-003
      -2.20568776e-002 -2.37813555e-002 -1.47695672e-002 2.70935129e-002
      4.00597043e-002 -2.07137391e-002 -6.74878480e-003 3.24024213e-003
      3.40711437e-002 -9.56224557e-003 -7.44118961e-003 -1.04173867e-003
      3.99607718e-002 1.19837914e-002 -2.88196653e-002 -1.04371086e-002
      -2.16340385e-002 8.73657782e-003 -3.07209119e-002 -3.12989093e-002
      -3.85864936e-002 9.55400523e-003 2.47013755e-002 -1.00298561e-002
      3.83258937e-003 1.29566472e-002 4.69709225e-002 -9.94650368e-003
      -2.55477261e-002 -2.97435466e-002 1.69596970e-002 2.42968388e-002
      -2.65462454e-002 -8.58875550e-003 -5.68228820e-003 2.85419878e-002
      -8.31444934e-003 -3.03272833e-003 -1.81558970e-002 1.96499713e-002
      3.62203941e-002 -3.33078690e-002 -1.01611027e-002 -6.72634505e-003
      3.89004461e-002 -3.33514484e-003 -3.44680017e-003 -1.89707838e-002
      1.72421709e-002 2.03315355e-002 -1.78089533e-002 -6.11061510e-003
      8.66163289e-004 4.43218797e-002 -3.89016932e-003 -1.66536495e-002
      -3.57952118e-002 5.14808018e-003 2.88673583e-002 -2.03099288e-002
      -9.76726878e-003 -1.44264859e-003 5.49751893e-002 1.09255929e-002
      -1.01508328e-003 -1.89937148e-002 1.13753695e-002 2.40981132e-002
      -2.86061391e-002 -1.36188706e-002 -1.31269153e-002 2.66775060e-002
      -9.91608761e-003 -6.50594104e-003 -1.36085637e-002 1.74376089e-002
      2.17777900e-002 -1.20331291e-002 1.17994696e-002 1.57115411e-003
      3.57480943e-002 -2.93957273e-004 7.23479548e-004 -1.56055531e-002
      1.77538320e-002 2.01393254e-002 -2.54745185e-002 -1.03766909e-002
      -7.52758328e-003 3.94920297e-002 9.04719811e-003 -4.77488060e-003
      -1.96310915e-002 1.72358863e-002 1.92142203e-002 -7.70018576e-003
      1.02590499e-002 5.17384568e-003 5.10236360e-002 6.22762507e-003
      -1.92436238e-003 -2.50541028e-002 1.48486197e-002 5.08678565e-003
      -9.01550986e-003 8.92819744e-003 1.01864897e-002 1.97769869e-002
      -1.76391297e-003 1.30847935e-002 -1.01400381e-002 1.16270287e-002
      2.39356253e-002 8.73390026e-003 1.31989075e-002 1.12794200e-002
      1.29286433e-002 -7.07979593e-003 1.32303555e-002 1.14116725e-003
      2.12240927e-002 4.06172965e-003 -1.40395109e-002 3.17485444e-003
      1.00670839e-002 3.66308242e-002 4.78138262e-003 6.23480463e-003
      -2.16047429e-002 -2.00637718e-004 1.84215419e-002 7.08983652e-003
      6.52697496e-003 6.60392176e-003 1.99693777e-002 -1.01868168e-003
      7.42365513e-003 3.14938161e-003 1.67044206e-003 3.91660556e-002
      9.60619189e-003 1.48376059e-002 4.98568872e-003 1.09980954e-002
      2.38701422e-003 1.43058214e-003 6.23633992e-003 2.63453089e-002
      2.93175038e-002 -5.10060228e-003 9.60077252e-003 9.06656682e-003
      1.34465806e-002 1.69562735e-002 8.09103996e-003 6.46524364e-003
      2.01582722e-002 1.44850053e-002 7.21762097e-003 1.51412422e-002
      2.25899788e-003 1.51200918e-002 8.23286083e-003 4.15172754e-003
      6.15412695e-003 7.70172104e-003 9.24380217e-003 -7.60105718e-003
      1.39457388e-005 1.11402208e-002 1.10982014e-002 9.25882068e-003
      -7.67643272e-004 -7.88741559e-003 -5.14611311e-004 3.27957012e-002
      4.71366616e-003 1.94494659e-003 4.89636697e-003 1.95844080e-002
      9.99035593e-003 6.54079765e-003 -1.87374442e-003 2.49417610e-002
      3.83605286e-002 3.54284095e-003 -5.94491651e-003 1.84866562e-002
      3.95564139e-002 7.59580964e-003 2.52573099e-003 -1.59321744e-002
      1.93277132e-002 1.04122590e-002 -1.70076899e-002 -1.29117016e-002
      3.12776561e-003 1.90738793e-002 6.71167299e-003 -2.84685427e-003
      -8.32284056e-003 -8.88152688e-004 -1.73729018e-003
      -3.50816697e-002 -1.86114293e-002 8.57503992e-003 3.84824127e-002
      1.21283513e-002 3.89315421e-003 -2.36877259e-002 -8.52428284e-003
      2.70931255e-002 -3.33708315e-003 6.68397988e-004 1.90088060e-002
      4.22622710e-002 8.97155982e-003 8.19643494e-003 -1.62777528e-002
      8.83688871e-003 9.83801670e-003 -9.14219208e-003 5.26595535e-003
      1.40372273e-002 3.56246643e-002 2.61416398e-002 1.66841075e-002
      -6.38454454e-003 1.61159132e-002 -1.88087765e-002 -2.51317304e-002
      -9.25604161e-003 1.51755512e-002 4.66601849e-002 2.37932540e-002
      1.15104085e-002 -2.33999640e-002 -1.61827449e-002 -3.28516867e-003
      -1.27120027e-002 -2.46841717e-003 2.60526855e-002 5.17776199e-002
      4.03877012e-002 1.66195575e-002 -2.12936047e-002 -5.57147199e-004
      5.70980459e-003 -1.05300443e-002 -2.83099175e-003 -6.53263135e-003
      1.16536040e-002 1.72619876e-002 1.33550726e-002 -1.04818195e-002
      1.16716269e-002 1.21217771e-002 1.28887664e-003 8.39737989e-003
      1.06255887e-002 1.66934822e-002 1.31183490e-002 1.10636167e-002
      4.48664511e-003 4.33716550e-003 4.31502238e-003 -3.07373120e-003
      -1.70354918e-003 1.05877174e-002 2.28022691e-002 2.63589602e-002
      1.12871416e-002 -8.63383338e-003 1.29653765e-002 1.68194179e-003
      1.54857934e-002 1.26226554e-002 1.16369873e-002 2.60274615e-002
      2.70438287e-002 2.01588664e-002 3.96960462e-003 2.00847676e-003
      1.67922140e-003 5.84520493e-003 6.45276112e-003 5.07869944e-003
      2.51335688e-002 3.80590861e-003 3.75449145e-003 -1.01650590e-002
      -5.58186509e-003 3.62269953e-003 3.99431650e-004 5.50662284e-004
      7.12060928e-003 3.53426822e-002 1.86634939e-002 -6.65640319e-003
      -1.80231091e-002 -9.32383724e-003 3.94037925e-004 1.46424137e-002
      1.41387237e-002 8.59069359e-003 2.80878004e-002 1.47346146e-002
      1.68434978e-002 -3.01870378e-003 -1.10177873e-002 1.08769594e-003
      1.26840351e-002 1.46193756e-002 1.82698052e-002 3.35999504e-002
      9.68247745e-003 2.67027458e-003 -6.47841347e-003 -1.75908320e-002
      9.37451888e-003 -6.29272952e-004 -1.72861910e-003 9.99360718e-003
      2.74771117e-002 5.26570017e-003 -8.87445360e-003 -1.08936578e-002
      6.12599484e-004 1.34476293e-002 1.36971474e-003 -9.10703000e-003
      1.06888441e-002 1.39244767e-002 -1.22521697e-002 -1.10173784e-002
      -1.71296261e-002 9.50270705e-003 9.68459062e-003 1.46300644e-002
      3.92208062e-003 2.47990917e-002 2.89624836e-002 -4.50416096e-003
      -5.84404566e-004 1.51857719e-004 -9.63067694e-004 1.65223312e-002
      7.91288167e-003 -9.55281127e-003 5.81898214e-003 9.15539265e-003
      -1.00425808e-002 -5.40751824e-003 6.83293736e-004 1.38578909e-002
      1.23815527e-002 7.56329251e-003 -1.15509909e-002 1.08551299e-004
      2.44491287e-002 6.53190352e-003 2.61409348e-003 -5.17593184e-003
      6.22742018e-003 2.64449771e-002 9.86016728e-003 -1.24336537e-002
      -6.06064976e-004 2.16394220e-003 -3.66704375e-003 -3.84683302e-003
      3.38852545e-003 1.92920696e-002 1.45743946e-002 5.12640318e-003
      -7.84588605e-003 -2.98606837e-003 1.39951147e-002 1.56002957e-003
      2.65713385e-003 -6.13565848e-004 1.26276528e-002 1.43655762e-002
      5.31002134e-003 -8.78441148e-003 -1.61087548e-003 -8.08419473e-003
      -1.38851022e-002 7.85499651e-005 1.04368264e-002 1.29128303e-002
      1.90919843e-002 1.47130666e-002 1.63639076e-002 -2.30737757e-002
      1.62628572e-002 -4.71016541e-002 -2.89354753e-002 -9.12879594e-003
      9.25312098e-003 2.01972201e-002 1.99177507e-002 1.90626737e-002
      -2.34752763e-002 -4.92461142e-004 -4.86910865e-002
      -1.35191726e-002 -1.78374499e-002 1.12097347e-002 1.64733492e-002
      1.00738201e-002 1.72217097e-002 -2.98161190e-002 1.67018995e-002
      -4.31104898e-002 -1.22533329e-002 -8.71122908e-003 7.28145288e-003
      3.54046002e-002 3.09547894e-002 2.09721606e-002 -1.62105653e-002
      5.63681778e-003 -3.96794155e-002 -1.50556164e-002 -8.26168340e-003
      2.09489707e-002 1.81101952e-002 1.84093956e-002 1.49734002e-002
      -1.64567791e-002 1.14350617e-002 -3.97088677e-002 -2.59068478e-002
      -2.66782679e-002 6.87268190e-003 2.73243617e-002 4.79546958e-004
      6.61359634e-003 -4.03821804e-002 2.46192832e-002 -4.37501445e-002
      -3.22316475e-002 -2.15357170e-002 2.27427557e-002 2.01667566e-002
      1.60839055e-002 6.92993915e-003 -1.59560964e-002 9.40350443e-003
      -3.74024510e-002 -3.24001275e-002 -2.05125511e-002 8.75998754e-003
      3.30669992e-002 -9.12608288e-004 -1.12262234e-004 -3.13739218e-002
      2.19631884e-002 -3.98212895e-002 -2.15863083e-002 -1.83420721e-002
      1.82528347e-002 2.52804868e-002 -3.69171239e-003 -5.16721420e-003
      -3.23570184e-002 7.63771823e-003 -3.34495977e-002 -2.11724602e-002
      -1.73400361e-002 1.92460250e-002 1.98558327e-002 -6.54606568e-003
      -1.54003443e-003 -2.05273516e-002 2.19787639e-002 -1.67427491e-002
      -3.43089155e-003 -3.52515513e-003 2.69557089e-002 3.03430110e-002
      -9.22861882e-003 -1.13432305e-002 -3.58007811e-002 1.77236628e-002
      -3.52068692e-002 -1.81702208e-002 -1.59240682e-002 2.28655860e-002
      3.17385904e-002 -5.74831292e-003 -1.59125880e-003 -1.80571694e-002
      2.11282484e-002 -1.75489951e-002 -3.49354232e-003 3.35382717e-003
      3.60960364e-002 7.38474773e-003 -2.66727060e-002 -1.32287163e-002
      -3.02569121e-002 3.84578528e-003 -3.28940973e-002 -3.07949595e-002
      -1.98356044e-002 1.95236839e-002 4.01959978e-002 -7.38135306e-004
      9.70189553e-003 -4.77530714e-003 2.41569355e-002 -1.48114748e-002
      -1.10793253e-002 -2.31715012e-003 4.23530899e-002 5.07403677e-003
      -2.54270583e-002 -1.14108752e-002 -1.80700365e-002 1.02299023e-002
      -2.56037898e-002 -2.19302736e-002 -1.76978931e-002 2.25880686e-002
      3.31438147e-002 -5.49275707e-003 3.80773004e-003 6.45552762e-003
      3.77331562e-002 -1.34872599e-002 4.18777438e-003 -6.85295439e-004
      4.05083224e-002 2.80769207e-002 -1.00744683e-002 6.05962938e-003
      -8.89221113e-003 1.31346229e-002 -2.71685869e-002 -1.63211096e-002
      -3.23746428e-002 2.29653697e-002 3.58612165e-002 1.42855349e-003
      1.61720961e-002 2.22159177e-002 3.99353504e-002 1.48775533e-003
      -9.14781541e-003 -2.69089434e-002 1.35375448e-002 2.27297656e-002
      -1.23472661e-002 -6.59318082e-003 -1.70009919e-002 5.45287784e-003
      -3.42690609e-002 -1.36719570e-002 -2.67360564e-002 1.01005789e-002
      2.51226705e-002 3.36210825e-003 1.63937174e-002 2.46545812e-003
      2.26286296e-002 -1.49641000e-002 -1.54996421e-002 -2.51826942e-002
      1.17309391e-002 2.03431230e-002 -8.24122131e-003 2.58796522e-003
      2.13220995e-003 3.36847194e-002 -4.47206013e-003 -1.35488557e-002
      -4.29601036e-002 -8.53384845e-003 4.65770997e-002 5.76574029e-003
      3.44691612e-003 8.40839185e-003 5.25245182e-002 1.13417590e-002
      -2.54489481e-003 -1.99101213e-002 9.02296137e-003 1.25831589e-002
      2.41100905e-003 8.73329863e-003 -6.33853814e-003 2.09728554e-002
      -1.32288393e-002 -1.89398471e-002 -4.49557267e-002
      -1.10193463e-002 3.50095592e-002 1.73328184e-002 9.76958871e-003
      1.91213621e-003 3.10778562e-002 -3.20831174e-003 -6.54407172e-003
      -4.26509045e-002 4.15865285e-003 3.73274647e-002 -9.16887075e-003
      -1.80881191e-003 -1.17209402e-003 4.02232669e-002 4.32975357e-003
      2.02447455e-003 -1.23074660e-002 1.52147980e-002 2.47903354e-002
      -5.19951107e-003 9.80866980e-003 8.83214455e-003 4.07585911e-002
      1.39466682e-002 1.49022127e-002 -1.67350508e-002 1.08325994e-002
      1.60055179e-002 -1.59140769e-003 1.88515801e-003 -8.57479777e-003
      1.34986592e-002 -2.17835438e-002 -8.74886196e-003 -3.92783061e-002
      9.16200588e-005 1.08111193e-002 -8.68307147e-003 1.82529737e-003
      4.63740062e-003 1.75109375e-002 -4.65430785e-003 5.34986751e-003
      -2.09552068e-002 -9.76966345e-004 2.30663959e-002 -7.34914327e-003
      7.50328461e-003 7.52989622e-003 4.01094072e-002 1.46805067e-002
      1.35973999e-002 -1.32582467e-002 1.67618878e-002 2.69202646e-002
      9.14676767e-003 2.05993932e-003 7.62989931e-003 2.68287882e-002
      4.32598079e-003 1.34981051e-002 3.89205921e-003 2.30823103e-002
      8.91496427e-003 -1.49498703e-002 3.59363062e-003 1.14321080e-003
      1.98417809e-002 3.65645625e-003 1.32099232e-002 -1.05809188e-002
      2.86606071e-003 5.94505295e-003 -1.65669397e-002 -7.07126176e-003
      -1.53192726e-003 1.47606684e-002 -2.60779262e-003 8.84875190e-003
      -8.77966359e-003 7.81545322e-003 2.40649432e-002 7.04990560e-003
      1.03271408e-002 1.20879430e-002 2.31214035e-002 8.82350188e-003
      6.87126024e-003 2.76718964e-003 1.87477935e-002 7.03000976e-003
      -7.18433922e-003 7.74218002e-003 1.85703430e-002 2.11161450e-002
      6.50987215e-003 6.53550355e-003 -7.92842917e-003 9.87433083e-003
      9.34925210e-003 -1.63799059e-002 -1.00263078e-002 -2.29718717e-004
      1.68951880e-002 -5.90191595e-003 1.92007876e-003 -1.22806281e-002
      2.11761557e-002 3.72713106e-003 -1.34661198e-002 2.29143072e-003
      1.73096042e-002 2.62920670e-002 6.08024141e-003 3.79671901e-003
      -2.06483919e-002 5.62506262e-003 -7.72167556e-003 -2.40131337e-002
      -1.00355130e-002 7.23053329e-003 2.37794593e-002 1.17207943e-002
      5.44127263e-003 -1.37714418e-002 -2.22349609e-003 -9.00729001e-003
      -3.04273572e-002 -8.64599179e-003 1.82747133e-002 4.22340184e-002
      2.89092958e-002 1.99400727e-002 -6.53453544e-003 -4.52160649e-003
      5.51025197e-003 -2.68800911e-002 -4.25131177e-004 1.03515359e-002
      2.32042372e-002 8.28550477e-003 -6.53184531e-003 -2.24430226e-002
      8.08080845e-003 1.28256157e-002 -9.76588298e-003 1.15789603e-002
      1.55457845e-002 2.90682092e-002 2.75161341e-002 9.48293228e-003
      -2.91807926e-003 1.44370636e-002 -2.30142791e-002 -2.67373137e-002
      -1.44074298e-002 5.41650224e-003 3.76426354e-002 2.84346845e-002
      1.76397692e-002 -1.90407541e-002 -2.30407417e-002 1.09090284e-002
      5.01536857e-003 -5.76969516e-003 2.00380012e-003 3.44008654e-002
      2.51531135e-002 9.56467446e-003 -1.94446128e-002 5.38336718e-003
      2.29167342e-002 3.37723759e-004 -5.84310060e-003 -2.16860138e-003
      2.66957935e-002 2.04683803e-002 1.24757644e-002 -3.05239088e-003
      7.32829841e-003 3.62751037e-002 2.21423544e-002 -5.32827340e-003
      -4.70422860e-003 2.24052351e-002 2.49850396e-002 1.51421120e-002
      -7.30611908e-004 1.94100663e-002 2.68144067e-002 -1.73606724e-003
      -8.37231521e-003 -2.07476714e-003 1.28157279e-002 1.95724647e-002
      3.33674322e-003 -1.16404425e-002 8.75646528e-003 1.83274094e-002
      1.51866348e-003 1.03394659e-002 5.33522852e-003 1.41994050e-002
      1.82460584e-002 1.14522651e-002 -1.20011726e-002 -3.22631124e-004
      3.40961628e-002 1.41597996e-002 -2.31235032e-003 -6.89268392e-003
      5.99226076e-003 1.03831179e-002 -4.14847303e-003 -7.63034914e-003
      1.67169068e-002 2.37150472e-002 3.59822786e-003 1.73148662e-002
      7.98210781e-003 2.60693370e-003 -5.14054298e-003 -6.20200241e-004
      -5.03130537e-003 6.19715964e-003 5.76981995e-003 5.42132126e-004
      1.56046245e-002 3.73478630e-003 6.57748617e-003 6.26257155e-003
      1.03970170e-002 -1.05593745e-002 -2.31002946e-003 1.94581021e-002
      -1.92801352e-003 5.85858850e-003 1.33085316e-002 1.42454244e-002
      -9.31350747e-004 1.39106892e-003 -5.50361909e-003 5.17367199e-003
      1.47096431e-002 -4.03064908e-003 8.00962653e-003 1.74015593e-002
      -3.62758036e-003 -1.28193693e-002 6.83681434e-003 -2.12163711e-003
      1.47168571e-002 2.84738820e-002 -1.05581684e-002 -1.26325572e-003
      2.02126168e-002 9.95841809e-003 -6.79502264e-003 -5.44807233e-004
      -1.06519591e-002 9.58519150e-003 2.98637878e-002 6.12823246e-003
      3.56443226e-003 1.72032434e-002 2.45889779e-002 -6.72905240e-003
      4.88299178e-003 1.07282195e-002 1.84452329e-002 2.68882550e-002
      9.69399512e-003 -1.34514868e-002 -3.11767263e-003 -1.07774623e-002
      -3.18680890e-002 1.41948543e-003 1.55667430e-002 2.62626410e-002
      3.53535712e-002 -1.90134402e-002 -8.80699791e-003 1.28885824e-002
      1.33692389e-002 -3.67236743e-003 -1.86801271e-003 2.99585727e-003
      2.79695280e-002 1.66087076e-002 -2.34302673e-002 -2.59884614e-002
      -1.72591023e-002 -9.81281325e-003 -2.87474785e-002
      -4.92334832e-003 1.08351521e-002 1.46995028e-002 2.44161040e-002
      1.49788922e-002 5.99505892e-003 -7.71585153e-003 -3.97614203e-003
      -1.47307431e-002 7.18964264e-003 1.06478892e-002 2.48039737e-002
      2.60307454e-002 1.18797682e-002 -3.98898032e-004 -5.20334160e-003
      -6.86779711e-003 -1.06738480e-002 5.10345306e-003 1.13555342e-002
      2.33203042e-002 1.58216096e-002 -3.39668361e-003 -1.23411063e-002
      -1.41340252e-002 -5.83118340e-003 -2.22684536e-002 3.81749868e-003
      7.67677790e-003 1.26708364e-002 1.78873017e-002 -4.82020369e-005
      -6.64842408e-003 -3.81070492e-003 8.62528477e-003 -8.37131683e-003
      6.93022320e-003 8.07518698e-003 1.74815524e-002 8.41388665e-003
      2.29052571e-003 1.13537107e-002 -2.87165884e-002 -3.97836603e-003
      -4.22370434e-002 -3.10071465e-003 -7.68464664e-003 5.44954045e-003
      2.00238191e-002 1.90218762e-002 9.80433449e-003 -1.83796771e-002
      -1.94223248e-003 -2.73050703e-002 -9.45127010e-003
      -1.94844895e-003 1.10906130e-002 -3.84075544e-003 -4.62811789e-004
      6.17635995e-003 -2.43714210e-002 6.37170346e-003 -4.08188440e-002
      1.57286110e-003 -1.82678632e-003 1.66023511e-003 9.33564082e-003
      2.29834467e-002 1.67460814e-002 -1.16483141e-002 4.04881267e-003
      -2.99317762e-002 -6.81873527e-004 -5.10181906e-003 1.80092594e-003
      1.25144813e-002 1.69493575e-002 -1.20075827e-003 -2.43749283e-002
      4.20130417e-003 -3.30909044e-002 -2.24256441e-002 -1.72194410e-002
      -2.07006023e-003 3.15839387e-002 9.49055701e-003 4.41006245e-003
      -2.20554918e-002 1.14261406e-002 -3.44168730e-002 -2.41297893e-002
      -1.26619786e-002 1.17664402e-002 1.20112840e-002 1.91203337e-002
      9.28867795e-003 -2.15227045e-002 4.93398821e-003 -3.34485210e-002
      -1.27271954e-002 -1.27583751e-002 -1.30972182e-002 1.85825210e-002
      1.61661282e-002 6.61091134e-003 -2.74595320e-002 2.69497950e-002
      -3.31315845e-002 -1.24438321e-002 -1.98665150e-002 1.09147560e-002
      2.68961936e-002 1.29251194e-003 -3.49307782e-003 -2.88411230e-002
      1.38512915e-002 -4.02635895e-002 -2.53442694e-002 -2.06690449e-002
      1.03227692e-002 3.43333632e-002 6.04885491e-003 6.76222751e-003
      -1.51122604e-002 2.37880573e-002 -3.29812430e-002 -1.03248600e-002
      -7.15237204e-003 2.33124215e-002 4.82967077e-003 4.24492219e-003
      7.51926657e-003 -2.21626703e-002 2.76045222e-002 -2.84189656e-002
      -1.14394659e-002 -1.78863890e-002 -1.12838810e-003 1.62727293e-002
      1.88409593e-002 2.41935849e-002 1.19348923e-002 2.93466169e-002
      -1.50347622e-002 -6.19719224e-003 -1.50138922e-002 8.53569247e-003
      1.41119072e-002 -1.65669043e-002 -1.66004132e-002 -2.43710037e-002
      1.13883326e-002 -2.63146013e-002 -2.30905917e-002 -2.03415006e-002
      2.29812302e-002 2.65598726e-002 -1.52785601e-002 -9.02452879e-003
      -6.41519297e-003 4.22268435e-002 -2.51846504e-003 1.84124903e-004
      -1.10857841e-002 2.82913614e-002 1.30117051e-002 -3.03098554e-004
      2.58327834e-003 -7.75773637e-003 1.47800846e-002 -3.38588879e-002
      -2.70981062e-002 -2.39760820e-002 -4.95598302e-004 2.21676733e-002
      5.34590241e-003 9.69263539e-003 1.63999666e-003 4.09903005e-002
      5.82190650e-003 -6.35996647e-003 -3.06790210e-002 1.11966934e-002
      1.56570394e-002 -2.28221640e-002 -1.57157555e-002 -2.03881133e-002
      2.83234846e-002 -1.82613377e-002 -1.57477055e-002 -3.88519056e-002
      1.72598450e-003 2.85075177e-002 8.31172522e-003 7.19261030e-003
      -5.51677542e-003 3.48392949e-002 -3.07569373e-003 -6.55616494e-003
      -3.06795407e-002 6.22257590e-004 1.13235340e-002 -1.59538798e-002
      -1.62992831e-002 -1.47327213e-002 2.96295844e-002 3.86976474e-003
      -1.35404430e-002 -4.35455032e-002 -1.29791256e-002 2.96086222e-002
      -2.34582368e-003 2.41579488e-004 8.75525735e-003 4.06021290e-002
      1.77893247e-002 -4.71714325e-003 -2.83510592e-002 -4.86187823e-003
      2.58489642e-002 7.65685458e-003 3.55461612e-003 -2.83866003e-003
      1.78974625e-002 -3.12460563e-003 -6.14233362e-003 -4.06704284e-002
      -1.40081970e-002 2.89009251e-002 9.97852441e-003 1.18048647e-002
      5.94101660e-003 2.59573590e-002 8.99439678e-003 -5.27718849e-003
      -3.37371640e-002 -8.73748195e-006 2.98453122e-002 -2.67412863e-003
      -4.95626498e-003 2.01404793e-003 1.88720021e-002 -6.43618871e-004
      -4.93869791e-003 -3.05950567e-002 -4.66535380e-003 3.50420363e-002
      3.36893043e-003 -9.29898210e-003 -4.53635148e-004 1.81957614e-002
      6.28173770e-003 -8.98776483e-003 -3.40272486e-002 4.78717545e-003
      2.44152974e-002 -7.67438067e-003 8.25189799e-003 4.49858699e-003
      2.63400227e-002 -1.69661443e-003 -9.44060832e-003 -3.57594527e-002
      2.27968092e-003 3.08998767e-002 -5.30697545e-003 1.85531396e-002
      1.16569987e-002 2.36988198e-002 5.23086451e-003 1.10421302e-002
      -1.80331022e-002 2.36157188e-003 2.86004972e-002 -1.02834329e-002
      -1.00159843e-003 -1.01608392e-002 2.07976289e-002 2.65197153e-003
      -1.40408352e-002 -3.69866118e-002 1.40020289e-004 3.35112624e-002
      -1.59586885e-003 4.45433101e-003 -9.45378281e-003 1.98056530e-002
      7.70032126e-003 -1.20011726e-002 -3.26519795e-002 1.45502137e-002
      1.88045297e-002 -1.87126771e-002 -4.73747030e-003 4.24847356e-004
      2.37448998e-002 9.08978004e-003 1.09382002e-002 -1.18658459e-002
      -1.40751628e-002 1.26600619e-002 -2.31411923e-002 -7.33576668e-003
      9.17888898e-003 3.68790925e-002 1.04296533e-002 7.71901058e-003
      -1.73414685e-002 -8.32228549e-003 2.51031592e-002 -1.20077813e-002
      -9.43957921e-003 -6.16494333e-003 3.52134779e-002 1.29769826e-002
      -5.06969076e-003 -3.09927482e-002 3.40921641e-003 2.85384022e-002
      1.13174017e-003 6.75358484e-003 1.87454838e-002 3.48018482e-002
      6.50183670e-003 -5.55125810e-003 -3.39621753e-002 -3.71942041e-003
      1.30968206e-002 -2.16722898e-002 -1.50464000e-002 -3.41526675e-003
      3.08623984e-002 7.81260151e-003 5.50414808e-003 -1.82863064e-002
      1.26842246e-003 1.02788983e-002 -9.68899950e-003 -1.08915400e-002
      3.35092121e-003 2.22210288e-002 2.04339139e-002 1.19935405e-002
      -1.75680202e-002 -1.34449487e-003 2.11418718e-002 -2.13424955e-003
      7.39381649e-004 7.24801281e-003 1.82454158e-002 3.10997269e-003
      -9.27566644e-003 -3.00232377e-002 -5.51372254e-003 3.28015536e-002
      -3.84567841e-003 -1.07820537e-002 3.92733468e-003 1.48815541e-002
      1.28804548e-002 2.25445721e-003 -2.67417226e-002 1.32060787e-002
      9.90220904e-003 -1.05257807e-002 -2.93144304e-003 9.55728907e-003
      1.47262607e-002 1.35786599e-002 1.53190957e-003 -2.76200268e-002
      7.98969762e-004 2.70215441e-002 -4.77037067e-003 1.95247727e-003
      1.63512062e-002 2.00010967e-002 1.61906946e-002 5.73677523e-003
      -5.82846999e-003 1.20602204e-002 2.08470859e-002 -1.88008565e-002
      -1.85816810e-002 -8.21880531e-003 1.16275847e-002 -2.96833517e-004
      -4.77485824e-003 -3.42276357e-002 8.64695583e-004 2.71941349e-002
      -7.54104694e-003 3.87155171e-003 1.63262878e-002 3.18697020e-002
      1.32523281e-002 1.08731184e-002 -1.30133033e-002 1.05277700e-002
      3.21050808e-002 8.49265512e-003 4.04239836e-004 -7.90117308e-004
      2.17053685e-002 9.82126873e-003 5.65516995e-003 -1.05589756e-003
      1.16559993e-002 3.92996594e-002 2.28211228e-002 6.07054355e-003
      1.47903233e-003 1.42347263e-002 2.16417275e-002 1.37683414e-002
      7.09036225e-003 2.00504493e-002 1.42630963e-002 -7.73911504e-003
      4.13945038e-003 2.92685791e-003 2.46318728e-002 1.32430568e-002
      1.26080597e-002 -2.69755651e-003 1.23282592e-003 1.60382856e-002
      1.28830001e-002 1.00859981e-002 -1.72569227e-004 2.62509976e-002
      1.51789738e-002 9.07527842e-003 -4.73206106e-004 2.72608967e-003
      4.01682109e-002 1.72735862e-002 1.01597626e-002 3.95805342e-003
      7.05028605e-003 1.54460156e-002 1.40982531e-002 2.79796473e-003
      2.69117914e-002 3.98708917e-002 2.09830757e-002 3.27552222e-002
      1.65345091e-002 5.09695755e-003 2.35737516e-005 1.31669855e-002
      1.23722386e-003 3.60236391e-002 6.65653590e-003 -3.88863077e-003
      4.90444200e-003 -2.29773344e-003 1.66265182e-002 7.87373725e-003
      1.73151065e-002 3.99189442e-003 3.75423231e-003 4.36542695e-003
      3.95608274e-003 2.15770286e-002 -1.41947134e-003 5.54227782e-003
      -7.06696883e-003 1.36580076e-002 -4.95021755e-004 4.14033653e-003
      3.63484398e-002 1.66307203e-002 1.56637095e-002 2.06958428e-002
      8.66807252e-003 -8.18622578e-003 1.45489741e-002 5.41836536e-003
      3.65253016e-002 3.69418673e-002 -6.73666224e-003 3.08519905e-003
      2.74102185e-002 1.59639828e-002 -1.36427768e-003 1.81031507e-002
      1.27147958e-002 3.90400290e-002 7.83203356e-003 1.87127991e-003
      1.42132044e-002 1.43720992e-002 1.87100060e-002 -8.36056564e-003
      7.36277504e-003 -1.15190316e-002 5.32291271e-003 1.38087533e-002
      -1.93696879e-002 3.35232913e-003 2.04314254e-002 1.24137364e-002
      -1.51556553e-002 1.08594578e-002 -2.82333465e-003 1.15808686e-002
      3.08561828e-002 -2.09831819e-002 2.02278770e-003 2.30442174e-002
      1.79706104e-002 2.98466138e-003 1.64421722e-002 1.98374651e-002
      3.49323973e-002 1.35206450e-002 -2.35486384e-002 -1.32361725e-002
      -2.04490987e-003 5.64715639e-003 -1.22403167e-002 3.16857640e-003
      1.72149707e-002 2.21326388e-002 1.76354833e-002 -1.03670852e-002
      6.87762164e-004 1.43895186e-002 1.52483433e-002 -1.36360442e-002
      1.63919348e-002 1.84696689e-002 1.95629150e-002 2.09782925e-002
      2.89594405e-003 -3.14682163e-003 1.26471110e-002 8.72484967e-003
      -7.18861073e-003 -2.17222888e-003 7.60337198e-003 4.95905196e-003
      1.66838560e-002 -7.02639716e-003 -1.01093790e-002 -7.99215492e-003
      9.95998643e-003 -1.20015414e-002 5.18343993e-004 2.74050189e-003
      1.47324195e-002 1.78694725e-002 -2.84716184e-003 -1.67565346e-002
      -3.00868531e-003 1.72823779e-002 -1.39206590e-003 1.26489457e-002
      8.87687877e-003 1.87737048e-002 2.49692239e-002 8.90654698e-003
      -5.70277963e-003 1.83294833e-004 7.38401292e-003 -1.32297026e-002
      -8.83723889e-003 -8.31975788e-003 6.88943500e-003 1.21371960e-002
      -4.42485511e-003 -9.37659387e-003 -1.81736914e-003 1.11375526e-002
      -6.27206638e-003 8.24994128e-003 1.09874178e-002 2.25895513e-002
      -7.00813020e-003 7.40964606e-004 6.75659953e-003 -1.65302083e-002
      1.96596663e-002 -3.80966254e-002 1.12012820e-003 7.40923034e-003
      9.32036527e-003 7.55990110e-003 1.30512351e-002 1.00113917e-002
      -7.30047096e-003 1.45549085e-002 -2.68308315e-002 -5.48767450e-004
      1.03124678e-002 1.53602974e-003 5.53871924e-003 7.77895562e-003
      1.48645937e-002 -1.78409275e-002 1.40863489e-002 -3.47285457e-002
      1.75532652e-003 1.30495708e-003 5.04646776e-003 1.27038881e-002
      1.21459877e-002 1.58490315e-002 -9.78417043e-003 4.89540910e-003
      -3.01790442e-002 4.08237986e-003 6.01456326e-004 1.27384244e-002
      6.18821476e-003 1.81824695e-002 1.67883746e-002 -1.37906270e-002
      7.58359209e-003 -2.14318670e-002 -9.82514233e-004 -1.53542205e-003
      -6.48269476e-003 1.27367629e-002 9.90626402e-003 2.46820766e-002
      -2.06644591e-002 4.18470316e-002 -2.39225943e-002 -1.24249223e-003
      -1.52939043e-004 3.68586020e-003 1.78209366e-003 -3.54675855e-003
      1.38435224e-002 -7.81143038e-003 1.24432575e-002 -3.01210359e-002
      1.21080214e-002 8.40487611e-003 5.71854459e-003 5.45469532e-003
      7.54036428e-003 1.78664401e-002 -1.54577112e-002 3.54198143e-002
      -1.61095168e-002 1.55420341e-002 5.01072546e-003 -3.56402423e-004
      -8.09107965e-004 -1.70623593e-003 1.21005857e-002 -1.22764790e-002
      3.51106338e-002 -2.33620927e-002 -4.58751852e-003 -5.43686748e-003
      -8.73024389e-003 1.15707535e-002 8.75807460e-003 1.68484822e-002
      1.97981577e-002 4.08394709e-002 -7.51106907e-003 2.80853244e-003
      -1.11430287e-002 -4.97816084e-003 -3.23424279e-003 4.19881428e-003
      1.49580436e-002 -1.42964451e-002 4.17236388e-002 -2.12010145e-002
      7.22971326e-003 -4.69469791e-003 -1.16509590e-002 5.83804538e-003
      1.00457398e-002 1.22397086e-002 1.33618228e-002 4.07363214e-002
      -1.28073050e-002 9.82075837e-003 -8.90062936e-003 1.95987552e-004
      8.32916144e-003 7.25090923e-003 2.35637114e-003 5.28794201e-003
      2.88385451e-002 -2.11609919e-002 -2.66900957e-002 -3.03085502e-002
      -2.25444883e-002 2.48333383e-002 1.56003032e-002 1.87656190e-002
      3.02918884e-003 5.43195121e-002 5.97915426e-003 -1.93982699e-003
      -1.81986950e-002 -4.04461240e-003 -9.03872307e-003 2.69612763e-003
      -2.60244677e-004 4.90075024e-003 1.82993356e-002 -2.70949565e-002
      -1.69013292e-002 -2.83011291e-002 -1.51925534e-002 2.13182140e-002
      1.72684900e-002 3.65970121e-003 8.21753684e-003 4.12197150e-002
      -6.50688261e-003 -2.59871548e-003 -1.61413960e-002 2.24329275e-003
      2.48493981e-002 3.10880272e-003 1.20446749e-003 -1.18789757e-002
      2.60064509e-002 9.31927934e-003 2.83959205e-003 -2.85067577e-002
      -1.04975663e-002 3.48119847e-002 1.46738421e-002 1.78401694e-002
      3.80458310e-003 3.85429561e-002 2.02084575e-002 7.97722582e-003
      -1.24123814e-002 7.48570077e-004 6.93245651e-003 -1.54720235e-003
      -1.34713398e-002 -1.50698675e-002 7.52252992e-003 -2.13279724e-002
      -1.39167905e-002 -2.60914452e-002 -2.09773388e-002 3.12440982e-003
      -1.74231210e-003 6.72833994e-003 -8.39093607e-003 2.40921527e-002
      6.36374438e-003 3.31689767e-003 -1.95624325e-002 -1.47462133e-002
      3.30258980e-002 7.49605848e-003 5.65358624e-003 -4.19431459e-003
      2.02437527e-002 5.05330320e-003 6.99573895e-003 -1.50447898e-002
      4.23077308e-003 2.91491579e-002 3.23232613e-003 1.20906974e-003
      -4.36614407e-003 2.31195446e-002 1.48220519e-002 1.35481758e-002
      -1.93639856e-003 9.46004782e-003 2.16230680e-003 -4.82782209e-003
      5.03163086e-003 -1.46293398e-002 1.08810691e-002 -1.07410904e-002
      8.32431484e-004 -1.82597563e-002 -1.36500280e-002 7.44035933e-003
      -7.54894828e-003 7.22795492e-003 -1.23884268e-002 3.38836643e-003
      -8.90210830e-003 -2.16717087e-003 -3.05411569e-003
      -6.77515636e-004 3.44052203e-002 -2.85666157e-003 4.54841182e-003
      -8.73999950e-003 2.41761394e-002 6.66301139e-003 5.90970274e-003
      -1.01622436e-002 1.17900530e-002 4.45161313e-002 7.25656888e-003
      4.08304762e-003 -1.08045321e-002 3.00544072e-002 1.12365605e-002
      4.30559739e-003 -4.17745998e-003 2.09071226e-002 7.80598866e-003
      -1.02683045e-002 -3.86951165e-003 -1.77885611e-002 8.19822866e-003
      -9.99212451e-003 -1.19350655e-002 -1.02153383e-002 8.68265983e-003
      1.31757036e-002 -5.28797321e-003 -2.98227323e-003 -2.17253994e-002
      9.08544473e-003 2.39919568e-003 -1.29530847e-003 -8.66727717e-003
      1.23559264e-002 3.60477120e-002 5.23361727e-004 2.59204721e-003
      -3.64845246e-003 2.90213693e-002 6.85158418e-003 1.54159928e-003
      -1.97990146e-002 1.40474457e-002 3.18651721e-002 1.51888840e-002
      1.92240123e-002 7.07288180e-003 3.38920690e-002 9.56047093e-004
      -5.35053492e-004 -1.92394424e-002 1.17870690e-002 5.87194925e-003
      -2.14636810e-002 -1.40101360e-002 -1.84960980e-002 2.88425386e-003
      -5.70934592e-003 2.47765775e-003 -1.24073019e-002 6.34789700e-003
      1.92962191e-003 -1.51410401e-002 -9.97598562e-003 -1.17745893e-002
      1.09926453e-002 -2.27191765e-002 5.27828140e-003 -1.17727974e-002
      7.34866550e-003 2.33654771e-002 1.37679912e-002 8.75231810e-003
      7.89298024e-003 2.42992379e-002 -3.93001968e-003 -1.38880021e-003
      -1.28934067e-002 3.10162641e-003 2.74126064e-002 -5.47609525e-003
      -1.98980421e-003 -1.70277571e-003 2.65565533e-002 4.95772948e-003
      1.61314532e-002 -1.54155749e-003 2.56423205e-002 7.06541352e-003
      -1.64791625e-002 -1.03451945e-002 -6.54596975e-003 1.56650487e-002
      -1.86727196e-002 -1.10762904e-003 -9.52914264e-003 2.96957442e-003
      1.89745501e-002 -1.50535768e-002 -8.59785546e-003 -1.11475391e-002
      1.94298606e-002 5.84887021e-005 1.48084369e-002 3.80278885e-004
      1.54904695e-002 1.29661802e-002 -1.75849181e-002 -9.23525821e-003
      -4.31971345e-003 1.31371375e-002 -1.31161138e-003 1.10186357e-002
      -1.21406978e-002 1.43974330e-002 1.52508970e-002 2.56253709e-003
      1.80155244e-002 2.27345861e-002 3.59469578e-002 1.87355168e-002
      1.45696010e-002 -1.61843654e-002 1.47882395e-003 1.12897251e-002
      -1.46848708e-002 -1.37728977e-003 -1.52851529e-002 8.11611209e-003
      4.84379893e-003 1.53466435e-002 1.26148446e-003 1.90714225e-002
      2.49955785e-002 1.06050503e-002 1.26382792e-002 7.21752038e-003
      3.12918723e-002 2.95704864e-002 1.01442588e-002 -1.36910356e-003
      2.27554347e-002 1.12965861e-002 2.15716287e-003 1.00826481e-002
      3.95424617e-003 2.55325269e-002 7.84877781e-003 1.20788254e-002
      -8.59266054e-003 -2.60045053e-003 1.45496139e-002 1.30637679e-002
      1.80677455e-002 1.69777090e-003 2.30489019e-002 2.89189816e-003
      2.30557732e-002 1.23994295e-002 9.63399932e-003 2.45099179e-002
      1.87053457e-002 8.54804832e-003 -9.32553411e-003 8.64446722e-003
      5.93013875e-003 3.68471071e-003 8.65535159e-003 1.85489114e-002
      2.33274568e-002 7.31561985e-003 1.27454204e-002 2.40530400e-003
      1.13122864e-002 2.67195818e-003 1.80747770e-002 2.76104640e-002
      2.78621241e-002 6.47021551e-003 2.36093625e-003 1.13160340e-002
      2.31463835e-003 1.89720895e-002 4.34203027e-003 2.89048776e-002
      1.69907883e-002 1.43186972e-002 3.32382717e-003 2.95835105e-003
      1.29578300e-002 -6.79809134e-004 9.91687085e-003 3.78473662e-003
      2.83652972e-002 2.29697190e-002 2.15407461e-002 1.49512999e-002
      9.67842818e-004 7.48649193e-003 3.16732563e-003 3.06867808e-003
      4.44343267e-003 2.48057172e-002 2.51736399e-002 2.41408683e-002
      1.02269240e-002 5.83281415e-003 6.28416287e-003 -7.98466895e-003
      1.24424300e-003 9.51416139e-003 2.92273611e-002 2.57214606e-002
      1.23530664e-002 1.56719633e-003 -3.56087484e-003 1.35285743e-002
      8.99261981e-003 1.53071694e-002 -1.78697705e-003 1.40969642e-002
      2.88056163e-003 1.40476758e-002 7.73111172e-003 -7.31475931e-003
      6.84635574e-003 1.07051004e-002 1.46821253e-002 -1.09858150e-002
      5.88113267e-004 -3.26685770e-003 1.28902318e-002 1.20772403e-002
      9.17346682e-003 2.65534921e-003 -6.12461148e-003 1.55023634e-002
      1.68814929e-003 2.52139196e-002 1.30345887e-002 1.59036219e-002
      1.41740758e-002 3.37189599e-003 -3.79173388e-003 -4.87117702e-003
      8.67378060e-003 -9.35046561e-003 1.85433757e-002 7.67887058e-003
      1.86876021e-002 1.81675218e-002 1.96249224e-003 -3.13888653e-003
      -2.41213804e-003 -4.52398369e-003 -2.54096966e-002
      -1.04530726e-003 1.04629006e-002 1.20150419e-002 2.30010096e-002
      6.52276771e-003 -1.22224316e-002 9.16688610e-003 9.41900630e-003
      -1.88665595e-002 -4.25081421e-003 7.35625066e-003 8.64497945e-003
      2.01689601e-002 4.42154333e-003 -9.53067467e-003 -8.75547808e-003
      2.82671908e-003 -8.71464889e-003 1.39884409e-002 1.64744183e-002
      2.62932908e-002 2.35043634e-002 4.99195652e-003 -1.69954803e-002
      -3.64358746e-003 1.86435785e-003 -2.01488771e-002 -1.92933844e-003
      1.47639858e-002 2.33687684e-002 1.83611810e-002 1.75625109e-003
      -1.40422694e-002 -4.16358514e-003 4.99993982e-003 -1.73537824e-002
      -9.55332816e-003 -5.30354213e-004 1.00571606e-002 2.46300250e-002
      -5.97060833e-004 4.57824099e-005 -2.58231745e-003 1.87760592e-003
      -1.34392772e-002 6.29947335e-003 1.71899814e-002 3.31931077e-002
      2.24262234e-002 -3.79405916e-004 -9.85863898e-003 -5.68803586e-003
      -9.03846603e-003 -2.77700704e-002 -1.36989644e-002 1.05924867e-002
      2.60466114e-002 3.36407349e-002 6.47484139e-003 2.83757341e-003
      -1.07690245e-002 -5.70694311e-003 -7.35129975e-003 5.50207915e-003
      1.88592542e-002 3.59146930e-002</_>
    <_>
      -4.06960119e-003 1.29365847e-002 1.38437897e-002 -2.75205192e-003
      3.22521827e-003 -1.76156580e-004 1.51816159e-002 3.16836545e-003
      -3.64407804e-003 -1.16081415e-002 7.71543477e-003 1.28883542e-002
      -1.75989047e-003 3.35399318e-003 1.91679189e-003 6.82229456e-003
      -2.11856933e-003 -9.55838803e-003 7.38778478e-003 1.27117382e-002
      1.45459948e-002 -4.47664363e-003 4.59159585e-003 -1.73796329e-003
      1.66240968e-002 5.54128736e-003 4.68215812e-003 -1.53154240e-003
      1.10158809e-002 1.92092396e-002 7.94203079e-004 2.28728633e-003
      -2.46954360e-003 2.56017456e-003 -2.37240712e-003 -1.09000131e-002
      -1.00913132e-002 1.12186009e-002 1.35484086e-002 -3.86685762e-003
      9.36266221e-003 2.77242763e-003 8.01822543e-003 3.96204973e-003
      -1.29118674e-002 -1.35655552e-002 1.15933027e-002 1.37524791e-002
      7.35990587e-004 8.49017967e-003 -3.41396709e-003 1.32788550e-002
      6.04490936e-003 -1.26601616e-002 -4.91168024e-003 1.39818694e-002
      1.61957629e-002 1.52011286e-003 5.74712502e-003 -2.55777990e-003
      4.62401984e-003 -2.11672042e-003 -1.05340052e-002 -3.72116407e-003
      1.43884718e-002 1.09984446e-002 -4.63136612e-003 -1.81110506e-003
      -7.66918343e-003 7.48633547e-003 7.87578616e-003 -6.84892666e-003
      -1.38252936e-002 6.18236093e-003 1.50182275e-002 5.40643057e-004
      1.09512806e-002 -4.78078797e-003 1.29094208e-002 7.30918348e-003
      -1.24582369e-002 -1.34386430e-002 5.73208136e-003 8.31681862e-003
      -2.22634291e-003 4.94256476e-003 -3.11016315e-003 1.18314521e-002
      9.09124967e-003 -1.00711752e-002 -3.77494725e-003 9.75164305e-003
      3.44937062e-003 -8.93770903e-003 1.08721282e-003 -5.34313498e-003
      1.33284936e-002 1.40469028e-002 -8.05274863e-003 -3.39038786e-003
      2.91218515e-003 7.40647409e-003 -6.34094747e-003 7.23741297e-003
      4.87670070e-003 1.63953267e-002 1.18974289e-002 1.08824600e-003
      -6.65852614e-003 6.61671814e-003 5.96001884e-003 -5.04462142e-003
      -6.31125271e-003 -3.51166446e-003 5.24120126e-003 6.05134107e-003
      -5.80977462e-003 -6.71251072e-003 4.12717694e-003 1.79439224e-003
      -1.25799736e-003 -1.67470775e-004 -2.56718486e-003 4.19461634e-003
      -2.33415351e-003 -1.03094121e-002 7.94669962e-004 6.93635130e-003
      9.58780013e-003 -1.66121509e-003 3.01359803e-003 -4.72380234e-005
      8.01810157e-003 5.89238992e-003 4.52705147e-003 2.94910907e-003
      1.08231567e-002 7.87078775e-003 5.01483213e-004 4.09412943e-003
      -7.35559175e-003 -1.50107278e-003 -2.03816150e-003 1.74993346e-003
      -1.02129197e-002 -6.49837730e-003 1.09692349e-003 -1.45216298e-003
      1.39226485e-003 -5.27335284e-003 -6.58678880e-004 -6.15134975e-003
      -1.03835389e-002 -6.50428841e-003 -1.23517234e-002 1.65416801e-003
      5.27396705e-003 1.25756245e-002 2.10207631e-003 3.44738690e-003
      2.03580270e-003 -2.77926563e-003 1.87122927e-003 -9.87384934e-004
      -2.99391150e-003 -3.63179308e-004 3.79342376e-003 -7.61042070e-003
      -6.53109048e-003 -6.37719315e-003 -4.91243415e-003
      -5.48492558e-003 -2.42402311e-003 -7.93902145e-004 6.52848976e-003
      8.93994886e-003 -2.01458883e-004 3.58647027e-004 -6.78139227e-003
      -2.66495021e-003 -1.44116087e-002 -9.57798027e-003
      -3.49100446e-003 3.64553370e-003 5.15534263e-003 7.02088932e-004
      5.46106370e-003 1.05604366e-003 -4.85702790e-003 -3.18772765e-003
      -6.73706454e-005 8.82957596e-003 2.84657977e-003 5.06262016e-003
      -2.37635523e-003 3.37985181e-003 2.28416407e-003 -7.75710912e-003
      -1.30766612e-002 -4.69863322e-003 8.51028890e-004 4.44369391e-003
      4.96208575e-003 -4.71076899e-004 6.56320574e-003 -4.08256473e-003
      -7.63990404e-003 -5.05586062e-003 2.49475893e-003 3.90604278e-003
      -5.43231703e-003 1.99431647e-003 -8.79735965e-003 6.93225814e-003
      -1.26366748e-003 -4.19564871e-003 -2.11090269e-003 7.85462745e-003
      1.49443923e-002 -3.33835342e-004 -1.51428813e-003 -2.96750921e-003
      9.84613318e-004 1.93627842e-004 -7.42469775e-003 4.03424772e-003
      6.39398443e-003 7.16397818e-003 -1.49589404e-003 -4.26263036e-003
      -3.21485149e-003 8.42061732e-003 1.03046717e-002 8.02651048e-003
      -6.63693203e-003 -8.10941856e-004 1.38853397e-003 -7.25046173e-003
      -5.15379757e-003 -2.45208293e-003 1.80671411e-003 -4.29710140e-003
      -4.47987905e-003 5.62167261e-004 -3.68468720e-003 7.90771155e-004
      -7.75529863e-003 8.76766746e-004 1.88365334e-003 7.04160659e-003
      -1.42543099e-003 2.91125919e-003 5.50706685e-003 5.01815090e-003
      6.14266517e-003 -4.23332769e-003 -6.61465386e-003 -2.53107818e-003
      8.49515572e-003 4.04522475e-003 5.59030892e-003 9.01451241e-003
      9.60994326e-003 1.15452148e-002 -1.13742510e-002 -7.09052570e-003
      -1.11872945e-002 2.57798727e-003 -2.28585838e-003 4.99049015e-003
      1.22990180e-003 -1.61476852e-003 3.24839796e-003 -1.08958604e-002
      -8.03895295e-003 -3.89128737e-003 5.85198961e-003 6.40015409e-004
      -3.37624428e-004 7.49353645e-003 1.09028202e-002 6.46695960e-003
      -1.57993734e-002 -6.81855110e-003 -1.41385803e-002 6.13213144e-003
      4.99068201e-003 8.26781522e-003 9.94667690e-003 1.18918046e-002
      1.19326450e-002 -1.28293894e-002 -1.28746480e-002 -1.27672795e-002
      1.09609892e-003 6.70406385e-004 7.97650032e-003 9.59372800e-003
      9.87074524e-003 3.90011119e-003 -1.33448625e-002 -1.30118318e-002
      -6.30316325e-003 5.52453427e-003 8.09092727e-003 1.45234196e-002
      1.00498889e-002 1.03004593e-002 6.77744206e-003 -1.46990847e-002
      -4.66447882e-003 -8.94200895e-003 7.00868340e-003 3.10222339e-003
      1.18036708e-002 7.16083264e-003 7.96856650e-004 1.95728289e-003
      -1.12325251e-002 -1.30011318e-002 -1.12859663e-002 4.76878602e-003
      1.25896139e-003 6.93695527e-003 1.20425876e-003 4.65337653e-003
      5.71267121e-003 -1.30100306e-002 -1.42490771e-002 -7.12695345e-003
      2.74269842e-003 6.07268466e-003 8.01369548e-003 7.83181470e-003
      1.00190444e-002 1.30116073e-002 -3.02710827e-003 7.30076572e-004
      -6.58047618e-003 7.26263504e-003 1.20376134e-002 9.69344750e-003
      -2.19714366e-005 2.48597912e-003 6.55986741e-003 -1.41311660e-002
      -1.62644908e-002 -1.02668917e-002 4.36895574e-003 -3.40098189e-003
      2.07988825e-003 2.01782747e-003 7.38517614e-003 9.09858663e-003
      -4.77395812e-003 -1.24338386e-003 6.33135380e-004 1.34480102e-002
      7.81565066e-003 5.26512600e-003 5.61646046e-003 1.02732219e-002
      5.58309164e-003 -5.16979350e-003 -9.57566965e-003 -9.78779327e-003
      8.72662012e-003 6.88907877e-003 6.92144223e-003 1.40303783e-002
      1.48884617e-002 1.34220822e-002 -8.87813512e-003 -1.43253459e-002
      -9.90876183e-003 3.66339227e-003 8.28167889e-003 9.18191951e-003
      5.70373191e-003 8.45848676e-003 1.05305845e-002 -3.28009692e-003
      -8.94535985e-003 -5.48341731e-003 6.11731550e-003 5.71397413e-003
      5.14867250e-003 1.40121253e-002 1.33748390e-002 1.56984832e-002
      -4.06825449e-003 -5.92928659e-003 -9.43941250e-003 2.13210564e-003
      5.96808223e-003 9.34911519e-003 1.69631634e-002 1.49427634e-002
      1.36635844e-002 -5.64055936e-003 -1.44753875e-002 -6.03005337e-003
      7.14247860e-003 8.81294161e-003 8.02230649e-003 1.13277547e-002
      1.30015695e-002 7.18685612e-003 -8.05522501e-003 -1.00744190e-002
      1.24516373e-003 1.18448325e-002 1.01354057e-002 7.96688162e-003
      1.43866763e-002 7.45431846e-003 9.93537344e-003 -4.89992509e-003
      -1.12009775e-002 -3.96372471e-003 7.30904657e-003 3.29852174e-003
      7.69972848e-003 7.48948287e-003 4.15446470e-003 8.57504457e-003
      -6.20130077e-003 -4.58551431e-003 -5.93615754e-004 4.89519350e-003
      -2.08833348e-003 3.31413230e-006 1.10648945e-002 7.60351820e-003
      6.22749655e-003 -1.07070189e-002 -8.75724759e-003 -8.64450296e-004
      8.12547095e-003 7.72183249e-003 7.55285379e-003 7.60002015e-003
      9.50018968e-003 8.21613614e-003 -1.40567515e-002 -1.12316580e-002
      -2.33511068e-003 6.22506067e-003 7.15245726e-003 9.54698958e-003
      5.20985527e-003 6.74830982e-003 6.58423593e-003 -5.97255584e-003
      -1.92077685e-004 5.23244380e-004 6.00692676e-003 2.35852785e-003
      2.43882928e-003 2.98981322e-003 5.55434870e-003 6.22454612e-003
      -8.12950078e-003 -3.44425091e-003 9.07150621e-004 7.64448335e-003
      6.55455422e-003 5.94054069e-003 3.08312569e-003 7.85264187e-003
      7.90137332e-003 -1.25129763e-002 -8.65190942e-003 -2.62446166e-003
      4.53706784e-003 6.30293647e-003 3.95001518e-003 1.36263145e-003
      7.08531355e-003 9.13535245e-003 -1.05600180e-002 -7.70523585e-003
      -4.55473782e-003 6.59471983e-003 8.03490821e-003 4.10111435e-003
      -1.10309396e-003 5.54363336e-003 7.02093029e-003 -8.74601956e-003
      -2.91669951e-003 -4.64383326e-003 2.73620337e-003 5.87686989e-003
      5.17729064e-003 1.21701870e-003 6.34023407e-003 7.06267729e-003
      -9.94808972e-003 -6.83363527e-003 -4.33620578e-003
      -1.35358470e-003 3.43380799e-003 6.63244538e-003 2.29642726e-003
      8.26528762e-004 5.17332752e-004 -1.07810209e-002 -1.41794495e-002
      -1.29276486e-002 3.96002596e-003 4.28241584e-003 3.21826153e-003
      1.48011157e-002 8.82095750e-003 1.25146611e-002 1.25811375e-005
      -2.69493740e-003 1.03915727e-003 1.79746270e-003 2.04826333e-003
      1.27437022e-002 4.64085490e-003 6.23859186e-003 1.30670925e-003
      -1.24443928e-002 -7.63527351e-003 -1.35400360e-002
      -5.24026109e-003 -6.88095763e-003 -6.12141797e-004 1.25591932e-002
      1.19786486e-002 6.05277391e-003 4.15977353e-004 -6.05886336e-003
      -4.45075752e-003 2.56933086e-003 -3.38886050e-003 8.72677192e-003
      4.46736300e-003 1.44806616e-002 1.29187563e-002 -7.56218005e-003
      -4.51200875e-003 -8.36924836e-003 1.08284764e-002 2.82684690e-003
      -4.82445961e-004 1.45512447e-003 1.62538234e-002 1.78595074e-002
      -2.81168008e-003 -7.12380279e-003 -6.63492596e-003 2.92458059e-003
      -2.32435274e-003 -1.34454854e-002 -1.34684000e-004 1.22181149e-002
      7.66466931e-003 -1.07378764e-002 -7.06368126e-003 -8.87032412e-003
      7.61031592e-003 5.44199580e-003 -5.20410016e-003 8.22280254e-003
      1.46144042e-002 4.59128898e-003 -1.39433825e-002 -1.27616525e-002
      -3.96402832e-003 3.28238099e-003 1.74224388e-003 -2.69465311e-003
      2.54938123e-003 1.70627404e-002 1.70612000e-002 -4.56335722e-003
      9.11429431e-003 -2.71219388e-003 1.85990217e-003 -7.47135840e-004
      -3.58706946e-003 2.22355229e-004 6.03050180e-003 2.76696659e-003
      -7.58014107e-003 -2.06606044e-003 -3.32729658e-003
      -1.14679534e-003 3.25689605e-003 6.35050019e-005 2.00708490e-003
      8.34146701e-003 9.31714254e-004 -1.60049628e-002 -4.65359027e-003
      -5.29153179e-003 -3.55332508e-004 -2.33559916e-003
      -5.13088284e-003 -4.10224590e-003 -1.30693789e-003
      -2.51674489e-003 -1.21394116e-002 -5.91358542e-003
      -1.06960386e-002 -3.77422944e-003 -8.82392190e-003
      -4.24068328e-003 -8.11443757e-003 1.24230061e-003 -5.25643816e-003
      -8.95231962e-003 -2.13577342e-003 -2.68954807e-003 2.83948914e-003
      4.99055395e-003 -5.02042379e-003 4.59155301e-004 7.29245739e-003
      5.77196572e-003 -4.71725967e-003 9.10435431e-003 6.41644746e-003
      7.67915323e-003 6.52786065e-003 -3.47200618e-003 -8.91797710e-003
      -1.13682607e-002 -7.83615466e-003 -1.24325864e-002 3.45946965e-003
      -6.39539724e-003 -2.60123098e-003 -7.02718506e-003
      -1.12404516e-002 -5.09478198e-003 -4.98966500e-003 3.10121709e-003
      -7.63319782e-004 1.03285555e-002 4.77439957e-003 1.06520113e-002
      1.97183224e-003 -6.21004356e-003 6.73367595e-003 9.93885379e-003
      6.28316961e-003 -9.80678666e-003 1.47739274e-003 -8.90521158e-004
      1.15946180e-003 -2.71572673e-004 2.24163220e-003 1.02968430e-002
      4.93201660e-003 -5.05350903e-003 -1.09085357e-002 9.08794289e-004
      -7.47216167e-003 -3.26714595e-003 -3.23428842e-003 3.85745056e-003
      -1.07482029e-003 -2.67020473e-003 -2.48038443e-004
      -1.27980048e-002 1.03680631e-002 5.57243498e-003 3.52769461e-003
      8.35223589e-004 -1.58440112e-003 6.29650149e-003 -9.12765600e-003
      -8.34108237e-003 -2.15914734e-002 7.32278405e-003 5.90695720e-003
      8.12313287e-004 -3.43556819e-003 -2.74996448e-004 7.33150961e-003
      -1.22017322e-004 -2.98511307e-003 -4.60949400e-003 4.34828829e-003
      -7.23465253e-003 -3.67249292e-003 -4.07966506e-003 3.31498706e-003
      3.23219830e-003 -1.10160152e-003 2.10039807e-003 3.38206720e-003
      4.22021793e-003 8.25364841e-005 4.73183440e-003 -3.42112244e-003
      3.66986613e-004 7.57116685e-003 -5.82101475e-003 -5.04872482e-003
      -1.14894984e-002 1.01390341e-002 1.28014013e-003 -3.27047915e-003
      -5.27355541e-003 4.95501235e-003 6.25120336e-003 3.05808056e-003
      6.35473989e-003 3.18224658e-003 8.84659402e-003 6.00239914e-003
      9.19732731e-003 1.83769269e-003 6.40955055e-003 -2.58940319e-003
      2.07687332e-003 5.86987147e-003 2.12935056e-003 7.41502037e-003
      3.51474184e-004 3.77151975e-003 -1.07983535e-003 -8.82781635e-004
      4.57425788e-003 2.60694069e-004 3.70743405e-003 -6.36384171e-003
      8.15282855e-003 -6.40139915e-003 -1.06127292e-003 4.80556948e-004
      6.15423778e-003 -2.56234384e-003 -3.74779664e-003 1.57456589e-003
      1.70182157e-003 1.10713122e-002 1.51148241e-003 8.89343582e-003
      7.49413902e-003 2.95609795e-003 -4.70223418e-003 -1.11752497e-002
      -4.99981642e-003 -9.45071573e-004 1.55565655e-002 1.82578526e-003
      7.74053100e-004 8.63245514e-004 8.58315791e-004 5.39272325e-003
      -4.65979381e-003 2.01640278e-003 -2.80849356e-003 4.62962175e-003
      4.44255164e-003 1.11463142e-003 2.85302376e-004 2.11315835e-003
      4.84360009e-003 -4.48146043e-003 3.83751676e-003 -7.64693040e-003
      7.17240677e-004 1.93266408e-003 8.45547579e-003 -8.77196842e-004
      -9.89960507e-004 -7.90802471e-004 -1.18096629e-002
      -2.48879776e-003 1.99016300e-003 1.60547793e-002 7.98280258e-003
      -1.54014258e-003 -1.80274982e-003 3.33527010e-003 1.77098170e-003
      -1.69931017e-002 -4.18230565e-003 -3.33698629e-003 3.28420033e-003
      5.59249846e-003 6.97462866e-003 2.85058073e-003 7.64368474e-003
      4.11377288e-003 2.68969132e-004 1.24185532e-003 -1.00797834e-002
      -8.62597779e-004 -2.71627237e-003 7.07948999e-003 1.72100947e-004
      1.46156573e-003 8.67884047e-003 4.84469021e-003 -8.96401354e-004
      -1.26331635e-002 -1.25981250e-003 -9.88931302e-003 9.72287916e-003
      9.94454604e-003 9.28767957e-003 -6.12626667e-004 -8.58357735e-003
      -5.37717436e-003 -4.92389873e-003 -2.81149545e-003
      -2.07022997e-003 6.45441841e-003 -2.21681944e-003 8.52248259e-003
      6.55377889e-003 -6.05879072e-003 -8.84198397e-003 -1.12132700e-002
      4.15565446e-003 6.41573512e-004 1.27672618e-002 3.68472934e-003
      1.45254247e-002 9.70126595e-003 1.60380465e-003 -1.12417247e-003
      -1.75996181e-002 -2.68801139e-003 -8.57158285e-003 6.17680699e-003
      1.98818510e-003 1.08731920e-002 7.54333707e-003 6.89344155e-003
      8.25050659e-003 -8.34598485e-003 -6.87274477e-003 -8.47198069e-003
      1.85172260e-003 -3.03300149e-005 6.47331122e-003 5.25299646e-003
      -7.17119966e-003 -1.08459836e-003 -8.44936166e-003 4.59770206e-003
      7.51184241e-004 9.13978368e-003 6.12287724e-004 1.02763623e-002
      5.88515773e-003 2.87100486e-003 4.88096615e-003 -7.45104812e-003
      -1.79920311e-003 4.03289130e-004 1.51232362e-003 -2.84320232e-003
      7.47580547e-003 -1.42597279e-003 4.40043863e-003 1.03082014e-002
      -7.41991913e-003 -6.15484919e-003 -4.14766977e-003 5.49934665e-003
      -5.79621224e-003 -2.68311729e-003 -5.19680837e-003 1.90320553e-003
      5.18901506e-003 1.91415870e-003 1.11900391e-002 1.28723700e-002
      1.70296486e-002 2.72409437e-004 -5.17337816e-003 -6.03670720e-003
      -2.72434554e-003 8.59477092e-004 -5.58212725e-003 3.47677316e-003
      2.39335326e-003 6.29976764e-003 -3.61964875e-003 -1.40407775e-003
      -7.08434917e-003 3.73567129e-003 1.02129197e-002 1.11761084e-002
      1.60876065e-002 1.64019149e-002 1.65864136e-002 -1.27043261e-003
      -7.68722268e-003 -8.40027817e-003 2.84933206e-003 5.49022295e-003
      3.95040214e-003 5.84984710e-003 5.87981334e-003 4.64191055e-003
      -5.88283455e-003 -1.01234764e-002 1.47955271e-003 1.15297316e-002
      1.45660043e-002 4.93402034e-003 1.30347349e-003 -1.21557352e-003
      -3.64835840e-003 -2.73072650e-003 3.51456669e-003 -1.05709387e-002
      5.89587586e-003 9.96617414e-003 1.02153681e-002 1.10911159e-002
      1.05702290e-002 6.70873886e-003 -1.28171407e-002 -1.24883410e-002
      -1.80190918e-003 9.36647411e-003 1.56415813e-002 3.43797565e-003
      3.07500595e-003 1.07426383e-003 -5.12763113e-003 -4.14260896e-003
      -2.30584270e-003 2.02242052e-003 9.78869013e-003 1.26053756e-002
      -2.42458400e-003 -2.16179038e-003 3.41559108e-003 5.06903697e-003
      -2.14173994e-003 3.45014897e-003 1.92672864e-003 7.40925083e-003
      8.77390802e-003 -4.71357768e-003 1.40289209e-004 2.53282906e-003
      3.86004150e-003 -3.51460255e-003 3.59863450e-004 9.29641444e-003
      8.57826974e-003 1.40436133e-002 -2.82605435e-003 -1.35005335e-003
      5.24681003e-004 4.47584223e-003 -1.29009795e-003 6.53218152e-003
      2.50443676e-003 2.79147527e-003 8.10245425e-003 -5.01528056e-003
      -2.03608070e-003 -6.90134941e-004 1.20741231e-002 -5.99730061e-004
      2.05915025e-003 -9.77242016e-005 7.90753774e-003 1.00080706e-002
      -1.30898948e-003 5.73559757e-003 1.79073785e-003 1.82680949e-003
      -2.01011635e-003 -3.76087031e-003 3.45650013e-003 4.77889087e-003
      8.69964994e-003 -3.77458101e-003 4.44126362e-003 7.39001622e-003
      6.31478429e-003 -1.67065795e-004 -4.80457151e-004 2.59394106e-003
      9.12811200e-004 7.93280918e-003 1.51034852e-003 8.61375872e-003
      3.26015707e-003 4.77861101e-003 -1.12691394e-003 -1.02665345e-003
      3.49525060e-003 -4.48459713e-003 5.37434034e-003 -2.65964097e-003
      6.58347411e-003 3.91048798e-003 -1.24597538e-003 -4.70965216e-003
      -4.07895277e-004 5.01812063e-003 5.74763911e-003 7.24809431e-003
      -6.15043566e-003 4.71822638e-003 3.13452008e-004 3.89226992e-003
      -1.03095244e-003 4.60995128e-003 1.72590802e-003 5.91398031e-003
      5.46687189e-003 -1.37418770e-004 3.24789365e-003 -2.02645757e-003
      1.40754634e-003 1.66164094e-003 5.60400076e-003 4.97683836e-003
      -2.67178821e-003 4.79518948e-003 -7.08135590e-003 3.42828897e-003
      -3.28818359e-003 -5.28368121e-003 -7.80117884e-003 5.21072606e-003
      6.64231088e-003 -1.41179608e-003 1.67942047e-003 -1.53021805e-003
      1.61249225e-003 2.47438415e-003 5.54367062e-003 4.86482604e-004
      7.08864117e-003 3.68349859e-003 5.93222026e-003 -9.65287560e-004
      -3.33599630e-003 9.58774413e-004 -7.14722369e-003 -1.77826849e-003
      -4.50006593e-003 -7.53362954e-004 9.51331295e-003 1.20893400e-002
      3.83208808e-003 1.45286997e-003 -4.69561899e-003 -9.18247364e-003
      2.93731433e-003 -2.09512982e-005 7.36547820e-003 5.20206196e-003
      -2.61786068e-003 -6.07281225e-003 -7.05216592e-003
      -5.15605696e-003 -3.45703191e-003 6.84958789e-003 -1.63584820e-003
      5.65089844e-003 1.03818886e-002 7.23728538e-003 -2.38894112e-003
      -3.92894214e-003 -9.05173365e-003 -5.98538620e-003 4.15134430e-003
      4.93116118e-003 6.31826650e-003 -1.41998089e-003 3.30441189e-003
      2.20847898e-003 -8.74710269e-003 -9.42228455e-003 -1.27097052e-002
      8.03806260e-003 1.12122484e-002 -2.13043648e-003 7.10228831e-003
      1.80504052e-003 -1.48251338e-003 -1.22232353e-002 -1.88847817e-002
      -2.20333505e-003 7.94327818e-003 1.27844457e-002 5.72472170e-004
      9.47986823e-003 4.98370500e-004 -1.97979016e-003 -1.28185442e-002
      -2.29458651e-003 -9.93823819e-003 4.19245102e-003 1.06971655e-002
      1.16264652e-002 1.07300570e-002 8.24980903e-004 -4.11651144e-003
      -6.21099304e-003 -1.14817321e-002 -1.08465215e-003 5.96192433e-003
      1.55266356e-002 1.33202653e-002 6.88983127e-003 3.74305551e-003
      2.19131354e-003 -6.40722224e-003 2.75760330e-003 2.23860494e-003
      1.05958898e-002 1.14421155e-002 3.60672316e-003 -2.08602753e-003
      -8.29276163e-003 -8.50954372e-003 -1.11369491e-002
      -3.28576565e-003 -1.38607686e-002 -2.08638934e-003
      -3.02886777e-003 -5.81001071e-003 1.01511106e-002 -3.95017676e-003
      -3.73064517e-003 -5.44747524e-003 7.81283900e-003 2.04109398e-004
      8.01383890e-003 1.58084873e-002 1.52492700e-002 -1.07188549e-004
      -1.84820015e-002 -9.13272426e-003 -1.17579224e-002
      -7.28081726e-003 -8.54878966e-003 2.01533106e-003 3.19264305e-004
      -1.27195218e-003 1.59123645e-003 -4.85283369e-003 -4.45772009e-003
      -8.50839820e-003 7.90523272e-003 -9.34827700e-003 1.47821254e-003
      -1.39156100e-003 2.19320133e-003 6.00609370e-003 -2.13466561e-003
      6.81869686e-004 -3.50856525e-003 1.46906301e-002 2.98907072e-003
      1.21070668e-002 6.64955983e-003 2.26051873e-003 8.08401790e-004
      -8.07811599e-003 -3.71691189e-003 -8.97773262e-003 7.29392422e-003
      -8.74633901e-003 -8.29781173e-004 -1.45841192e-003 1.89377030e-003
      6.98923739e-003 -2.91880174e-003 -9.24446527e-003 -7.11956481e-003
      8.92230961e-003 -4.18761512e-003 1.67802558e-003 -3.65362433e-003
      1.73962757e-003 2.26112246e-003 -6.37236610e-003 -9.87883285e-003
      -1.95747055e-002 5.56624914e-003 2.44979002e-003 5.63784875e-003
      1.19913206e-003 1.41335337e-003 7.68234069e-003 -5.16241416e-003
      -1.09134233e-002 -2.28150059e-002 6.49789022e-003 5.48460754e-003
      1.02023350e-003 -6.10758737e-003 -6.52898569e-004 1.26302689e-002
      -1.17954763e-003 -1.31002562e-002 -1.88482162e-002
      -3.42461909e-003 -1.30408369e-002 -1.97158405e-003
      -6.71776535e-004 5.57909859e-003 2.21126042e-002 4.25780145e-003
      -6.42525498e-003 -2.14487389e-002 -4.52822016e-004
      -5.73924044e-003 -3.10445926e-003 -3.83917824e-003 1.40428860e-002
      8.03503487e-003 -1.98030612e-003 -8.94963928e-003 -1.87366493e-002
      2.83657876e-003 1.07926375e-003 -2.27635773e-003 -1.00169294e-002
      -8.48658150e-004 9.04989149e-003 -2.92634265e-003 -2.40062131e-003
      -2.23574182e-003 2.94618821e-003 5.01962146e-003 5.29577117e-003
      7.96620443e-004 4.57846513e-003 1.92039609e-002 3.00073926e-003
      -7.80869508e-003 -1.99302491e-002 -4.99365525e-003
      -2.39913072e-003 -6.59345090e-003 -3.44488584e-003 1.19971847e-002
      1.18931849e-002 -5.21707069e-003 -1.14225289e-002 -1.29906172e-002
      1.70246896e-003 4.93719429e-003 1.58344198e-003 3.52255418e-003
      8.92282464e-003 -1.30619609e-003 -8.69713537e-003 -8.76734778e-003
      -4.81377169e-003 8.67640413e-003 8.16146564e-003 6.97566522e-003
      2.47854833e-003 5.38114179e-003 -2.91191041e-003 -1.53321773e-002
      -7.23407324e-003 -1.41489750e-003 1.97246056e-002 8.53044353e-003
      1.03685576e-002 4.97485371e-003 4.39430075e-003 5.82800154e-003
      -7.11544650e-003 -1.60898883e-002 -1.36305755e-002 8.45064875e-003
      1.05689121e-002 5.69206756e-003 2.12994707e-003 4.49404493e-003
      1.07560027e-002 -8.56028218e-003 -8.80291872e-003 1.47259491e-003
      2.68990453e-002 1.34486845e-002 9.05716792e-003 -1.77225948e-003
      1.72450009e-003 -1.03697740e-003 -1.78568009e-002 -9.65399016e-003
      -7.52360560e-003 1.28122326e-002 1.89453375e-003 2.86352867e-003
      -3.96823697e-003 7.60883372e-003 2.57195253e-003 -1.56855062e-002
      -1.00341979e-002 -1.15835154e-002 2.22759647e-003 -3.63862631e-003
      3.19322105e-003 4.62637370e-004 6.82939310e-003 7.60475593e-003
      -1.37500335e-002 -3.24848341e-003 -2.36190879e-003 1.65393315e-002
      -1.26662175e-003 6.44256594e-003 -1.79888983e-003 7.55923288e-003
      1.43914064e-002 -2.81260465e-003 5.59503539e-003 -5.23093343e-003
      -1.19642464e-004 -6.34287484e-003 6.18292112e-003 6.60331268e-003
      1.85032692e-002 9.77589283e-004 -5.71503630e-003 -3.88026913e-003
      -1.20613677e-002 -7.89731368e-003 -5.05828578e-003 6.72274129e-003
      1.39008940e-003 1.05257556e-002 7.11001735e-003 -6.07721368e-003
      -6.08970411e-003 -1.62904840e-002 -2.20677815e-003
      -2.33251741e-003 1.60004273e-002 7.02568330e-003 1.07335662e-002
      1.50955934e-002 4.01521428e-003 6.97809504e-003 -7.66931858e-004
      -8.24624393e-003 -1.13470387e-003 1.70645770e-002 1.27352839e-002
      1.82178300e-002 1.88065227e-002 5.04735485e-003 3.41233378e-003
      -1.04986141e-002 -4.49139066e-003 -2.66730646e-003 1.39514180e-002
      1.28633976e-002 2.29654126e-002 1.39822369e-003 -1.02253268e-002
      -4.05127974e-003 -9.42460634e-003 3.09665827e-003 -1.27089384e-003
      5.08204615e-003 -1.28982391e-003 5.67286555e-003 4.36182832e-003
      -2.03299848e-003 1.01008674e-003 -4.79733106e-003 -2.64432374e-003
      -8.18162225e-004 -2.31617526e-003 -7.49339303e-003 5.88064408e-003
      1.62627287e-002 2.28324858e-003 1.36075425e-003 -5.87162701e-003
      4.53561341e-004 -2.43052817e-003 3.37063288e-003 1.78242088e-004
      1.30945044e-002 1.22201266e-002 7.46534159e-003 1.73818960e-003
      -7.64245214e-003 -3.95218376e-003 -2.43407791e-003 1.91171639e-004
      -1.39401387e-003 1.31542683e-002 -3.41754197e-003 -4.16646758e-003
      -1.36050140e-003 -6.25665300e-003 -1.18353963e-003
      -1.54763204e-003 -1.79693941e-003 -6.21007988e-003 5.08126058e-003
      -5.40091749e-003 4.65766480e-003 1.03096822e-002 5.31517528e-003
      1.11428108e-002 4.69125528e-003 3.24919517e-003 -8.81729089e-003
      -1.44163566e-003 5.48992120e-003 -6.06450543e-004 -1.82676374e-003
      -9.89694521e-003 -5.14851417e-003 -4.96189902e-003 8.87296454e-004
      -1.16068761e-004 4.80668526e-003 9.72411130e-003 1.09718984e-003
      1.07590342e-003 -5.97505923e-003 7.19300797e-003 -3.66394618e-003
      2.16291077e-003 -3.13925184e-003 4.68264800e-003 -6.03696937e-003
      7.99584202e-003 1.36605008e-002 8.09186418e-003 1.05856936e-002
      3.65165970e-003 -9.44674131e-004 -1.48985591e-002 -1.20389229e-002
      -4.04158985e-004 6.53983839e-003 1.56955998e-002 5.06181363e-003
      -6.55707845e-004 -4.40442283e-003 -3.61378561e-003
      -1.05034225e-002 -4.77107754e-003 6.68486021e-003 2.86718155e-003
      3.92866042e-003 -2.69167055e-003 5.30321570e-003 -5.25821606e-003
      -2.92680436e-003 -7.12628383e-003 -1.36482250e-003
      -1.34589802e-003 -4.95980354e-003 1.93908520e-003 1.32608635e-004
      -1.05592911e-003 -1.02577899e-002 -4.64455457e-003
      -8.43051542e-003 5.29129850e-003 5.29939635e-003 1.75180694e-003
      1.03939129e-002 2.78716489e-005 -4.61499533e-003 -5.18079801e-003
      4.35571838e-003 -4.07292927e-003 4.00678208e-003 -2.02566298e-005
      -6.96676411e-003 7.03971274e-003 -1.41701184e-003 -6.90089189e-004
      -1.82480004e-003 9.42265242e-003 1.49830559e-003 5.16257668e-003
      3.90273472e-003 -1.06005240e-002 -9.21529776e-004 -3.23053845e-003
      -1.40679278e-003 -7.97047000e-003 3.90368490e-003 -4.08203667e-003
      9.13973339e-003 5.85555378e-003 -1.21182008e-002 -2.57113541e-004
      -2.27179797e-003 -3.79099441e-003 -2.55648466e-003 4.64343559e-003
      -8.43008864e-004 5.85304247e-003 3.36355506e-003 -6.11394923e-003
      3.97614017e-003 -3.07856803e-003 -4.87494865e-004 2.41477013e-004
      9.09423735e-003 3.15078418e-003 8.00216850e-003 3.02162603e-003
      -1.19093694e-002 -2.63346103e-003 -5.68232825e-003
      -3.27367336e-003 -5.48177725e-003 -1.40728161e-003
      -2.18933821e-003 7.93760456e-003 8.88714008e-003 -7.45955762e-003
      3.62431654e-003 -3.68128996e-003 -5.81900263e-003 -2.26360466e-003
      3.99038754e-003 -2.20122602e-004 9.27342009e-003 9.60892905e-003
      -1.04759317e-002 -6.25563785e-003 -6.28708815e-003
      -4.83288243e-003 -5.05488226e-003 -1.14275841e-003
      -2.63975188e-003 1.19453408e-002 6.43644482e-003 -6.66969642e-003
      1.48693903e-003 -2.57616933e-003 -7.25463149e-004 -7.10914005e-003
      5.09604753e-004 -1.29041600e-003 1.28710289e-002 4.44471790e-003
      -4.80765617e-003 -2.05275021e-003 -1.15071051e-003 1.23309100e-003
      -2.26641586e-003 7.09339557e-003 4.76189563e-003 8.50932486e-003
      1.21289175e-002 -4.38753143e-003 -4.58728755e-003 -6.16232399e-003
      -4.42133145e-003 -6.51011243e-003 2.30655121e-003 2.40034075e-003
      1.40939569e-002 1.30557353e-002 1.50648202e-003 -1.72154955e-003
      -3.46347387e-003 1.16225309e-003 -6.40262850e-003 6.03892095e-003
      5.65624982e-003 7.42040807e-003 2.95273541e-003 -3.68091301e-003
      -5.63283823e-003 -7.50531768e-003 -9.42593382e-004
      -1.60309358e-003 5.76122990e-003 3.48892552e-003 2.43410235e-003
      1.17080128e-002 6.89978153e-003 3.64916086e-005 -5.89116011e-003
      -3.34347924e-003 1.78920175e-003 6.23462442e-003 8.41082819e-003
      8.22202675e-003 9.11497511e-003 1.64651382e-003 -3.38100852e-003
      -9.87459719e-003 6.23333326e-004 -3.19502736e-003 2.48180982e-003
      -1.76152040e-003 1.21587969e-003 9.79945716e-003 5.23856236e-003
      -4.19071963e-004 -4.74900147e-003 -2.22813128e-003
      -2.92134215e-003 5.16981177e-004 -1.30751496e-003 5.98095963e-003
      6.04192866e-003 8.56211688e-003 1.15638273e-003 -9.01465956e-003
      9.03591607e-003 -8.36182386e-003 1.85676129e-003 2.63437140e-003
      1.30582473e-003 7.22734630e-003 3.08283139e-003 -4.12307074e-003
      -1.15471296e-002 2.57601915e-003 -7.42717180e-003 -4.26221825e-003
      -2.77316710e-003 3.35636316e-003 -5.88317774e-003 5.36228856e-003
      7.66279781e-003 -1.52780290e-003 9.38592572e-003 -8.59578699e-003
      1.32843642e-003 -7.90163031e-005 -9.49887652e-003 -1.87354593e-003
      4.20879899e-003 3.08073917e-003 -7.82422442e-003 3.81192798e-003
      -1.10021541e-002 -4.46417276e-003 -9.07349028e-003
      -1.13673005e-002 8.70722346e-003 -4.47078794e-003 -4.45225276e-003
      -9.37159546e-003 5.28593082e-003 -7.13014789e-003 3.55745154e-003
      4.04981012e-003 9.82904434e-003 1.56796817e-003 -8.64293426e-003
      -1.20325554e-002 -1.57764144e-002 -3.44903115e-003
      -9.33982152e-003 -3.52329738e-003 -3.01703438e-003 5.68776531e-003
      8.85999110e-003 3.20982514e-003 6.34573027e-003 -6.59217266e-003
      2.15610466e-003 -6.94663636e-003 1.12265570e-003 -6.60275156e-003
      1.49231986e-003 5.76802483e-003 -3.41437943e-003 -1.00194139e-003
      -1.12104835e-002 -1.35183835e-003 -8.82326160e-003 8.28997465e-004
      -1.59835152e-003 3.89196351e-003 5.34786144e-003 -4.39064996e-003
      -5.30436588e-003 -8.95966962e-003 4.98647150e-003 -8.97968840e-003
      -3.72868986e-003 -3.70446593e-003 6.80662459e-003 1.46063250e-002
      3.24700819e-003 -7.11980881e-003 -7.08660018e-003 -8.57218751e-004
      -1.35029480e-002 -1.04603926e-002 -4.52072872e-003 9.70984530e-003
      2.78625172e-003 -9.05431167e-004 2.50160019e-003 -6.18600193e-003
      6.43042848e-003 -9.84564610e-003 2.12574654e-004 -2.46489071e-004
      3.13031394e-003 8.52909312e-003 9.54720192e-004 -4.95143887e-003
      -1.08486251e-003 2.06409208e-003 -8.44462216e-003 -5.63205499e-003
      -6.10700576e-003 3.52662872e-003 1.79009009e-002 2.25840858e-003
      -1.05788549e-002 -1.81155950e-002 -1.07553871e-002
      -1.72219500e-002 -7.76804145e-003 -1.19678746e-003 1.54688163e-002
      2.78070681e-002 3.29699810e-003 -8.18040594e-003 -1.49947330e-002
      -7.81587139e-003 -8.72158539e-003 -4.88958554e-003
      -5.75780752e-004 2.13564355e-002 1.17756939e-002 -3.35624488e-003
      -1.26543213e-002 -1.00871287e-002 -5.77598251e-003
      -1.35184648e-002 -9.18699708e-003 -8.13279208e-003 1.19333984e-002
      1.48600610e-002 -2.07189145e-003 -4.23134724e-003 -6.35355245e-003
      -8.03230423e-003 -7.54102273e-003 -4.37602401e-003
