<?xml version="1.0"?>
<opencv_storage>
<my_svm type_id="opencv-ml-svm">
  <svm_type>C_SVC</svm_type>
  <kernel><type>LINEAR</type></kernel>
  <C>1.0000000000000000e-002</C>
  <term_criteria><epsilon>1.1920928955078125e-007</epsilon>
    <iterations>2000</iterations></term_criteria>
  <var_all>3780</var_all>
  <var_count>3780</var_count>
  <class_count>2</class_count>
  <class_labels type_id="opencv-matrix">
    <rows>1</rows>
    <cols>2</cols>
    <dt>i</dt>
    <data>
      -1 1</data></class_labels>
  <sv_total>1</sv_total>
  <support_vectors>
    <_>
      1.69269014e-002 1.60948206e-002 1.19906496e-002 -3.21774781e-002
      -7.85090681e-003 -2.68796049e-002 1.92880686e-002 1.07908640e-002
      3.22070392e-003 1.48806593e-003 1.85698513e-002 2.03108210e-002
      -2.72206757e-002 1.12287374e-002 -3.44338920e-003 1.49430456e-002
      -5.73451864e-003 -1.17620118e-002 2.16352046e-002 2.20736396e-002
      1.13940900e-002 -3.93668562e-002 -4.35210066e-003 -2.37389021e-002
      3.71515788e-002 2.20451280e-002 4.63627558e-003 1.85995339e-003
      3.29240132e-003 5.55148767e-003 -4.27774601e-002 1.07973325e-003
      -9.81269055e-004 2.53904071e-002 7.79796438e-003 -9.01914388e-003
      -3.96394636e-003 2.66954750e-002 2.48125792e-002 -2.29292605e-002
      2.98988968e-002 2.72560539e-003 1.51092326e-002 -2.70552235e-003
      -2.44462136e-002 -8.56798701e-003 1.18810423e-002 1.26283634e-002
      -1.89958066e-002 7.06525519e-003 -6.45344704e-003 1.06808860e-002
      4.33870795e-004 -2.29541119e-002 1.10005063e-003 9.80442949e-003
      1.43656675e-002 -4.07658555e-002 7.55836163e-003 -2.52096890e-003
      1.56567097e-002 3.91960982e-003 -9.14551876e-003 1.67045854e-002
      5.59712574e-003 5.88396890e-003 -4.07648720e-002 6.68427534e-003
      -2.34480742e-002 1.67299379e-002 1.43111842e-002 6.72604190e-003
      -4.12320346e-003 1.45242363e-002 1.41949682e-002 -2.11698133e-002
      1.39576371e-003 -2.09033117e-002 2.72921333e-003 -3.74958478e-003
      -2.26040706e-002 5.20679587e-003 1.66184306e-002 4.33668215e-003
      -1.99132580e-002 3.77870025e-003 -2.45010033e-002 1.21734710e-002
      -9.24867205e-003 -1.42190689e-002 9.32200067e-003 1.06630111e-002
      -3.04438756e-003 -3.17655876e-002 6.93728728e-003 -2.12930311e-002
      8.26694723e-003 7.71887461e-003 1.35486829e-004 1.99864861e-002
      1.76842827e-002 1.24435825e-002 -2.78135180e-003 2.15390194e-002
      1.78411938e-004 2.06814818e-002 6.10045483e-003 2.38534100e-002
      -1.07827047e-002 4.09366842e-003 -9.77110304e-003 -2.88285557e-002
      -1.09168198e-002 -2.70181019e-002 1.98183348e-003 -1.27841216e-002
      -1.64550096e-002 4.41103475e-003 1.17197512e-002 -3.34170973e-003
      -1.73809994e-002 1.22999484e-002 -4.21479670e-003 6.10599807e-003
      -6.84388075e-003 -1.97962555e-003 1.45569071e-002 5.73380804e-003
      -1.57824028e-002 -1.43782934e-002 1.45104050e-003 -1.38597414e-002
      6.27010316e-003 5.62988920e-003 2.16496047e-002 3.60963382e-002
      1.37656191e-002 -6.99403277e-003 -2.78419163e-003 1.24835437e-002
      -1.29302172e-002 9.74549074e-003 6.58494141e-003 2.76725125e-002
      -1.39247929e-003 4.49628429e-003 -1.46694900e-003 -1.04293702e-002
      2.02147812e-002 2.78445054e-003 9.20748431e-003 1.34521525e-003
      -1.39744924e-002 7.78780377e-004 -5.97986532e-003 -3.02990060e-003
      -2.95600295e-003 2.38775499e-002 5.08828135e-003 1.83768943e-002
      6.47650752e-003 -1.32561205e-002 2.12744512e-002 1.14224141e-003
      -1.26081873e-002 -8.69473536e-003 2.76714265e-002 -3.03963874e-003
      1.01741841e-002 -3.70041816e-003 1.15904510e-002 7.46750878e-003
      -3.99362436e-003 1.86007936e-003 3.85838957e-003 2.49731969e-002
      -4.43890085e-003 6.37547765e-003 -2.21333876e-002 -8.75698216e-003
      -1.47248572e-002 -5.53416368e-003 -4.27290681e-004 4.83578799e-004
      1.26805399e-002 -6.39148429e-003 7.90342875e-003 -7.77464034e-003
      -1.43246837e-002 1.47773167e-002 1.17089050e-002 1.72286946e-002
      -4.37516393e-003 2.26268619e-002 2.71203881e-003 1.46594876e-002
      -9.42361075e-003 -4.85613337e-003 -9.42301657e-003
      -1.63791198e-002 -2.68502370e-003 -8.87069013e-003 1.65336020e-002
      -1.99926384e-002 -1.10641192e-003 -2.81108748e-002
      -1.79031286e-002 1.77718326e-002 2.00535096e-002 1.73533391e-002
      -1.11350333e-002 2.51250174e-002 -2.10743723e-003 9.75585449e-003
      -5.41398535e-003 1.21442107e-002 7.64774065e-003 1.21988291e-002
      1.56623404e-002 -9.41405725e-003 1.01338662e-002 -6.08511595e-003
      2.12881994e-003 -1.93931442e-002 -8.07544589e-003 1.82257947e-002
      8.98082741e-003 6.17267750e-003 -4.49037552e-003 4.56722081e-003
      -6.64664293e-003 1.33891767e-002 4.93873609e-004 1.48055227e-002
      5.02363080e-003 9.05072037e-003 1.19926576e-002 -8.78890790e-003
      5.14958892e-003 -7.89590552e-003 -1.44231720e-002 -3.90098430e-002
      -1.14659313e-003 1.99725535e-002 -7.25493673e-003 1.16856508e-002
      -6.46229368e-003 1.50127662e-002 3.81205697e-003 2.26501469e-003
      -2.60810778e-002 8.36232025e-003 1.03916936e-002 2.25996878e-003
      4.64389473e-003 -6.89951330e-003 -4.58928244e-003 -8.37534014e-003
      1.12089040e-002 -7.94971082e-003 3.05157178e-003 1.64068248e-002
      1.31153930e-002 1.47267841e-002 -1.06506236e-003 5.41195599e-003
      -3.28403269e-003 3.48686404e-003 -2.24997029e-002 -1.19663645e-002
      1.64007004e-002 -1.12266680e-002 -9.92823043e-005 -7.92619120e-003
      4.28614952e-003 4.44052159e-004 1.38398083e-002 -9.38382372e-003
      1.22104902e-002 2.54518613e-002 1.30827799e-002 6.30461564e-003
      -7.45711569e-003 8.08604900e-003 1.17876090e-003 1.00359870e-002
      -1.31231770e-002 9.01032332e-003 2.01132484e-002 1.32402908e-002
      7.66250305e-003 -1.24970451e-002 -2.16959063e-002 -2.16286350e-002
      -8.77775904e-003 -2.22560409e-002 -2.28736759e-003 2.40511596e-002
      1.20454002e-002 6.74578128e-003 -1.95147321e-002 -5.97051391e-003
      -5.13049541e-003 2.76213698e-003 -8.32102727e-003 1.92578305e-002
      3.84511761e-002 1.52498009e-002 6.29253080e-003 -1.19571369e-002
      -1.22021441e-003 -8.06897692e-003 4.88599576e-003 -1.95369031e-002
      1.73319541e-002 2.78004836e-002 1.02508422e-002 1.79253574e-002
      1.36007182e-003 -3.22030718e-003 -6.15514163e-003 1.84749309e-002
      5.59243024e-004 1.96514800e-002 1.50964758e-003 -1.52635959e-003
      3.16374516e-003 -8.30551237e-003 2.67814915e-003 -9.28508770e-003
      -1.25585115e-002 -6.45636953e-003 8.99859797e-003 -7.78462156e-004
      2.60379841e-003 1.22506786e-002 1.30587779e-002 1.94794219e-002
      -4.72627021e-003 -1.62725914e-002 -1.49168223e-002
      -1.03049120e-003 6.59478828e-003 -2.31998065e-003 1.88074019e-002
      1.08226913e-003 1.92554167e-003 -6.06042659e-003 7.24532409e-004
      -5.03214728e-003 8.01176298e-003 7.27134850e-003 7.30439182e-003
      2.43801307e-002 1.85633395e-002 2.32308879e-002 7.74322869e-003
      -3.31162731e-003 -7.29510980e-003 9.68324859e-003 -1.20521837e-003
      6.70931954e-003 1.56524684e-002 8.02608300e-003 -3.37321730e-003
      -9.78966057e-003 -1.36557883e-002 -2.78413743e-002
      -9.88480262e-003 1.42005179e-002 1.47994692e-002 3.28893922e-002
      1.24579528e-002 -5.05278073e-003 -8.15020315e-003 3.14141018e-003
      -6.93591451e-003 8.36671796e-003 1.12770963e-002 8.74960702e-003
      3.09964158e-002 9.69480257e-003 8.77025072e-003 7.42547587e-003
      3.18561797e-003 -1.12589151e-002 4.38457355e-003 1.43654281e-002
      1.68475527e-002 3.24133039e-002 9.47244093e-003 9.59249213e-003
      3.49937868e-003 1.33704031e-002 9.35457356e-004 1.04081258e-002
      3.95942666e-003 -1.55948772e-004 1.63490437e-002 8.13037995e-003
      -2.27978826e-003 -1.60658755e-003 9.94243938e-003 6.45159371e-003
      8.06630403e-003 5.81876980e-003 3.87019129e-003 1.60096064e-002
      4.22231993e-003 3.75066465e-003 2.00969130e-002 2.13626958e-002
      1.71233229e-002 1.40467044e-002 2.79977708e-003 -1.05024474e-002
      1.16228806e-002 8.20994936e-003 1.38250329e-002 1.42048374e-002
      2.30667908e-002 4.57082503e-003 4.64406330e-003 5.79680828e-003
      -1.18867848e-002 4.28622402e-003 6.07964396e-003 2.85454057e-002
      3.43961045e-002 3.50560099e-002 1.13661522e-002 8.13534204e-003
      4.09480883e-003 3.54629639e-003 2.35800967e-002 -4.29996289e-004
      -9.23074037e-003 7.71727366e-003 1.30916294e-002 1.09536164e-002
      5.95218362e-003 -5.81994478e-004 2.04253709e-004 2.51311306e-002
      1.95387099e-002 -1.37122744e-003 1.40683716e-002 9.85113904e-003
      3.54932225e-003 7.90371653e-003 9.21057444e-003 1.11259206e-003
      7.64659885e-003 6.28647720e-003 1.71398912e-002 2.27014590e-002
      2.56162100e-002 2.08282806e-002 1.52460067e-002 -4.34707291e-003
      5.09709716e-005 1.17691467e-002 1.58362873e-002 1.88675355e-002
      1.39318937e-002 9.05134901e-003 1.71018858e-002 1.91371944e-002
      4.63604601e-003 2.78313435e-003 1.23596247e-002 1.20954178e-002
      1.49469059e-002 1.12247318e-002 5.97573817e-003 5.38450573e-003
      9.54927038e-003 -1.73830299e-003 1.45751853e-002 1.86055955e-002
      7.30792060e-003 7.70510361e-003 -5.60844643e-003 -1.86574835e-004
      5.09316800e-003 3.29448213e-003 5.23705734e-003 6.21709554e-003
      3.98496911e-003 2.00627353e-002 1.78593565e-002 4.62838029e-003
      -1.40734744e-004 5.40691055e-003 1.28591992e-002 1.62317865e-002
      1.01872785e-002 7.49981869e-003 1.63560417e-002 1.28730182e-002
      2.82217679e-003 -8.78405524e-004 5.35162073e-003 1.57069452e-002
      7.73663120e-003 1.16299987e-002 1.24176079e-002 1.19149103e-003
      -2.66482634e-003 -1.70054361e-002 -7.31287478e-003
      -1.45491539e-003 7.39629380e-003 2.74513774e-002 2.98992153e-002
      3.51815000e-002 1.35518648e-002 1.50974048e-002 3.45095061e-003
      -8.90315883e-003 -3.18779820e-003 1.88399684e-002 1.75671671e-002
      6.04762090e-003 4.51582810e-003 4.29106131e-003 1.10329688e-002
      -1.16120316e-002 -1.38694616e-002 -1.13674626e-002 1.87913477e-002
      2.29213666e-002 2.29148772e-002 1.81425605e-002 1.27849644e-002
      1.08400006e-002 -1.04660704e-003 -1.26875965e-002 -6.97344448e-003
      2.94761639e-002 2.29148082e-002 1.08521935e-002 7.83164613e-003
      -3.45780514e-002 4.11822973e-003 -2.75457371e-002 3.14234085e-002
      7.90914334e-003 1.39012029e-002 1.05141299e-002 -2.83391308e-003
      -3.02281114e-003 -3.66512313e-002 4.72766720e-003 -6.03282684e-003
      2.51352265e-002 6.69986708e-003 -2.02716980e-003 8.69175245e-004
      8.04286543e-003 6.18721638e-003 -2.51289196e-002 2.47007958e-003
      -2.71293074e-002 1.52333612e-002 3.47326905e-003 -8.00099503e-003
      1.28954845e-002 7.81218149e-003 1.56612042e-003 -2.44623516e-002
      9.33059584e-003 -6.64871046e-003 1.92952529e-002 -4.58076224e-003
      -5.14314370e-003 1.08916517e-002 4.89906035e-003 1.24020651e-002
      -3.85614894e-002 1.56568810e-002 -4.63840645e-003 2.61807386e-002
      1.09742377e-002 9.76298284e-003 2.60281321e-002 -1.07769878e-003
      -6.77797152e-003 -4.40794341e-002 1.52739855e-002 -2.11650319e-002
      2.54319124e-002 1.69910956e-002 1.97476428e-002 6.34433655e-003
      -3.61016160e-003 -3.11037665e-003 -3.06289550e-002 1.23546482e-003
      -1.73876714e-002 2.19640546e-002 -4.18216176e-003 -1.29933842e-002
      1.93214137e-003 -4.07435978e-003 -8.88728164e-003 -3.26155126e-002
      1.08571285e-002 -2.83478312e-002 2.04746127e-002 -1.03245187e-003
      3.25081201e-004 7.19458703e-003 -4.25619632e-003 -1.67980529e-002
      -3.28414701e-002 1.48234861e-002 -2.47196779e-002 3.04955477e-003
      -3.08110239e-003 3.91813973e-003 1.00340806e-002 1.22107659e-002
      9.11876746e-003 -8.24039150e-003 4.12554145e-002 -5.62450290e-003
      1.62085760e-002 9.42266546e-003 1.06103290e-002 2.31678924e-003
      -1.74125172e-002 -1.66191105e-002 -2.85857767e-002 1.88994482e-002
      -2.68537365e-002 4.44549322e-003 -1.58320311e-002 -8.49569868e-003
      9.70944855e-003 -7.64823658e-003 -5.83034009e-003 -1.70571245e-002
      4.56065051e-002 -1.34391440e-002 2.27851514e-002 1.48186996e-003
      1.56175271e-002 1.31982788e-002 -3.35979881e-003 -2.07711197e-002
      -2.80376822e-002 8.30175355e-004 -2.31139008e-002 -2.65418948e-003
      4.20325343e-003 2.09811572e-002 4.01435234e-002 -8.37405492e-003
      -3.58547866e-002 -3.01646832e-002 -3.09926621e-003
      -2.27306820e-002 5.16624004e-003 5.71056642e-003 3.13643701e-002
      1.22633502e-002 -2.38948856e-002 -3.06135081e-002 -4.09562252e-002
      1.27707561e-002 -2.68235244e-002 2.48482637e-003 2.63060164e-003
      2.27921773e-002 3.11578047e-002 -1.03615765e-002 -3.14998515e-002
      -3.81523147e-002 2.28945632e-002 -9.55313386e-004 8.07269569e-003
      4.24631871e-003 2.49218289e-002 2.03604829e-002 -1.91338696e-002
      -3.71839367e-002 -2.96591017e-002 1.30059486e-002 -1.54338060e-002
      5.92412148e-003 -5.35798073e-003 2.08274182e-002 5.33670560e-003
      -2.61826403e-002 -2.10919082e-002 -5.25712874e-003 2.14970019e-002
      -8.19619652e-003 6.99383859e-003 -1.77615155e-002 7.81032722e-003
      2.37553623e-002 -1.08639635e-002 -2.53355186e-002 -3.30816656e-002
      2.93619707e-002 4.35704039e-003 2.96550523e-003 -1.24348495e-002
      2.00471226e-002 1.69269685e-002 -1.33308051e-002 5.14749112e-003
      5.37238317e-004 2.69153304e-002 7.16324430e-003 9.27648135e-003
      -3.84259899e-003 1.80247538e-002 -1.01827132e-002 -2.55461764e-002
      -8.01572390e-003 -1.29078105e-002 1.52714895e-002 -1.02588842e-002
      3.10150371e-003 -1.46841453e-002 7.90978433e-004 1.65243819e-002
      -9.79563221e-003 9.17769875e-003 -1.36204502e-002 2.32560765e-002
      3.91881820e-003 1.53994830e-002 -4.02699178e-003 1.58432890e-002
      8.26947950e-003 -2.33913921e-002 2.90957605e-003 -3.39960121e-003
      2.09734663e-002 1.04283716e-003 9.45618097e-003 4.62718727e-003
      1.39419753e-002 2.80039199e-002 -1.40201738e-002 1.05686830e-002
      2.20164028e-003 2.55968105e-002 8.13875254e-003 2.10452974e-002
      1.53433140e-002 2.05622781e-002 1.23329116e-002 -1.46706700e-002
      1.15498640e-002 -1.05509693e-002 6.97253365e-003 5.98281295e-005
      -1.59827508e-002 -2.54414156e-002 -3.16973357e-003 2.28271093e-002
      -6.98933564e-003 1.81468111e-002 -6.49816683e-003 6.36498677e-003
      7.26843579e-003 -2.74946360e-004 -2.34033186e-002 5.47568221e-003
      1.54994633e-002 -1.52945071e-002 -6.93202112e-003 -6.92450115e-003
      1.54273631e-002 2.75353924e-003 -3.58490180e-003 -3.64956213e-003
      1.85317360e-002 2.08185725e-002 -1.05557796e-002 2.27774098e-003
      5.57625608e-004 1.61149707e-002 2.48518353e-003 6.76126406e-003
      -1.54161714e-002 2.41371728e-002 2.19397601e-002 -5.96732460e-003
      5.61171910e-005 -7.67997326e-003 -5.49310993e-004 -8.30341969e-003
      -3.87477526e-003 -2.28293017e-002 1.48058198e-002 2.55385600e-002
      1.82067696e-003 5.20040514e-003 -3.91401490e-003 5.59454365e-003
      -8.22405517e-003 -5.83929988e-003 -9.60381515e-003 2.75001843e-002
      6.45658467e-003 -1.50008118e-002 3.52509296e-003 -3.46375367e-004
      -4.17422550e-003 -1.87828634e-002 -7.03369314e-003
      -2.26644035e-002 2.16459129e-002 1.58046819e-002 -2.07769386e-002
      2.34801718e-003 1.51414052e-002 1.37963332e-002 -3.54426005e-003
      -4.03231196e-003 -1.01498133e-002 2.44887639e-002 1.62841808e-002
      -1.09328832e-002 -2.35734601e-003 -1.46726742e-002 3.43437889e-003
      -1.10251317e-002 -3.41569516e-003 -1.49928043e-002 1.96089130e-002
      1.38913710e-002 -5.10676578e-003 8.03816970e-003 3.62240989e-003
      2.36833072e-003 -5.45442104e-003 9.26276552e-004 -1.03640780e-002
      1.81979239e-002 9.09001287e-003 -3.16464826e-002 -3.41179711e-003
      4.74549457e-003 1.34827038e-002 -1.45995861e-003 2.96535366e-003
      -1.73296139e-003 1.90308150e-002 1.49193509e-002 -1.15044368e-003
      1.38608459e-002 1.47046940e-002 2.42940020e-002 2.29743328e-002
      2.10978147e-002 8.76512658e-003 2.15043649e-002 5.34853013e-003
      2.77239806e-003 1.85809955e-002 1.78709510e-003 -4.51366371e-003
      -1.44904358e-002 -8.39255564e-003 -2.55015604e-002
      -5.66348108e-003 4.55758581e-003 2.05892231e-003 2.32802499e-002
      1.85601860e-002 2.89342906e-002 1.01546003e-002 -5.77074476e-003
      -2.17004865e-002 -6.98850490e-003 3.87257081e-003 -5.16638102e-004
      1.29569266e-002 1.24246813e-002 2.37621088e-002 1.54550159e-002
      1.12349652e-002 -5.62007632e-003 4.33063367e-003 1.51190395e-002
      1.50605310e-002 2.09063720e-002 3.52150947e-002 4.60210480e-002
      3.11091151e-002 9.22978111e-003 -1.91265903e-003 8.01852066e-003
      9.99982469e-003 5.70035586e-003 2.41586398e-002 1.86042674e-002
      2.67832633e-002 1.28988065e-002 -3.62728117e-003 -2.14386396e-002
      -1.30887022e-002 6.83659455e-003 7.11558666e-003 2.32478231e-002
      6.27177022e-003 1.72999855e-002 4.95051686e-003 3.35013494e-003
      -7.05536827e-003 -2.85492186e-003 9.95803718e-003 1.40496511e-002
      1.97187830e-002 2.84254402e-002 3.33331674e-002 1.58272460e-002
      2.10987404e-003 -2.37908470e-003 7.12931203e-003 1.62113120e-003
      6.09111227e-003 2.39611380e-002 1.31180091e-002 2.23976597e-002
      1.15607930e-002 2.78707361e-003 5.16907172e-003 1.43881480e-003
      3.03861150e-003 -3.39246122e-003 1.11012477e-002 4.28441539e-003
      2.06649601e-002 1.96185000e-002 1.22603290e-002 -3.61168850e-003
      4.13324684e-003 3.94782564e-003 -3.92898219e-003 5.69550553e-003
      1.22476900e-002 3.21386047e-002 3.59892361e-002 1.36850271e-002
      6.93521881e-003 7.02290609e-003 1.45103531e-002 -2.85088038e-003
      1.65997893e-002 9.21591092e-003 2.41119079e-002 1.03372866e-002
      1.42097715e-002 2.02243193e-003 1.41321355e-002 3.00818239e-003
      -6.16556592e-003 8.06484278e-003 1.14586428e-002 2.25092378e-002
      1.67763084e-002 1.90906283e-002 9.05129185e-004 6.54908689e-003
      1.85127999e-003 6.52653677e-003 1.05876997e-002 6.89204829e-003
      1.90576408e-002 2.34074872e-002 6.69360207e-003 1.52625851e-002
      3.86878150e-003 2.95921671e-003 6.86595496e-003 1.23039139e-002
      -1.14276132e-003 1.61341839e-002 6.08728873e-003 -8.97152175e-004
      1.57017671e-002 1.00862235e-002 1.99001879e-004 9.78656765e-003
      2.02692095e-002 1.42661920e-002 1.49350232e-002 2.22346727e-002
      1.32701881e-002 1.57635733e-002 2.39590788e-003 1.65688079e-002
      4.81441105e-003 2.02563759e-002 1.10499598e-002 1.57421697e-002
      1.91260241e-002 3.63470661e-003 5.91878872e-003 1.80614442e-002
      6.53266488e-003 1.09413695e-002 3.52428877e-003 3.39473736e-005
      1.39249796e-002 -8.87685397e-004 -5.28812595e-003 7.82109448e-004
      1.29850190e-002 2.00015325e-002 1.88703015e-002 7.46156555e-003
      1.18387742e-002 1.65090542e-002 -3.53280711e-003 -1.44116604e-003
      1.42402935e-003 1.14722382e-002 2.11099125e-002 2.79543363e-003
      1.32852998e-002 1.40323292e-003 1.93525013e-002 6.76308153e-003
      -5.96839143e-003 -5.23245847e-003 2.60684825e-002 2.36072354e-002
      1.21973911e-002 9.59148630e-003 1.49576459e-002 1.31621193e-002
      7.51520554e-003 4.23024362e-003 -9.55677591e-003 1.84314270e-002
      1.55617576e-002 1.26660364e-002 -3.35062970e-003 1.14700915e-002
      1.83895919e-002 -1.16441315e-002 -1.04586929e-002 -1.04844142e-002
      5.34979906e-003 1.94931068e-002 2.66783200e-002 5.13848709e-003
      1.10303750e-002 1.03267990e-002 -1.40512828e-002 -1.05969347e-002
      1.31386681e-003 1.83444750e-002 1.14495195e-002 5.59773948e-003
      -1.15323265e-003 1.42027624e-002 1.71814431e-002 1.73587434e-003
      1.21829938e-002 -4.55865264e-003 6.56408537e-003 1.64135620e-002
      1.45219201e-002 4.15743655e-003 2.04189979e-002 1.16004329e-002
      -3.11122392e-004 6.34967955e-003 1.40270805e-002 1.36975236e-002
      -2.05859588e-003 -8.24188720e-003 -3.03976168e-003
      -2.59226970e-002 1.53107764e-002 -2.57729571e-002 1.09339636e-002
      1.26257855e-002 2.68941210e-003 1.42438971e-002 -4.38451441e-003
      -1.18430378e-002 -2.35441513e-002 5.54457027e-003 -1.17349792e-002
      2.30120737e-002 1.41852973e-002 2.98629119e-003 1.47849806e-002
      -2.04291642e-002 -2.72155907e-002 -4.86657210e-002 1.29068252e-002
      -3.37459035e-002 4.75872832e-004 1.78192079e-003 1.21082291e-002
      2.57162265e-002 -1.65549405e-002 -3.11241709e-002 -3.22081447e-002
      3.55222984e-003 -2.12700181e-002 1.64814554e-002 8.28395598e-003
      2.81223599e-002 1.73357520e-002 -4.59196698e-003 -7.76962144e-003
      -3.09101455e-002 -6.57350244e-003 -1.82011202e-002 1.77891199e-002
      4.38331999e-003 -1.37720408e-003 1.82741676e-002 -1.09762875e-002
      -1.28204757e-002 -3.76000851e-002 -1.49327638e-002
      -3.57504264e-002 6.95740525e-003 3.34167713e-003 -2.95295892e-003
      3.37386541e-002 -2.33246349e-002 -2.60957684e-002 -3.97410616e-002
      -1.43398717e-003 -2.07068436e-002 1.45543367e-002 -3.09051783e-003
      3.12061533e-002 3.82233746e-002 -2.74630208e-002 -2.05786563e-002
      -4.28251550e-002 -6.24351529e-003 -3.22763324e-002 1.50138997e-002
      -6.24864968e-003 2.69153956e-002 4.29488253e-003 -1.46610159e-002
      -2.99280696e-002 -4.20765653e-002 -2.13388726e-003
      -2.99157146e-002 6.38828101e-003 -1.42864874e-002 1.31279544e-003
      3.82561609e-002 -1.73317324e-002 -2.74079032e-002 -3.65847982e-002
      3.14589962e-002 -1.51461614e-002 2.99119540e-002 5.90934884e-003
      3.29305716e-002 2.51671579e-002 -1.79357771e-002 -2.55941637e-002
      -4.68564294e-002 -1.12217898e-002 -4.13109176e-002
      -1.62615476e-003 -9.32271779e-003 1.38560822e-002 4.36089896e-002
      -6.66448288e-003 -3.07289548e-002 -3.44360583e-002 8.04761983e-003
      -2.99216043e-002 5.54619124e-003 -6.25082664e-003 3.67300436e-002
      1.74107868e-002 -3.66607122e-002 -5.30537404e-002 -6.03827946e-002
      -2.31527397e-003 -3.53453308e-002 8.55372811e-004 -7.05231505e-004
      2.39562858e-002 4.72998694e-002 -1.77979972e-002 -3.52517068e-002
      -5.29843457e-002 1.26016047e-002 -1.30273774e-002 -3.51742259e-003
      -5.86321251e-003 3.60824727e-002 3.55776250e-002 -2.60588601e-002
      -5.22720218e-002 -5.72619103e-002 -1.37037011e-002
      -4.47339043e-002 -1.17303953e-002 -1.42180361e-002 2.86626611e-002
      6.25930801e-002 -9.73040890e-003 -2.84852702e-002 -4.90050726e-002
      1.06528718e-002 -5.61566441e-004 4.27461369e-003 -5.93965780e-003
      4.49952148e-002 1.40969250e-002 -2.40977369e-002 -3.69829498e-002
      -4.42149676e-002 1.87491868e-002 -5.90783590e-003 -7.22982595e-003
      -2.43753903e-002 5.04085002e-003 1.50508322e-002 -2.93201301e-002
      -1.25120617e-002 -1.43815242e-002 8.61354358e-003 -1.54934824e-003
      -1.72619219e-003 -1.20511455e-002 1.33781591e-002 3.80084179e-002
      -1.80100873e-002 -2.55031623e-002 -2.98047829e-002 2.09612530e-002
      1.07853673e-003 -2.90038623e-003 -3.73763079e-003 3.40996012e-002
      3.26872654e-002 -2.59887241e-002 -1.93088967e-002 -1.12367822e-002
      1.95510089e-002 -3.32079921e-003 8.48320685e-003 5.88998385e-003
      3.80109288e-002 3.77950794e-003 -2.67882217e-002 -6.92073442e-003
      -1.36003383e-002 5.77656971e-003 -1.02459714e-002 -3.34142987e-003
      -5.16006909e-003 1.39757358e-002 2.10516062e-002 -2.89083365e-002
      -1.44321984e-002 -9.92421992e-003 3.21156420e-002 -2.12345552e-003
      1.36808231e-002 8.56543519e-003 2.89228037e-002 2.72544846e-002
      -2.96007041e-002 -1.16801700e-002 -1.17777651e-002 1.28366537e-002
      -3.24497372e-003 7.67382560e-003 -2.95457523e-003 2.34961212e-002
      4.02971432e-002 -3.24257910e-002 -7.45762466e-003 3.10946349e-003
      3.80854420e-002 3.21707246e-003 1.43883266e-002 -2.77744932e-003
      3.24170105e-002 1.45655852e-002 -3.16810608e-002 -2.57157497e-002
      -3.04484032e-002 9.89465415e-003 -1.71863455e-002 -1.93435175e-003
      -1.13832867e-002 2.38944385e-002 1.64732505e-002 -1.67199112e-002
      -9.00471862e-003 -7.08461925e-003 2.28324067e-002 -8.91870353e-003
      6.03055628e-003 -1.03902761e-002 2.23922301e-002 2.24829204e-002
      -3.31837423e-002 -1.50649277e-002 -1.33175971e-002 1.69475302e-002
      -1.32677928e-002 -9.72088368e-004 -1.36021888e-002 2.36700475e-002
      3.18869054e-002 -6.76217198e-004 2.04833299e-002 7.70197855e-003
      2.44716126e-002 5.89443371e-003 6.03931956e-003 -8.27034097e-003
      2.62366310e-002 -7.87503924e-003 -2.38614120e-002 -3.87301552e-003
      -1.15040653e-004 7.51477107e-003 -8.25162604e-003 6.05115620e-003
      -1.37251765e-002 9.42089129e-003 6.34317286e-003 -3.88479754e-002
      -1.33831287e-002 1.07703684e-003 1.52081335e-002 -3.22823110e-003
      1.77103560e-002 -6.72758045e-003 1.57643985e-002 1.17436470e-002
      -3.92147992e-003 1.53235635e-002 2.07187254e-002 2.02843305e-002
      1.16440989e-002 1.94732621e-002 -7.12451618e-003 1.31928511e-002
      2.05498599e-002 3.04125412e-003 4.40246193e-003 7.73826707e-003
      1.83835011e-002 6.08448964e-003 2.35784166e-002 9.99309495e-003
      3.32138278e-002 -2.25642766e-003 -3.77788804e-002 -1.18396170e-002
      -8.27801041e-003 5.26345149e-003 -5.52652264e-003 1.80157064e-003
      -4.03302861e-003 9.89845116e-003 1.00214118e-002 -2.04165448e-002
      6.85449736e-003 -9.61172278e-004 2.11273003e-002 1.37373582e-002
      1.24414023e-002 1.93682918e-005 1.69369075e-002 2.63771378e-002
      -4.83589666e-003 -1.11224176e-003 -6.71215123e-003 1.01993941e-002
      4.04372287e-004 -5.45595633e-003 1.35494559e-003 1.99141577e-002
      3.18306759e-002 8.73448607e-003 1.37818847e-002 1.44155754e-003
      2.57560425e-002 2.11419985e-002 9.97958984e-003 9.32583865e-003
      1.76407490e-002 1.99768601e-005 -2.00614557e-002 -1.04292063e-002
      -1.65472664e-002 8.99760332e-003 1.04767559e-002 3.30872880e-003
      -1.16570210e-002 9.57385264e-003 1.30388001e-002 -1.34108495e-003
      1.69152895e-003 5.69801871e-003 3.16937938e-002 1.22685945e-002
      4.27771732e-003 -1.47610446e-002 1.92867555e-002 2.20842194e-002
      4.61667543e-004 -8.89815390e-003 -1.59600768e-002 1.82369612e-002
      4.55626054e-003 3.19976080e-003 -2.26484681e-003 1.12318592e-002
      2.68266592e-002 1.69113092e-002 -1.71266717e-003 -1.79143579e-004
      2.80931797e-002 1.67311856e-003 1.31309098e-002 -1.65117662e-002
      1.30636925e-002 9.33767390e-003 1.00328391e-002 1.72192529e-002
      9.23242979e-003 2.20726747e-002 3.63995018e-003 2.28825002e-003
      -1.70801505e-002 3.18629295e-003 -1.04223443e-002 -9.48356115e-004
      2.25504953e-002 3.16029298e-003 1.10081192e-002 4.16717911e-003
      8.50282703e-003 -1.21508781e-002 -1.27570583e-002 2.12285556e-002
      7.13365106e-003 6.12636702e-003 1.00433715e-002 2.87544448e-002
      6.10266812e-004 9.51226987e-003 -1.13168815e-002 7.05483556e-003
      2.39585130e-003 -8.25674552e-003 1.79338865e-002 1.00013660e-002
      1.99144892e-002 6.58897217e-003 1.59538314e-002 -7.58740911e-003
      1.04063386e-002 2.70514330e-003 -3.64032661e-004 2.17430610e-002
      1.17383925e-002 1.19393440e-002 5.69606898e-003 1.51895033e-002
      -4.71895073e-005 7.89870601e-003 3.52664990e-003 -1.08864214e-002
      8.08707532e-003 6.87816832e-003 8.84969253e-003 5.09626046e-003
      1.82434656e-002 5.28185349e-003 7.92947877e-003 1.23477243e-002
      -6.44674106e-003 1.58775840e-002 7.10469205e-003 1.52969537e-002
      1.39285019e-002 1.53903142e-002 -2.15698572e-004 2.00098809e-002
      2.36161370e-002 -1.05502903e-002 9.77533124e-003 8.68221838e-003
      7.84587022e-003 1.07956650e-002 1.06184883e-003 1.67488190e-003
      1.82746220e-002 2.41999328e-003 -8.53179302e-003 1.33422678e-002
      4.09672270e-003 1.68535346e-003 1.31126051e-003 1.34797487e-002
      1.16312150e-002 3.51526635e-003 9.75066423e-003 -1.55298980e-002
      1.28840772e-003 -2.49104574e-003 1.05101643e-002 6.35330041e-004
      1.04674324e-003 9.25902650e-003 1.75272767e-002 1.63713694e-002
      -1.34601146e-002 9.07504838e-003 8.46697390e-003 4.06787917e-003
      4.86255484e-003 1.77503552e-003 2.18872097e-003 2.55845524e-002
      2.39590444e-002 -2.08808761e-002 -8.36113095e-003 4.26496752e-003
      1.57732032e-002 1.14088645e-002 4.27094102e-003 7.11731380e-003
      2.84942258e-002 2.30236556e-002 -1.07182944e-002 -4.69889445e-003
      -1.54795055e-003 1.29864169e-002 -4.95562935e-003 -8.53945210e-004
      -3.31365038e-003 2.91992426e-002 2.32542455e-002 2.45430972e-003
      6.10647257e-003 1.08491648e-002 6.99375523e-003 -7.85120018e-003
      3.45476111e-003 -1.13818906e-002 2.25867964e-002 2.97852885e-002
      -9.13315266e-003 -3.97956977e-003 9.41531546e-003 1.73841007e-002
      8.12075008e-003 6.95446646e-003 -5.26776479e-004 3.38230133e-002
      2.24515181e-002 1.32743530e-002 6.16562692e-003 1.55346440e-002
      8.20192974e-003 -1.53284920e-002 -8.15591682e-003 -1.60237439e-002
      2.33776607e-002 2.67049274e-003 -2.99981097e-003 4.21619881e-003
      1.80128440e-002 1.86058450e-002 3.18593322e-003 1.55120157e-002
      -6.65661320e-003 2.06069951e-003 1.23989247e-002 6.84848987e-003
      -6.38460461e-003 1.68806911e-002 2.00954322e-002 1.25190811e-002
      1.74234007e-002 1.56108206e-002 6.01994153e-003 1.12771792e-002
      1.01838261e-002 -8.42853077e-003 4.54226101e-004 1.44741954e-002
      -9.53473896e-003 -3.11862375e-003 -1.19507881e-002 3.20151192e-003
      1.98351238e-002 1.15174474e-002 -1.64448358e-002 1.25636498e-003
      1.05406251e-002 -5.47350850e-003 -5.98026163e-005 -4.83309431e-003
      6.94562867e-003 2.47721449e-002 -1.40771624e-002 -2.55499128e-002
      -4.45927307e-002 2.90750787e-002 -1.59675851e-002 -2.27328646e-003
      -7.83538632e-003 1.45453019e-002 2.05161646e-002 -2.25810502e-002
      -3.41075584e-002 -4.12262715e-002 3.04648355e-002 -2.31605954e-002
      -2.16386700e-003 -8.06105789e-003 1.91229526e-002 1.20881936e-002
      -4.29711654e-004 -1.97879900e-003 -3.85186523e-002 2.77589280e-002
      -3.16959210e-002 -1.43895019e-002 -1.07467305e-002 4.58111230e-004
      1.15114832e-002 -9.08891205e-003 4.06729802e-003 -3.01048160e-002
      2.23422348e-002 -3.22475024e-002 2.09410395e-003 -2.14851294e-002
      -2.63720844e-003 1.69039369e-002 -3.05739101e-002 -2.49536000e-002
      -3.03546041e-002 1.21155335e-002 -2.08750591e-002 4.03086329e-003
      -3.33571900e-003 1.94869749e-002 3.16194184e-002 -2.81847101e-002
      -2.53919233e-002 -4.36030813e-002 2.35575554e-003 -3.05904821e-002
      -8.25156178e-003 -1.41774779e-002 3.34270485e-002 8.27732217e-003
      -1.13215186e-002 1.98056409e-003 -2.98841484e-002 2.28473637e-002
      -2.92674676e-002 -3.31113697e-003 -1.95185170e-002
      -2.50794482e-003 2.37503964e-002 -1.58580467e-002 -1.33610377e-002
      -4.89023812e-002 1.38179753e-002 -3.69298235e-002 -9.05521680e-003
      -1.47719122e-002 1.44502353e-002 4.18661460e-002 -5.86633012e-003
      -1.43808862e-002 -3.50244604e-002 -2.34115287e-003
      -4.04715165e-002 -1.27750542e-002 -3.31176585e-003 3.39196473e-002
      6.25632629e-002 5.60592907e-003 -1.24669038e-002 -2.49939337e-002
      7.71904271e-003 -3.22507508e-002 -1.43498098e-002 4.30562673e-003
      5.23941703e-002 9.72175319e-003 -1.98975932e-002 -1.39254332e-002
      -3.90679054e-002 3.86948045e-003 -4.35466729e-002 -2.44377423e-002
      -1.97163094e-002 3.30435042e-003 1.71642341e-002 -1.53828142e-002
      -7.42797833e-003 -2.41673198e-002 2.07659230e-002 -2.80812699e-002
      -1.70969199e-002 -1.32351806e-002 1.85491797e-002 4.75355685e-002
      -1.40822642e-002 -3.98265347e-002 -4.84933257e-002
      -1.18142562e-002 -4.74924110e-002 -3.07491552e-002
      -2.16052756e-002 3.94739248e-002 7.46816173e-002 4.32322128e-003
      -1.07381456e-002 -2.55498122e-002 2.04905123e-002 -8.67198501e-003
      -6.04598830e-003 -3.72613641e-003 5.78059889e-002 9.80446208e-003
      -2.73918863e-002 -3.13213170e-002 -5.58083244e-002
      -9.91015974e-003 -5.45916259e-002 -4.40397523e-002
      -3.92470211e-002 1.45063605e-002 4.71371375e-002 -9.03455075e-003
      -4.49550757e-003 -2.45150607e-002 1.64000075e-002 -2.98020989e-002
      -1.96656995e-002 -2.42156070e-002 3.77491154e-002 4.17187922e-002
      -2.18557063e-002 -1.42487381e-002 -2.27828659e-002 7.16330903e-003
      -2.06822846e-002 -2.30784044e-002 -1.20486291e-002 3.35035510e-002
      4.31709029e-002 -2.35565305e-002 -8.03905260e-003 -1.14861096e-003
      2.89931335e-002 -1.18376333e-002 -8.10963847e-003 -2.96133501e-003
      4.28900160e-002 1.82332918e-002 -2.76433397e-002 -6.65653264e-003
      -2.10395381e-002 1.44719500e-002 -3.04749571e-002 -3.34536582e-002
      -4.22016233e-002 1.47731360e-002 2.44047195e-002 -1.31823886e-002
      5.12629282e-003 1.51132680e-002 5.04814014e-002 -7.26659270e-003
      -2.77288146e-002 -3.41473930e-002 1.33997649e-002 2.58601829e-002
      -2.67368276e-002 -9.45834909e-003 -1.08014932e-002 2.91010793e-002
      -6.62425952e-003 -2.30096863e-003 -1.89708062e-002 1.94510333e-002
      3.82311307e-002 -3.19196805e-002 -1.22204712e-002 -8.58787633e-003
      4.08149622e-002 4.00170777e-003 1.60250475e-003 -1.93123091e-002
      1.82239600e-002 1.59964673e-002 -1.98497791e-002 -9.19791684e-003
      -9.12901305e-004 4.95505445e-002 1.96223985e-003 -1.70322098e-002
      -3.91910374e-002 1.55135145e-004 2.78859008e-002 -1.87301058e-002
      -8.84114858e-003 -1.73497456e-003 5.93564771e-002 2.01610494e-002
      2.95566814e-003 -2.22266950e-002 9.67718847e-003 1.89743917e-002
      -2.79666502e-002 -1.46166850e-002 -1.46732247e-002 2.55296398e-002
      -7.20578060e-003 -4.73861070e-003 -1.57358591e-002 1.29262758e-002
      2.50129811e-002 -1.17786368e-002 1.38412295e-002 2.70117860e-004
      3.61895710e-002 6.25552377e-004 2.53357436e-003 -1.60916895e-002
      1.70947015e-002 1.68745741e-002 -2.18039416e-002 -8.81318748e-003
      -7.81005574e-003 4.10190225e-002 1.23788118e-002 -3.21122352e-003
      -2.19479222e-002 1.14787314e-002 2.06583962e-002 -3.10226413e-003
      9.19457432e-003 5.75987576e-003 4.97467220e-002 7.07512442e-003
      -1.85659400e-003 -2.63746902e-002 1.59080680e-002 6.96547981e-003
      -1.21664610e-002 9.40637290e-003 8.76051281e-003 1.85910482e-002
      -2.83491495e-003 1.21842287e-002 -1.20044667e-002 1.02386670e-002
      2.24559549e-002 4.07830765e-003 1.41252195e-002 1.01842936e-002
      1.48321269e-002 -6.42116088e-003 1.15623819e-002 7.56365305e-004
      2.06024572e-002 5.05864108e-003 -1.15326112e-002 2.07335246e-003
      1.11727361e-002 3.64785828e-002 4.78656730e-003 4.36104881e-003
      -2.35690773e-002 -6.58154662e-004 1.68922469e-002 1.25426073e-002
      9.97032411e-003 9.81384236e-003 2.32315604e-002 2.88782932e-004
      6.21672487e-003 7.17721297e-004 1.22226798e-003 3.71508934e-002
      1.10009182e-002 1.41492691e-002 2.72719190e-003 1.12805720e-002
      4.72562248e-003 -9.31161747e-004 7.36680534e-003 2.48816870e-002
      2.93427370e-002 1.16096903e-003 8.51381943e-003 6.79598935e-003
      1.76273026e-002 2.03105491e-002 1.01559404e-002 1.15171354e-002
      1.98684372e-002 1.27088083e-002 1.28921280e-002 1.67766232e-002
      1.21408619e-003 1.53459460e-002 9.49491933e-003 2.45314790e-003
      4.21304163e-003 6.85738074e-003 8.41772277e-003 -3.15150246e-003
      1.32517249e-003 7.97447748e-003 1.53788514e-002 1.65245011e-002
      3.61154997e-003 -2.45000538e-003 -9.83321224e-004 3.11896186e-002
      6.68379897e-003 -2.02548644e-003 1.78146490e-003 2.00437754e-002
      1.10189030e-002 7.69696245e-003 2.60838959e-003 2.72265021e-002
      3.58645208e-002 4.96949814e-003 -5.87445777e-003 1.67619288e-002
      3.76581810e-002 6.19734917e-003 1.35905773e-003 -1.03570083e-002
      2.10532155e-002 9.42089222e-003 -1.38512338e-002 -1.53313298e-002
      2.53548240e-003 2.00400557e-002 1.09542729e-002 4.09704007e-005
      -4.94433241e-003 1.29908021e-003 2.04688380e-003 -3.02266702e-002
      -1.69306304e-002 8.86737090e-003 3.52221131e-002 1.18854167e-002
      1.70555338e-003 -2.13483926e-002 -2.17180490e-003 2.68025212e-002
      -2.97858356e-003 2.53458577e-003 1.86796021e-002 3.71511132e-002
      5.36919525e-003 8.69925413e-003 -7.95496535e-003 1.34559684e-002
      9.92686488e-003 -9.68572963e-003 6.76774327e-003 1.37387021e-002
      3.15915719e-002 2.18116902e-002 1.57165490e-002 -3.40484222e-003
      2.15765350e-002 -1.28974002e-002 -2.25301478e-002 -8.52959417e-003
      1.61042809e-002 4.10284251e-002 1.79338101e-002 7.21826265e-003
      -2.11743098e-002 -8.47210363e-003 -8.08494107e-004
      -1.19948005e-002 -2.28473614e-003 2.06880346e-002 4.68437299e-002
      3.37264836e-002 1.35880513e-002 -1.74656883e-002 7.34908041e-003
      7.23726349e-003 -9.44838580e-003 6.64955354e-004 -4.24513081e-003
      1.87967103e-002 1.21859415e-002 1.13006877e-002 -1.14327371e-002
      1.27548371e-002 1.33811748e-002 6.69936475e-004 1.00802602e-002
      9.84156132e-003 2.28418782e-002 9.89067461e-003 1.08206114e-002
      5.38509851e-003 6.37057051e-003 4.37737070e-003 -1.47424976e-003
      9.99779790e-004 8.14918336e-003 2.31413748e-002 2.00580191e-002
      9.78678465e-003 -6.29286468e-003 1.59162283e-002 2.23176437e-003
      1.94023158e-002 1.52406888e-002 1.00368522e-002 2.75891311e-002
      2.27539409e-002 1.95428655e-002 3.84046556e-003 1.84032007e-003
      2.80366465e-003 1.93371531e-003 5.51880710e-003 3.01922834e-003
      2.41841190e-002 9.29011789e-004 4.38219681e-003 -9.26761143e-003
      -4.92171291e-003 6.13408815e-003 9.44191648e-004 -1.27917144e-003
      9.64362361e-003 3.59003097e-002 1.62271205e-002 -6.50017848e-003
      -1.99017357e-002 -6.48195809e-003 -1.89509557e-003 1.34635149e-002
      1.42266136e-002 6.37414027e-003 2.71284636e-002 1.21164341e-002
      2.18523815e-002 -2.18065456e-003 -1.41005963e-002 4.48180409e-003
      1.14053488e-002 1.14110308e-002 1.81202609e-002 3.29928249e-002
      1.15035428e-002 7.82849733e-003 -4.02675802e-003 -1.41762160e-002
      8.39470141e-003 -3.31823539e-004 -1.53683231e-003 1.21630896e-002
      2.90092118e-002 2.22507585e-003 -1.00586629e-002 -1.64706670e-002
      4.49470157e-004 1.46586616e-002 3.34709836e-003 -4.19247290e-003
      1.35467593e-002 1.72607936e-002 -1.12898676e-002 -9.69988760e-003
      -1.83666013e-002 7.70913577e-003 1.05179949e-002 1.44907990e-002
      5.88226644e-003 2.54024323e-002 2.97260601e-002 -4.28577978e-003
      1.35816037e-004 -1.17892679e-003 -3.75193311e-004 1.82427019e-002
      1.10605024e-002 -2.46819272e-003 1.11686392e-002 1.58032328e-002
      -6.34548999e-003 -2.96938582e-003 3.29946587e-003 1.29798427e-002
      1.64203513e-002 1.24572283e-002 -7.58601679e-003 -9.08887159e-006
      2.60320995e-002 2.70761270e-003 2.25277548e-003 -5.57230599e-003
      5.06951800e-003 2.91098524e-002 1.54823642e-002 -1.05727734e-002
      -1.12414709e-003 3.20102111e-003 -8.96188524e-003 -3.45848361e-003
      1.67951093e-003 1.69356242e-002 1.74805485e-002 9.39349271e-003
      -5.78385498e-003 1.76077697e-003 1.82513613e-002 2.78588943e-003
      4.90593817e-003 1.83262106e-003 1.17376242e-002 1.51267275e-002
      8.10405519e-003 -6.11818396e-003 3.46458546e-004 -7.03309104e-003
      -1.69936437e-002 2.78518163e-003 1.20600294e-002 1.28229661e-002
      1.28708668e-002 1.66811254e-002 2.09453944e-002 -1.59374569e-002
      1.75017118e-002 -3.96639109e-002 -2.36317981e-002 -8.06117896e-003
      2.62252288e-003 1.56288538e-002 1.82045940e-002 1.97035633e-002
      -2.29561888e-002 1.08193257e-003 -4.32160608e-002 -8.21349770e-003
      -1.43206948e-002 7.67620699e-003 1.15126669e-002 1.33448336e-002
      2.33521312e-002 -2.27504466e-002 1.66893378e-002 -3.56898867e-002
      -6.62982371e-003 -5.96513832e-003 1.96476281e-003 3.20565030e-002
      3.07127722e-002 2.22185850e-002 -1.85377635e-002 5.04734227e-003
      -3.89439315e-002 -9.83851217e-003 -5.91926789e-003 1.73578914e-002
      2.25740690e-002 1.64437927e-002 1.53315691e-002 -1.82915051e-002
      1.23178856e-002 -3.56876478e-002 -2.22032182e-002 -2.45102663e-002
      1.14869196e-002 2.53668707e-002 -8.19791015e-003 -3.79554367e-005
      -4.18382697e-002 2.64818929e-002 -4.02589515e-002 -3.34283747e-002
      -2.32400112e-002 2.35459227e-002 2.32515968e-002 1.25397872e-002
      5.08749764e-003 -2.15560552e-002 5.44964243e-003 -3.61452848e-002
      -2.91948617e-002 -1.59495566e-002 1.55219547e-002 3.21767740e-002
      -1.22340173e-002 -7.19750393e-003 -3.96519490e-002 1.81868505e-002
      -3.76596190e-002 -2.24213116e-002 -1.72910932e-002 2.30217818e-002
      1.51624503e-002 -1.28417639e-002 -4.98998957e-003 -2.79461630e-002
      1.82373282e-002 -2.52795871e-002 -1.72736980e-002 -1.97769776e-002
      1.63779855e-002 1.40917627e-002 -1.21769132e-002 -7.83753814e-004
      -1.68180279e-002 3.09910867e-002 -1.01928227e-002 -2.15236098e-003
      -8.23150575e-003 2.14511286e-002 2.69636158e-002 -1.30640073e-002
      -8.68031941e-003 -3.22379991e-002 2.36572400e-002 -3.28010991e-002
      -1.81839839e-002 -1.51451714e-002 2.33991891e-002 3.03801168e-002
      -5.73724881e-003 6.45188091e-004 -1.78520065e-002 2.40109917e-002
      -1.47204325e-002 -5.73961576e-003 -5.52366429e-004 3.46782990e-002
      5.39841736e-003 -2.86459997e-002 -1.38678653e-002 -3.29469591e-002
      8.32285546e-003 -3.08884066e-002 -3.15801352e-002 -2.73120198e-002
      1.59957819e-002 4.28544730e-002 -6.69628498e-004 8.36214982e-003
      -1.01905623e-002 2.43895985e-002 -1.39691681e-002 -1.24210911e-002
      -4.34913998e-003 4.76875342e-002 6.47441298e-003 -2.46413667e-002
      -1.51655152e-002 -2.21624058e-002 8.95034429e-003 -2.64621377e-002
      -2.46179830e-002 -2.28630453e-002 2.15501599e-002 4.08303700e-002
      -4.75326041e-003 -2.23293691e-003 2.65202671e-003 3.95605750e-002
      -9.02409945e-003 4.74572740e-003 2.25416338e-003 4.80320007e-002
      3.30241658e-002 -8.99794698e-003 6.09974284e-003 -8.90974514e-003
      1.62430592e-002 -2.78142858e-002 -2.10875887e-002 -3.89102437e-002
      2.32085641e-002 3.23309489e-002 -1.23947568e-004 1.49422074e-002
      2.50833631e-002 4.53982316e-002 5.14499797e-003 -1.59449298e-002
      -3.90310325e-002 6.07658643e-003 3.07117756e-002 -1.11678923e-002
      -7.76863424e-003 -1.78400166e-002 1.03588914e-002 -3.08729392e-002
      -1.41450530e-002 -2.74264459e-002 1.40409190e-002 3.00443340e-002
      5.57074975e-003 1.46237789e-002 3.40054557e-003 2.79704463e-002
      -1.36435535e-002 -1.58269536e-002 -3.22108641e-002 8.46008956e-003
      1.54271899e-002 -1.05008772e-002 2.38248220e-004 1.14325911e-003
      4.09489423e-002 -7.64386903e-004 -1.48512572e-002 -4.89546284e-002
      -1.50672095e-002 4.36502248e-002 5.59610222e-003 5.19890152e-003
      7.75299361e-003 5.76132238e-002 1.40397605e-002 -3.54540977e-003
      -2.30976138e-002 3.61541496e-003 1.51510490e-002 3.30765825e-003
      6.10810472e-003 -4.71871020e-003 2.62370538e-002 -1.06901024e-002
      -1.92634072e-002 -4.72597145e-002 -1.07211145e-002 3.50710303e-002
      1.78699456e-002 9.98570863e-003 5.16047422e-003 3.82994562e-002
      2.82598994e-005 -1.08475462e-002 -4.56151031e-002 6.40197657e-003
      3.59082483e-002 -9.32423584e-003 -1.58207235e-003 -2.25244882e-003
      3.99657637e-002 6.86932588e-003 -4.11256624e-004 -1.45720346e-002
      1.20063853e-002 2.34952848e-002 -3.90228163e-003 6.21476490e-003
      9.10540670e-003 4.10088487e-002 1.60045028e-002 1.57613438e-002
      -1.87048204e-002 9.31167696e-003 1.40714468e-002 -6.35301520e-004
      1.83512911e-003 -5.09956153e-003 1.70900524e-002 -1.57824606e-002
      -1.33325448e-002 -4.31208163e-002 2.49940949e-003 1.27535462e-002
      -8.36526137e-003 1.34316192e-003 4.80774883e-003 2.09456515e-002
      4.13582381e-003 7.85208028e-003 -1.77398529e-002 2.69104633e-003
      2.41904613e-002 -4.64682095e-003 6.43428834e-003 7.10336631e-003
      4.27861437e-002 1.68646127e-002 1.35962786e-002 -1.53753068e-002
      1.70043148e-002 2.90333517e-002 1.50125399e-002 1.17841049e-003
      5.76339988e-003 2.38677058e-002 7.83033017e-003 1.35162892e-002
      2.57144566e-003 2.23668218e-002 1.65451933e-002 -1.37065705e-002
      3.52108479e-003 6.07622147e-004 1.99246909e-002 1.23178167e-002
      1.76601131e-002 -7.63776572e-003 7.02116732e-003 1.48583008e-002
      -1.25656324e-002 -6.18662871e-003 -3.48092476e-003 1.19496249e-002
      3.38867726e-003 1.30475862e-002 -9.61857289e-003 1.00656599e-002
      2.58073490e-002 1.49049275e-002 8.70171655e-003 6.72906591e-003
      1.78041030e-002 1.03788571e-002 6.08089985e-003 1.80214841e-003
      1.92670077e-002 7.36823352e-003 -3.88354994e-004 1.06484536e-002
      1.60501134e-002 2.26552878e-002 1.15394611e-002 9.13519505e-003
      -7.08240783e-003 1.16346190e-002 1.68190338e-002 -8.04661121e-003
      -7.39500066e-003 -5.45659522e-003 1.46928187e-002 -2.87131057e-003
      4.00248216e-003 -1.43005950e-002 2.43635755e-002 8.02235585e-003
      -5.09810913e-003 1.07840458e-002 1.77093055e-002 2.89854761e-002
      1.04028136e-002 5.69602149e-003 -2.06135865e-002 7.30606401e-003
      -9.89483669e-003 -2.26228759e-002 -8.79024621e-003 5.52845839e-003
      2.50364654e-002 1.48733361e-002 5.88723505e-003 -1.41111901e-002
      -2.97081284e-003 -6.54150127e-003 -2.65201349e-002
      -8.90623592e-003 1.63218137e-002 3.89280058e-002 2.69913338e-002
      1.96264777e-002 -7.15896813e-003 -3.19490698e-003 4.00034804e-003
      -2.45426204e-002 2.71093962e-003 1.16171772e-002 2.50770599e-002
      1.28257563e-002 -6.18800428e-003 -2.48916149e-002 4.15162649e-003
      8.99775513e-003 -6.95929863e-003 1.18393376e-002 1.61931925e-002
      2.99468543e-002 3.10140569e-002 1.17071718e-002 -6.43329509e-003
      8.56672507e-003 -1.72618274e-002 -2.30624899e-002 -1.51119810e-002
      5.23098698e-003 3.46982665e-002 2.54756343e-002 1.61259938e-002
      -1.87656693e-002 -2.03216914e-002 1.40152033e-002 5.88898221e-003
      -5.82058588e-003 -2.34514056e-003 3.02924681e-002 2.22607441e-002
      9.47896112e-003 -1.70265511e-002 8.68660212e-003 2.28541456e-002
      2.38711340e-003 -3.85387964e-003 -2.42636725e-003 2.74401475e-002
      2.35606376e-002 1.54348668e-002 -9.76288877e-003 2.78926687e-003
      3.80077139e-002 2.48812307e-002 -6.34984579e-003 -9.92766116e-003
      2.07247827e-002 2.58909483e-002 1.67905260e-002 -2.45120702e-003
      2.13827789e-002 2.73451842e-002 -1.52664131e-003 -9.08589736e-003
      -7.19963806e-003 1.03016943e-002 1.76888406e-002 3.84255475e-003
      -7.86518492e-003 1.27228713e-002 1.63294747e-002 3.04407929e-003
      1.07962685e-002 -1.10977955e-004 8.38523265e-003 1.58694498e-002
      1.05199609e-002 -1.15941186e-002 -2.29960773e-003 3.66456062e-002
      1.73271969e-002 -2.98243971e-003 -1.24432109e-002 3.24774836e-003
      1.17186084e-002 -3.62898863e-004 -2.18879920e-003 1.96251068e-002
      2.91212369e-002 1.30677680e-002 2.00754292e-002 2.03026459e-003
      -2.19922606e-003 -5.01115434e-003 4.39313008e-003 -1.43409679e-005
      1.21408245e-002 6.79165218e-003 3.65845719e-003 1.56137915e-002
      -1.45882880e-003 2.64155259e-003 3.82955023e-003 1.30504761e-002
      -9.87414084e-003 -5.17007802e-003 2.01945342e-002 -3.65610397e-003
      1.93856342e-003 1.01938462e-002 1.30156456e-002 -3.44901608e-004
      5.76416962e-003 -2.70990538e-003 6.66205911e-003 2.08019130e-002
      5.86654013e-003 1.20210564e-002 1.18018175e-002 -8.13970901e-003
      -1.47030707e-002 9.36962292e-003 1.21590900e-004 1.86040681e-002
      2.94886194e-002 -4.39779414e-003 1.82299048e-003 1.82361584e-002
      8.74993950e-003 -7.07226107e-003 3.77671956e-003 -8.61011539e-003
      1.24856960e-002 2.57044844e-002 4.10531042e-003 3.19342315e-003
      1.68340169e-002 2.24485956e-002 -6.56839227e-003 7.01552397e-003
      1.29277213e-002 1.84027422e-002 2.56861914e-002 1.36592565e-002
      -8.71918537e-003 2.36761058e-004 -6.65309606e-003 -2.60750875e-002
      3.84549610e-003 1.78427137e-002 2.33869348e-002 3.09505835e-002
      -1.43607222e-002 -6.22603018e-003 1.23389764e-002 1.21685546e-002
      -2.05726619e-003 3.00593418e-003 5.49103087e-003 2.63417978e-002
      1.69799794e-002 -1.76567268e-002 -2.15813927e-002 -1.54381404e-002
      -7.08685536e-003 -2.38186121e-002 5.21276961e-004 1.39164124e-002
      1.29045760e-002 2.45856699e-002 1.72687229e-002 6.37783948e-003
      -6.81360438e-003 -2.33461219e-003 -1.22241713e-002 1.06329313e-002
      1.26886507e-002 2.15394907e-002 2.44743545e-002 1.44253708e-002
      1.16744870e-003 -4.39704861e-003 -7.00318953e-003 -1.07362680e-002
      1.01526137e-002 1.31703699e-002 2.06364468e-002 1.64060015e-002
      9.92331421e-004 -8.95116013e-003 -1.38556017e-002 -2.42366665e-003
      -1.99080613e-002 8.95664468e-003 1.09961815e-002 1.27989724e-002
      1.67630501e-002 3.22702946e-003 -4.38762596e-003 -4.09553712e-003
      1.10426908e-002 -4.80382331e-003 1.58470199e-002 1.41788572e-002
      1.83266979e-002 1.83895417e-003 6.47666119e-003 1.75322797e-002
      -2.11952552e-002 3.67161212e-003 -3.70930471e-002 5.77166677e-004
      -6.66604191e-003 -1.51710806e-003 1.66777503e-002 2.08178926e-002
      1.17959799e-002 -1.85646582e-002 -4.64402791e-003 -2.94744242e-002
      -9.77554545e-003 -1.36215647e-003 7.55382003e-003 -6.42582960e-003
      4.74872673e-003 1.13424538e-002 -1.74770746e-002 1.79434028e-002
      -3.46384980e-002 6.77952031e-003 1.12692127e-004 -3.55690648e-003
      7.65117677e-003 2.51340829e-002 2.10052766e-002 -1.12320231e-002
      2.51567410e-003 -3.06627918e-002 -5.97008457e-003 -8.31358973e-003
      -3.74881667e-004 1.28981471e-002 1.73333697e-002 -1.75832270e-003
      -2.58218162e-002 2.41522212e-003 -3.38865966e-002 -2.32782401e-002
      -1.51612358e-002 6.12943841e-004 2.65981294e-002 5.79772098e-003
      3.98732862e-003 -2.42956597e-002 8.63938592e-003 -3.55083607e-002
      -2.89444681e-002 -1.75710842e-002 9.72886477e-003 1.21909762e-002
      2.33544894e-002 1.11222593e-002 -1.65612884e-002 4.44094185e-003
      -2.87531316e-002 -1.34097040e-002 -1.18394736e-002
      -1.32480878e-002 1.53876459e-002 2.05376260e-002 1.02837533e-002
      -2.35247798e-002 3.15680057e-002 -2.71136947e-002 -1.44254547e-002
      -2.31440533e-002 7.61591922e-003 2.17113681e-002 1.85398443e-003
      7.06123246e-004 -2.32862327e-002 2.04408336e-002 -3.62483524e-002
      -2.76628491e-002 -2.52675097e-002 5.52591588e-003 3.04101724e-002
      8.70234519e-003 8.06979649e-003 -1.76090542e-002 2.41350252e-002
      -2.95019150e-002 -1.32664805e-002 -1.30433030e-002 1.56683326e-002
      2.17930321e-003 9.24708322e-003 1.03326021e-002 -1.76025908e-002
      3.65064666e-002 -2.00298652e-002 -8.70266836e-003 -1.98383369e-002
      -5.41371852e-003 1.35353273e-002 2.00481806e-002 2.52566002e-002
      9.42108221e-003 3.49739678e-002 -7.20535265e-003 -1.63677579e-003
      -1.68188829e-002 5.82256215e-003 1.35029927e-002 -1.62167251e-002
      -1.99458282e-002 -2.98550893e-002 1.07845310e-002 -2.18877103e-002
      -2.18056794e-002 -1.92871578e-002 2.32301336e-002 3.15872617e-002
      -1.47836423e-002 -1.36664473e-002 -9.00592655e-003 4.26175818e-002
      2.73547950e-003 5.63097000e-003 -3.64994886e-003 3.56609561e-002
      1.05939861e-002 -4.14119055e-003 -1.86937512e-003 -1.40568670e-002
      1.59836709e-002 -2.48611011e-002 -2.08632872e-002 -2.30386890e-002
      -1.38706033e-004 2.23835725e-002 3.28525063e-003 4.72846627e-003
      -2.93688197e-003 3.86039726e-002 3.77721922e-003 -6.02259254e-003
      -2.88082231e-002 1.36670396e-002 1.95194054e-002 -2.37446222e-002
      -1.96343232e-002 -1.94721557e-002 3.00115049e-002 -1.75546501e-002
      -1.55446297e-002 -3.81012298e-002 5.33624273e-003 2.70938668e-002
      7.71074416e-003 4.95880656e-003 -6.19054446e-003 3.29380222e-002
      -2.48274347e-003 -7.86688644e-003 -3.49075235e-002
      -5.59335225e-004 1.10601280e-002 -1.98693760e-002 -1.92093290e-002
      -1.48973400e-002 2.82760803e-002 4.24265722e-003 -1.50254555e-002
      -4.58983891e-002 -1.07912039e-002 3.09431888e-002 -1.13189081e-003
      1.96062867e-003 6.54826406e-003 4.25821282e-002 2.06011087e-002
      -2.54673790e-003 -2.63239108e-002 -1.37332256e-003 2.34607663e-002
      7.27837021e-003 3.17696176e-005 -5.31668728e-003 1.59630589e-002
      -3.47220269e-003 -6.98402850e-003 -4.22604196e-002
      -1.47471875e-002 2.32529212e-002 9.54659749e-003 1.10510727e-002
      8.48612096e-003 2.55385768e-002 7.92539865e-003 -9.72390175e-003
      -3.69939357e-002 -5.45920222e-004 2.94276532e-002 -3.54955578e-003
      -5.82871027e-003 -2.52610724e-003 1.38296699e-002 2.30963587e-006
      -9.91280773e-004 -2.96394732e-002 -6.77792705e-004 3.47706079e-002
      5.34686306e-003 -5.71633503e-003 2.07956834e-003 1.48120038e-002
      5.08410065e-003 -6.74400339e-003 -3.18655260e-002 8.09629075e-003
      2.04019379e-002 -7.95826036e-003 8.87113437e-003 7.25590810e-003
      2.86510773e-002 7.58959970e-004 -1.25107598e-002 -4.20895144e-002
      2.15530046e-003 2.98132449e-002 -6.02146843e-003 1.56246033e-002
      1.19223716e-002 2.65715774e-002 1.13201607e-002 9.47421696e-003
      -2.01993771e-002 8.96080455e-004 2.92148776e-002 -9.23361536e-003
      9.19331214e-004 -6.73660496e-003 2.01856028e-002 3.07586137e-003
      -1.04378751e-002 -3.51152085e-002 3.34445923e-003 3.47847529e-002
      2.25060503e-003 1.05461776e-002 -1.98310916e-003 2.31632143e-002
      1.12223327e-002 -1.17642311e-002 -4.02529053e-002 1.17059983e-002
      2.21095681e-002 -1.77142862e-002 -4.90130857e-003 6.33639167e-004
      2.10335609e-002 1.23497359e-002 1.03385551e-002 -1.23039838e-002
      -1.26726106e-002 1.95723791e-002 -2.02824529e-002 -7.78329512e-003
      2.92003620e-003 2.94931196e-002 9.30829346e-003 7.79393874e-003
      -1.36499247e-002 -6.49428507e-003 2.86430102e-002 -7.61769665e-003
      -5.58985863e-003 -1.62638794e-003 3.63692790e-002 1.49851283e-002
      -4.99285245e-003 -3.24402750e-002 -1.69324188e-003 3.23017314e-002
      1.10068591e-003 7.29384599e-003 1.53950471e-002 2.99570430e-002
      8.85923486e-003 -2.00887839e-003 -2.67945789e-002 -3.10103456e-003
      2.07832828e-002 -1.81538519e-002 -1.42321391e-002 -1.22678829e-002
      2.42052749e-002 9.74373054e-003 7.55603099e-003 -1.47209400e-002
      3.60511709e-003 1.24651138e-002 -8.41440167e-003 -6.48511387e-003
      3.34418903e-004 2.04657242e-002 2.43043955e-002 1.38539942e-002
      -1.74691621e-002 -9.20915278e-004 2.27349401e-002 -1.74104888e-003
      1.89858966e-003 2.53602164e-003 1.33908615e-002 6.38463441e-003
      -3.73962196e-003 -2.36484092e-002 -4.83498070e-003 3.22404765e-002
      -6.04351377e-003 -1.20698707e-002 2.80296314e-003 1.53659629e-002
      1.45986937e-002 6.81086862e-003 -2.40999609e-002 1.28201898e-002
      8.38536117e-003 -1.04756104e-002 -2.19645328e-003 9.02526733e-003
      1.72507484e-002 1.74329448e-002 2.96795228e-003 -2.70114243e-002
      -4.35601454e-003 2.23993380e-002 -4.43889806e-003 -2.52669590e-004
      1.59439668e-002 2.50744391e-002 2.02942118e-002 5.42763574e-003
      -7.57953105e-003 5.83936600e-003 2.04587840e-002 -1.90235749e-002
      -1.81773454e-002 -1.03245378e-002 9.11078230e-003 -7.15570408e-004
      -3.27748712e-003 -3.07782162e-002 -2.24208832e-003 2.72292234e-002
      -7.60285603e-003 2.03335332e-003 1.10640321e-002 3.46501619e-002
      1.45649556e-002 1.06352633e-002 -1.04986783e-002 1.00331074e-002
      2.76004933e-002 9.07666609e-003 -2.06846744e-003 -1.63049623e-003
      2.45077889e-002 1.36968298e-002 6.17965125e-003 -8.18421599e-003
      7.36231124e-003 4.25880216e-002 2.44882721e-002 1.96005031e-003
      -3.69651918e-003 1.43646132e-002 2.52681952e-002 1.51570933e-002
      4.50994354e-003 1.98496897e-002 1.74969118e-002 -6.92704180e-003
      2.43423483e-003 9.10008443e-004 2.73661967e-002 1.51181752e-002
      1.26569737e-002 -5.86725352e-003 2.99851643e-003 1.94334295e-002
      1.73761696e-002 1.19636329e-002 4.68100916e-004 2.82091741e-002
      1.66894812e-002 1.23713100e-002 -1.89946545e-003 2.34639551e-003
      4.15298752e-002 1.86454542e-002 8.47448409e-003 -2.79674190e-003
      5.52690960e-003 1.67187080e-002 1.67683773e-002 3.46925738e-003
      2.58803293e-002 4.15974893e-002 2.73872502e-002 3.54347453e-002
      7.64472969e-003 4.57258466e-005 -6.17555866e-004 1.59365740e-002
      3.79759702e-003 3.53788435e-002 8.19922797e-003 1.93578238e-003
      9.78055410e-003 -3.09977937e-003 1.91852339e-002 1.09270485e-002
      1.99355371e-002 4.23367508e-003 1.11367728e-003 3.42388381e-003
      9.36393347e-003 2.47966498e-002 -3.33119975e-003 4.18112287e-003
      -7.28822174e-003 1.72769520e-002 2.74959602e-003 4.13478073e-003
      3.79203372e-002 2.30114423e-002 1.88728273e-002 1.29210837e-002
      2.13384721e-003 -1.12523306e-002 1.56264156e-002 8.16281419e-003
      3.93829346e-002 3.62704098e-002 1.07540120e-003 7.57653918e-003
      2.37583723e-002 9.80991218e-003 -3.27953673e-003 1.89645961e-002
      1.20029133e-002 3.88005450e-002 8.01859237e-003 7.12482212e-003
      1.36306649e-002 7.46735325e-003 1.36561431e-002 -1.10856481e-002
      1.07051032e-002 -8.04437697e-003 9.01842955e-003 1.84548292e-002
      -1.11958086e-002 5.13121998e-003 1.51258623e-002 6.99390750e-003
      -1.28613720e-002 1.34830615e-002 -3.57669254e-004 1.72069538e-002
      2.71747056e-002 -1.60201900e-002 4.83763544e-003 1.95909869e-002
      1.60889048e-002 4.19917051e-003 1.87970642e-002 1.93471294e-002
      3.20772231e-002 1.03251478e-002 -2.31210273e-002 -1.29925031e-002
      -4.41870373e-003 6.92513026e-003 -6.67837681e-003 8.01635347e-003
      1.97067149e-002 1.91086065e-002 1.99294612e-002 -9.89504810e-003
      1.92240695e-003 1.02436244e-002 1.43059473e-002 -1.05578871e-002
      1.86617058e-002 2.25614384e-002 2.19071116e-002 2.15323362e-002
      1.49177518e-004 -5.72721753e-003 9.38501302e-003 9.70333628e-003
      -1.80504774e-003 3.05704167e-003 1.55767454e-002 9.89284646e-003
      1.46499462e-002 -7.82076176e-003 -1.19526843e-002 -1.15338340e-002
      1.29568018e-002 -1.08833546e-002 6.02960913e-003 4.61307634e-003
      1.37712406e-002 1.62982792e-002 -5.46794012e-003 -1.79413408e-002
      -5.62468544e-003 1.78570580e-002 -9.62500868e-004 1.92761216e-002
      1.00008156e-002 1.75383203e-002 2.83494201e-002 9.53849033e-003
      -6.09098095e-003 -8.25442781e-004 9.31136403e-003 -1.07692722e-002
      -1.57535099e-003 -8.40299879e-004 1.27256028e-002 1.60976816e-002
      7.41964206e-004 -6.25981065e-003 -8.58682673e-004 9.95901786e-003
      -7.72807514e-003 1.09060416e-002 1.28941033e-002 2.69657355e-002
      -5.51440194e-003 2.75163935e-003 8.25728383e-003 -1.27253635e-002
      2.61872429e-002 -3.41316499e-002 4.29240987e-003 9.80705861e-003
      8.73654708e-003 7.72155216e-003 1.24818869e-002 9.06587858e-003
      -1.05564427e-002 1.30685186e-002 -2.97251996e-002 -4.03564796e-003
      9.92934406e-003 2.02823803e-003 5.12915337e-003 8.74025188e-003
      1.35110365e-002 -1.33312056e-002 1.74610354e-002 -3.22968177e-002
      1.84173312e-003 2.67669023e-003 2.14778609e-003 1.04113901e-002
      1.05459690e-002 1.37603385e-002 -1.11215534e-002 -1.17282354e-004
      -3.69695798e-002 -1.71493995e-003 -2.08625756e-003 9.59907006e-003
      4.95755440e-003 1.95635818e-002 1.69290751e-002 -1.17055392e-002
      7.90803507e-003 -1.87203512e-002 -1.14633853e-003 2.54043657e-003
      -4.10713209e-003 9.97462496e-003 1.52399344e-002 2.48905085e-002
      -1.99088771e-002 4.50364649e-002 -1.85331237e-002 2.86368863e-003
      2.59825657e-003 1.32992910e-003 1.87500194e-003 -6.93699985e-004
      1.55688524e-002 -8.29501823e-003 1.03127230e-002 -3.06631159e-002
      1.02008516e-002 1.08899940e-002 6.02334132e-003 1.11450243e-003
      9.85248014e-003 1.57376770e-002 -1.89552139e-002 3.55317444e-002
      -1.31809730e-002 1.66819450e-002 6.87597878e-003 -4.64514503e-003
      -1.42649037e-003 5.45516983e-003 1.27303749e-002 -1.17675913e-002
      4.04796489e-002 -1.89815294e-002 -1.42606010e-003 -4.21999535e-003
      -1.14081129e-002 1.21983783e-002 1.30883930e-002 1.55572221e-002
      1.53832342e-002 4.39798646e-002 -5.18391142e-004 5.26266545e-003
      -1.11092385e-002 -4.16966714e-003 -7.41352746e-003 7.16475956e-003
      1.35980481e-002 -1.69285499e-002 4.60824296e-002 -1.77643262e-002
      6.77290047e-003 -5.95164672e-003 -1.63884349e-002 5.66681148e-004
      1.03476616e-002 7.24267308e-003 8.70280620e-003 4.17252369e-002
      -1.05517106e-002 7.83879962e-003 -1.29007744e-002 -4.17455425e-003
      9.10385419e-003 4.36485000e-003 -2.73036119e-003 -8.42195528e-004
      2.77430974e-002 -1.68857463e-002 -2.42914371e-002 -2.91645136e-002
      -1.90450214e-002 2.54319087e-002 9.29284748e-003 1.55320819e-002
      -3.21805780e-003 5.11171743e-002 5.11632301e-003 -1.71080057e-003
      -1.62137263e-002 2.10552406e-003 -6.87490776e-003 1.24016457e-004
      -8.95580743e-003 -2.54782313e-003 1.63037516e-002 -2.70618144e-002
      -1.83153916e-002 -2.60161124e-002 -1.01865707e-002 2.31494587e-002
      1.15764486e-002 4.02279710e-003 5.35166403e-003 3.74119580e-002
      -8.35453160e-003 -3.53023456e-003 -1.20304637e-002 5.83131332e-003
      2.39196122e-002 -1.19129266e-003 -4.62797208e-004 -1.38038155e-002
      2.27151997e-002 9.51911137e-003 4.40664589e-003 -2.84515582e-002
      -7.44861271e-003 3.51618044e-002 1.64608695e-002 1.94697920e-002
      4.65478888e-003 3.63226086e-002 2.15499178e-002 1.17307389e-002
      -8.53691995e-003 4.37745638e-003 6.00772584e-003 -8.53153411e-003
      -1.48221320e-002 -1.63663477e-002 2.51075905e-003 -2.38808077e-002
      -1.34702176e-002 -2.35038269e-002 -2.04650443e-002 1.23696763e-003
      -5.20557072e-003 6.16161898e-003 -1.05666313e-002 1.75613835e-002
      3.61062470e-003 4.37618047e-003 -1.48681682e-002 -1.36325257e-002
      3.12809236e-002 1.05927950e-002 1.05639901e-002 -4.50267736e-003
      1.54663259e-002 1.18499796e-003 9.66798607e-003 -9.46469139e-003
      6.44463580e-003 2.65572537e-002 6.98203174e-003 8.00015405e-003
      -6.42566476e-004 1.94252208e-002 9.67208575e-003 1.74691472e-002
      3.64396558e-003 1.02300663e-002 1.60069612e-003 -4.35215747e-003
      5.71591500e-003 -1.78805068e-002 2.86224065e-003 -1.59479454e-002
      -1.53289607e-003 -1.32653685e-002 -9.77026764e-003 5.07593900e-003
      -6.25522481e-003 1.07349921e-002 -1.04174418e-002 3.82402679e-004
      -1.25075076e-002 -4.93216794e-003 -3.95149778e-004
      -1.36658829e-003 3.16691920e-002 -2.38150847e-003 6.57575019e-003
      -5.43960696e-003 1.85994469e-002 3.15156789e-003 6.11313013e-003
      -5.29560819e-003 1.47973355e-002 4.62337844e-002 1.19269481e-002
      9.81205143e-003 -7.76161393e-003 2.83699278e-002 1.00818481e-002
      -5.03495976e-004 -1.14555676e-002 2.13451535e-002 6.43254584e-003
      -1.13591943e-002 -5.88188472e-004 -1.66662764e-002 4.14617872e-003
      -1.17779681e-002 -1.40443901e-002 -1.04498304e-002 8.21451191e-003
      1.37307215e-002 -3.92551394e-003 -7.42866017e-004 -2.13199351e-002
      9.42061935e-003 -5.23919472e-004 -2.54057278e-003 -8.39949399e-003
      1.46991666e-002 3.81929688e-002 4.63867467e-003 5.34557318e-003
      -1.56446511e-003 2.60158088e-002 5.13295224e-003 -1.13719981e-003
      -2.16205847e-002 1.30723286e-002 3.33199203e-002 1.47172697e-002
      1.82432812e-002 4.94368933e-003 2.97247563e-002 2.40594079e-003
      3.17780417e-003 -1.24970153e-002 9.86541901e-003 5.18540619e-003
      -1.69071779e-002 -1.32065592e-002 -1.87259801e-002 1.96787785e-003
      -7.03166053e-003 1.53780414e-003 -9.97952558e-003 7.18021533e-003
      2.47862958e-003 -9.31858830e-003 -9.35426448e-003 -1.49250934e-002
      7.65891466e-003 -2.46337764e-002 5.27889701e-003 -5.83040016e-003
      1.10642193e-002 2.17546877e-002 1.41133191e-002 8.08222219e-003
      4.41715494e-003 2.20193192e-002 -4.11058357e-003 1.36850774e-003
      -9.48050711e-003 1.67144497e-003 2.65104361e-002 -5.44679677e-003
      -1.00111053e-003 -1.82515301e-003 2.45853588e-002 3.81686934e-003
      1.61642283e-002 -3.63931945e-003 2.37886962e-002 5.94044570e-003
      -1.30828181e-002 -6.33879239e-003 -9.80543811e-003 1.51212933e-002
      -1.93739664e-002 2.21659619e-007 -7.09826313e-003 6.95811398e-003
      2.37902459e-002 -1.23353684e-002 -5.22510288e-003 -1.17297266e-002
      1.65228005e-002 -2.12901650e-004 1.68255493e-002 1.67661393e-003
      1.85485817e-002 1.45165287e-002 -1.50725925e-002 -6.50173146e-003
      -6.14601979e-003 6.06549438e-003 -6.25597313e-003 1.17007624e-002
      -1.19520482e-002 1.40663199e-002 2.12295447e-002 8.96646921e-003
      1.81931481e-002 1.82393529e-002 3.21647450e-002 1.67833716e-002
      1.68517325e-002 -1.20980013e-002 2.54923711e-003 1.76230129e-002
      -8.49390496e-003 2.06872541e-003 -1.72722246e-002 1.92601711e-003
      2.49452796e-003 1.77475587e-002 4.67786193e-003 2.46358942e-002
      3.12059969e-002 2.03672983e-002 1.77645758e-002 4.63183969e-003
      2.61087399e-002 2.52401233e-002 1.24115273e-002 6.48954790e-003
      2.82520633e-002 1.43874669e-002 5.53389173e-003 9.26502421e-003
      1.45221129e-003 2.48730835e-002 9.36819892e-003 1.33454883e-002
      -6.27350155e-003 -1.65971997e-003 1.53298285e-002 1.79944895e-002
      1.91581566e-002 2.89242715e-003 2.21435912e-002 3.61729297e-003
      2.50037536e-002 1.44190183e-002 1.00610778e-002 2.65755579e-002
      2.48201303e-002 9.43831820e-003 -1.21946847e-002 6.14914019e-003
      4.54829587e-003 6.64794212e-003 1.38147883e-002 1.93929188e-002
      2.21031532e-002 1.09466938e-002 1.46752307e-002 2.89820996e-003
      5.75450948e-003 2.91166804e-003 2.13514026e-002 3.25580239e-002
      2.47540958e-002 6.06500590e-003 7.35189440e-003 1.45878345e-002
      1.95938256e-003 1.90917775e-002 5.23725757e-003 3.09259724e-002
      1.82943940e-002 1.28995078e-002 -2.33275059e-004 7.47956755e-003
      1.59294028e-002 -1.17477879e-003 1.00414706e-002 3.73818865e-003
      3.07793804e-002 2.56291032e-002 1.96642727e-002 1.15323355e-002
      1.68560678e-003 7.84846302e-003 2.41122115e-003 4.12437403e-005
      3.09449807e-003 2.54966617e-002 2.86511648e-002 2.37907339e-002
      6.16387697e-003 4.88327350e-003 7.23711401e-003 -6.38920255e-003
      -3.51910392e-004 1.05493097e-002 3.08744963e-002 2.74554919e-002
      1.16265910e-002 -1.41997496e-003 -5.34365536e-004 1.46700321e-002
      7.38290558e-003 1.46542434e-002 -1.87925040e-003 1.61990765e-002
      5.60041424e-003 1.14577534e-002 9.27527342e-003 -5.12871193e-003
      8.23603757e-003 8.62374529e-003 1.62594467e-002 -8.02660920e-003
      4.48108930e-003 1.59087393e-003 1.57002974e-002 9.82764829e-003
      1.04267942e-002 6.82100514e-003 -4.08961764e-003 1.47067476e-002
      -1.15282647e-003 2.33904682e-002 1.33798700e-002 1.35401124e-002
      1.55173512e-002 3.90825281e-003 -1.14665786e-003 -5.12711471e-003
      8.76903906e-003 -1.24825388e-002 1.75547916e-002 6.80257101e-003
      1.93815976e-002 1.93094034e-002 2.40975176e-003 -1.46720745e-003
      -2.54106126e-003 -3.59322946e-003 -2.26699319e-002 2.12397357e-003
      1.39326537e-002 1.33028198e-002 2.54472625e-002 8.21541995e-003
      -1.07469819e-002 1.03437565e-002 8.33772216e-003 -1.86017342e-002
      -2.24432582e-003 1.13801388e-002 1.26572056e-002 2.24782359e-002
      6.71394821e-003 -5.20004937e-003 -1.18308328e-002 2.14174832e-003
      -1.14802988e-002 1.08645083e-002 1.21812187e-002 2.51347590e-002
      2.60482430e-002 1.04656965e-002 -1.05054956e-002 -3.55655956e-003
      2.25330517e-003 -2.12567728e-002 -1.26319611e-003 1.34140030e-002
      2.16305032e-002 1.93255618e-002 3.15043097e-003 -1.26743270e-002
      -2.01697648e-003 4.58323397e-003 -1.74030047e-002 -4.66758851e-003
      4.60885465e-003 1.32476492e-002 2.18871925e-002 1.57711236e-003
      2.39284988e-003 -3.70650087e-003 7.98568944e-004 -1.49468277e-002
      5.41478815e-003 1.89268459e-002 3.47917005e-002 2.03315094e-002
      2.35068984e-003 -4.91209840e-003 -2.92348745e-003 -9.37176682e-003
      -2.74842530e-002 -9.65434592e-003 9.03151557e-003 2.17100475e-002
      2.69973334e-002 5.30641386e-003 4.23138728e-003 -9.84036177e-003
      -6.56866981e-003 -9.73387342e-003 6.09376887e-003 1.83996093e-002
      3.26218009e-002</_></support_vectors>
  <decision_functions>
    <_>
      <sv_count>1</sv_count>
      <rho>2.8726013490986104e+000</rho>
      <alpha>
        1.</alpha>
      <index>
        0</index></_></decision_functions></my_svm>
</opencv_storage>
