<?xml version="1.0"?>
<opencv_storage>
<my_svm type_id="opencv-ml-svm">
  <svm_type>C_SVC</svm_type>
  <kernel><type>LINEAR</type></kernel>
  <C>1.0000000000000000e-002</C>
  <term_criteria><epsilon>1.1920928955078125e-007</epsilon>
    <iterations>2000</iterations></term_criteria>
  <var_all>3780</var_all>
  <var_count>3780</var_count>
  <class_count>2</class_count>
  <class_labels type_id="opencv-matrix">
    <rows>1</rows>
    <cols>2</cols>
    <dt>i</dt>
    <data>
      -1 1</data></class_labels>
  <sv_total>1</sv_total>
  <support_vectors>
    <_>
      4.02218429e-003 -6.31887466e-003 -6.60847453e-003 -1.14393011e-002
      -7.71322800e-003 -8.00553523e-003 -1.99515000e-003 5.67357196e-003
      5.27798850e-003 7.96201453e-003 -2.93334271e-003 -4.22563590e-003
      -6.37518195e-003 -4.95213736e-003 -1.18317909e-003 2.29252805e-003
      7.33821187e-003 4.89614345e-003 -1.78883289e-004 -2.35756091e-003
      -5.19991340e-003 -9.99604538e-003 -9.46673565e-003
      -8.57022125e-003 5.68080600e-003 9.37623531e-003 3.10950284e-003
      4.96425154e-003 -3.18040862e-003 -2.85584293e-003 -6.89880177e-003
      -6.51919376e-003 -2.25302856e-003 1.01602422e-002 1.39831416e-002
      9.67612769e-003 4.28525824e-003 -6.44939393e-003 -4.13145451e-003
      -5.40066557e-003 -3.13754124e-003 1.05206156e-003 -5.04350476e-003
      -5.27563831e-003 4.01502289e-003 5.82295563e-003 -2.92280526e-003
      -4.49174637e-004 -5.88315260e-003 -1.66912435e-003
      -2.97293556e-003 -9.02249292e-003 -8.16260837e-003 5.75573463e-003
      1.80124468e-003 -4.89166658e-003 -3.26365756e-004 -9.48889274e-003
      -3.87807470e-003 3.76939308e-004 3.42931249e-004 6.52206875e-003
      7.25730881e-003 8.42637103e-003 -1.86791804e-004 5.99801401e-003
      8.51373188e-004 2.05933978e-003 1.55497412e-003 -2.46898877e-003
      -9.91426758e-004 9.96589568e-003 6.73373276e-003 1.96279469e-003
      -2.86234776e-003 -4.73965425e-003 -9.42920707e-003
      -6.07856875e-003 -9.06358566e-003 -6.72934065e-003 1.54648721e-003
      9.84843820e-003 5.80030307e-003 -2.57860962e-003 1.49203313e-003
      -8.19451734e-003 -2.76110810e-003 -4.62282216e-003
      -3.01832845e-003 3.05452524e-003 5.17161516e-003 -5.42974703e-005
      6.58485154e-003 4.77573043e-003 -2.29499605e-003 -1.00936845e-003
      -5.89145487e-003 -9.53401253e-003 5.33709163e-003 9.31639131e-003
      8.64638668e-003 1.23024313e-003 7.33870128e-003 -5.34406630e-003
      -2.52036215e-003 -1.98040321e-003 -5.80618531e-003 3.89216631e-003
      1.03227934e-003 3.18829145e-004 -5.07469848e-003 -3.11618461e-003
      -2.52981135e-003 -5.81167988e-005 -9.17161960e-005 2.86316196e-003
      -2.93478253e-003 2.28485535e-003 1.92176062e-003 1.54589384e-003
      -2.31517115e-004 -2.86375103e-003 3.71645554e-003 1.16130104e-003
      6.89816382e-003 1.47187512e-003 2.52178195e-003 3.40938685e-003
      -3.99174122e-003 4.78518574e-004 -8.60628486e-003 -3.20572476e-003
      -3.55351903e-003 1.52300310e-003 -1.27327361e-003 8.00102076e-004
      -1.33745128e-003 -7.88869918e-004 -2.14874838e-003
      -8.34097527e-003 1.70017232e-003 2.14911602e-003 5.43104438e-003
      2.01390521e-003 4.17010812e-003 7.45056849e-003 6.73775049e-003
      4.97078802e-003 3.16044618e-003 4.35072929e-003 3.47803114e-003
      8.36466718e-003 1.73514057e-003 1.54923380e-003 1.22264139e-002
      3.45912622e-003 -5.67468669e-005 -5.71488682e-003 6.81925856e-004
      -1.46350323e-003 4.14538477e-003 -1.04110362e-003 -1.08831958e-003
      4.76377783e-003 7.47631304e-003 5.38170803e-004 2.71635782e-003
      5.22588752e-003 7.17690028e-003 5.29824337e-003 3.33788688e-003
      -2.03692261e-003 1.22984487e-003 2.23749201e-003 -1.14018575e-003
      -1.79599714e-003 -7.23606558e-004 -1.67474803e-003 4.09682328e-003
      -2.97930033e-004 6.60361862e-003 1.20590590e-002 6.31487230e-003
      -6.62761740e-004 -1.99817354e-003 8.73320852e-004 -5.47922403e-003
      2.22962652e-003 3.40914098e-003 1.26909313e-003 2.78197904e-003
      3.65814078e-003 -2.65737786e-003 -7.45823001e-003 6.39117556e-004
      -1.19029148e-003 4.76298774e-005 6.66606985e-003 6.68612309e-003
      5.02332021e-003 2.66786385e-003 -6.05881261e-003 -1.50627078e-004
      9.59761790e-004 -5.90403657e-003 3.37791862e-003 5.90544567e-003
      9.88263171e-003 3.26690334e-003 2.48892908e-003 -7.86392950e-004
      -4.46284015e-004 8.09799787e-003 -1.11429067e-003 3.34265153e-003
      1.09584229e-002 2.66535673e-003 -1.09381252e-003 9.88932909e-004
      9.87105770e-004 -6.43732119e-003 -2.41344539e-003 9.81957302e-004
      3.69375426e-004 5.94430882e-003 -1.53213996e-003 -1.80140673e-003
      -1.58588588e-003 2.78842729e-003 -2.33238097e-003 -1.22388080e-003
      -4.78314329e-003 -8.66492651e-003 -8.76848493e-003 8.80078878e-003
      7.30312383e-003 6.05800981e-003 5.49820298e-003 7.61754636e-004
      3.86501569e-003 8.50912184e-004 3.36880609e-003 5.39974077e-003
      3.79474391e-003 2.45626085e-003 8.81793792e-004 5.78554254e-003
      -2.16695573e-003 -3.25955241e-003 -5.96353738e-003
      -4.65348037e-003 -3.41351773e-003 -2.52381666e-003
      -3.84265394e-003 -2.76451395e-003 4.74693440e-003 5.18696150e-003
      3.32587661e-005 -6.03565341e-003 -8.01942497e-003 -9.06346459e-003
      -5.55464672e-003 -3.34004406e-003 -2.21528555e-003 1.03116492e-002
      1.06793335e-002 4.88245813e-003 -4.79857903e-003 -6.74141478e-003
      -7.96186272e-003 2.32353574e-003 -2.09208531e-003 -2.72218953e-003
      7.89876748e-003 7.04075396e-003 -3.22304876e-003 -5.50556881e-003
      -5.83637552e-003 2.85028829e-003 8.67033785e-004 -7.03140674e-003
      2.97618099e-004 1.16151031e-002 1.15232905e-002 6.46684878e-003
      -7.51071470e-003 -1.23015353e-002 -3.59125156e-003
      -4.03306261e-003 -3.78455408e-003 -6.30828412e-003 2.50122300e-003
      6.39323378e-003 -1.17529824e-003 -6.39048498e-003 -5.02293045e-003
      -6.16655406e-003 -2.15916592e-003 1.77368638e-003 1.86107378e-003
      3.17203463e-003 4.66347206e-003 1.45123154e-003 -1.09876820e-003
      -6.77519129e-004 -4.33185417e-003 1.89967034e-003 -4.32520779e-003
      -3.81902838e-003 4.53608483e-003 8.30467232e-003 -1.37425482e-003
      -9.26921237e-003 -1.00996494e-002 -6.73509296e-003 1.70320563e-003
      3.78350145e-003 -3.17302911e-005 3.06629087e-003 6.18846808e-003
      -1.65540943e-004 -1.23334338e-003 -3.21002584e-003
      -4.79409564e-003 -1.01499539e-003 -7.21114746e-004 6.73762173e-004
      6.78468542e-003 6.17554318e-003 1.42529805e-003 3.07944650e-003
      1.96287921e-003 -3.79577070e-003 -5.59499441e-003 -3.06045543e-003
      1.48779701e-003 1.63632166e-003 2.29553110e-003 -6.63572573e-005
      -4.41706926e-003 -8.86240322e-003 -6.37072884e-003 1.63532724e-003
      -1.74026284e-003 9.80451819e-004 4.64410195e-003 4.91498830e-003
      -5.42896916e-004 1.66238449e-003 4.89661703e-003 -1.65361410e-003
      -2.74236756e-003 -4.92938701e-003 2.84664740e-004 9.70353954e-004
      3.50866071e-003 -1.90969044e-003 -7.29901437e-003 -5.25483303e-003
      -1.72817649e-003 -1.21681031e-003 -1.62316556e-003 5.04384097e-003
      3.12363380e-003 -8.05592106e-004 7.35647103e-004 -5.13847126e-003
      -7.72352843e-003 -4.27215733e-003 -3.09022213e-003
      -2.47309054e-003 8.38514476e-004 1.48773217e-003 -3.89741326e-004
      2.29898817e-003 7.13589881e-003 -4.99352354e-005 1.77918351e-003
      -1.95907895e-003 -1.15012191e-003 3.46166315e-003 3.26075242e-003
      2.11671833e-003 -9.91866807e-004 -2.53385352e-003 -3.52608273e-003
      -1.66229066e-003 -2.69247964e-003 -3.19149671e-003
      -4.13931179e-004 -2.18559057e-003 -5.07395994e-003 1.44066708e-003
      3.02992878e-003 8.88417941e-004 2.03856686e-003 -5.34669450e-003
      -3.15405335e-003 -3.85502470e-003 -1.88447291e-003
      -3.83038819e-003 -1.84942828e-003 -2.03229347e-003
      -2.44091279e-005 1.83015782e-003 -4.28250903e-004 -1.18731940e-003
      1.70632498e-003 4.72836941e-003 5.45002113e-004 1.70064636e-003
      7.42663688e-004 5.31708077e-003 3.72315454e-003 -4.13540937e-003
      5.37578249e-004 -3.21710552e-003 -3.71163199e-003 -3.27359466e-003
      5.95202495e-004 -1.72360893e-003 -2.33133696e-003 -6.45992754e-004
      -3.84201958e-005 7.52261200e-004 -3.62823415e-003 7.63163669e-004
      -1.80979015e-003 4.55330871e-003 8.63923226e-003 4.57988912e-003
      3.59702483e-003 -8.58678110e-003 -2.70718988e-003 2.83850619e-004
      1.99349364e-003 -7.19091331e-004 1.08956371e-003 4.05394379e-003
      3.84434569e-003 -2.23952718e-003 -7.50520080e-003 -4.58651828e-003
      6.21160725e-004 1.02502573e-002 7.51329446e-003 3.42828268e-003
      1.02151232e-003 -1.31389941e-003 -7.13183731e-003 -6.84094895e-003
      -6.52985042e-003 -4.06649336e-003 -9.40775673e-004
      -1.34738884e-003 1.90942211e-003 8.15216359e-003 4.77618538e-003
      -1.12019735e-003 -7.18033966e-003 -4.83404798e-003 1.31080055e-003
      8.99787713e-003 7.23964116e-003 -1.96383474e-003 2.03694031e-003
      8.19851120e-004 -6.35596085e-003 4.49202518e-004 -7.62149924e-004
      1.12331717e-003 7.47591164e-003 8.93699937e-003 3.53199779e-004
      -2.25382784e-004 -2.56962329e-003 -4.90500405e-003
      -1.04443717e-003 9.44520114e-004 -2.20095692e-003 6.79673254e-003
      1.81128108e-003 -1.73406093e-004 -2.07549520e-003 -3.82264587e-003
      -6.50499435e-003 1.82812673e-003 -2.12662108e-003 -4.75904159e-003
      7.70335831e-003 6.41518459e-003 -2.23915442e-004 -2.00827629e-003
      -3.67733953e-003 -4.89548733e-003 3.00523336e-003 -1.11831538e-003
      -6.95284037e-003 4.83081909e-003 2.94763921e-003 -2.82338774e-003
      1.63668406e-003 -4.11073212e-003 -4.64399112e-003 6.63407729e-004
      5.66098373e-004 -2.09718850e-003 1.58730790e-003 -4.04405815e-004
      -2.55385443e-004 -3.69064300e-003 -4.67029214e-003
      -2.49731122e-003 -1.56377372e-003 3.04549874e-004 1.15001504e-003
      1.19048601e-003 1.04359537e-003 -1.60721084e-003 -1.16291957e-003
      -1.52928301e-003 -5.82963345e-004 -6.19341154e-004
      -3.35934875e-003 -3.72756761e-003 2.87341396e-003 -8.28689430e-004
      1.26144441e-003 1.57560955e-003 -4.35599395e-005 -1.22697954e-003
      -2.68601906e-003 1.08959747e-003 -1.89888829e-004 -1.80447882e-003
      4.10179049e-003 4.15323162e-003 -2.83228210e-003 2.25049304e-003
      1.77921809e-003 1.45235925e-003 -2.60803127e-003 -5.25839766e-003
      -5.80838323e-003 7.65169214e-004 -1.55943888e-003 5.38146868e-003
      3.62168113e-003 4.92794113e-003 -1.27207604e-003 -4.29077726e-003
      -4.06735856e-003 -3.40629951e-003 -3.73315619e-004 4.75615343e-005
      6.15002029e-003 4.88210469e-003 8.88401922e-003 1.15161201e-004
      -7.03367346e-004 -6.15258422e-003 -7.49223074e-003 2.86484999e-003
      -7.97666959e-004 -1.92387422e-004 -1.19642832e-003 4.18474851e-003
      -4.14573355e-003 -1.89239485e-003 1.17602940e-005 6.17723214e-003
      9.22403950e-003 -5.70207508e-003 -6.61428552e-003 -8.41408968e-003
      -2.85309099e-004 -6.75411616e-003 -6.85708458e-003
      -1.71842694e-004 -2.19072239e-003 5.35233179e-004 -1.02750328e-003
      5.14781196e-003 3.92832933e-003 -2.49348138e-003 1.78816193e-003
      1.87745609e-003 7.46180536e-003 2.40665441e-003 2.34636758e-003
      -2.66917958e-003 4.27736156e-003 3.85988154e-003 1.27758796e-003
      -5.24849445e-003 -3.74014210e-003 -5.23464696e-004 4.13581077e-003
      2.78976816e-003 -6.99251192e-003 -6.85832696e-004 -3.77569743e-003
      -2.10566237e-003 2.35461118e-003 -8.87297268e-004 -1.03775319e-003
      -1.00001437e-003 6.88314205e-003 -1.80164247e-003 3.64860357e-003
      5.25692478e-003 2.60052201e-003 3.80326458e-003 4.08849155e-004
      6.81782374e-003 3.14163510e-003 -1.94916024e-003 -1.65491924e-003
      3.07536777e-003 1.03180052e-003 7.76263943e-004 -1.60200731e-003
      1.59035297e-003 2.11277371e-003 4.45910235e-004 -3.37041635e-003
      -1.72794773e-003 6.55761221e-003 1.27107918e-003 7.80552160e-004
      4.87003895e-003 1.37298845e-003 -1.92125223e-003 -1.73838611e-003
      -4.32088319e-003 -3.04494938e-003 4.17778315e-003 6.39772974e-003
      5.79052791e-003 8.47890216e-004 -2.27485364e-003 -8.39804672e-003
      -7.55132688e-003 -2.47414503e-003 -3.31375166e-003 1.12948788e-003
      5.68714458e-003 6.39242446e-003 -3.35205672e-003 -3.22297285e-003
      -2.68249470e-003 3.14862980e-003 -3.26153846e-003 -3.44138453e-003
      1.43958698e-003 1.25577662e-003 -1.28884241e-003 -3.36556043e-003
      -6.07517024e-004 2.45499797e-003 3.71656287e-003 -2.11278629e-003
      6.46485249e-004 3.26348515e-003 3.46540660e-003 -1.91228662e-003
      2.19091796e-003 -6.02470431e-003 -5.31782629e-003 -2.52542598e-003
      -6.35714689e-003 -8.18345509e-003 -9.23900283e-004 9.77347445e-005
      2.40425230e-003 -4.38618808e-005 7.76662957e-003 9.00458952e-004
      8.16938654e-003 -5.68698219e-004 -2.85411812e-003 1.72352139e-003
      2.80836108e-003 2.16444721e-003 -5.08973654e-003 -6.36336452e-004
      2.36503221e-003 3.72331531e-004 -2.99744867e-003 1.42816629e-003
      5.43228397e-003 4.48351866e-003 -1.04827760e-003 -6.30899332e-003
      -4.67119180e-003 -1.42702367e-003 4.36707924e-004 1.69325387e-003
      -3.18923662e-003 -2.11011712e-003 1.02723854e-004 1.08310056e-003
      2.00454914e-003 4.12778510e-003 -1.90876739e-003 5.42389404e-004
      -3.28167970e-003 7.84587755e-004 6.77808980e-003 6.68967376e-003
      7.78191141e-004 -3.47835990e-003 -4.21871943e-003 -6.43769931e-003
      -2.30559870e-003 -2.93116574e-003 -1.38882652e-003 7.36971386e-004
      1.03112753e-003 2.25614902e-004 -1.61880525e-004 -5.50268916e-003
      -4.37313132e-003 -5.87797444e-003 -8.21580004e-004
      -1.79506349e-003 -5.48788765e-003 -4.11387393e-003 3.58836912e-003
      -1.32715795e-003 -1.30946073e-003 3.43945023e-004 4.24417813e-004
      2.47804186e-004 7.85501581e-003 1.01039361e-003 -2.99195712e-003
      -2.85253301e-003 6.52258401e-004 -2.04667007e-003 -9.30552269e-005
      -1.56447792e-003 -1.92138250e-003 7.91344850e-004 -5.29180793e-003
      -8.22740514e-003 2.11325078e-003 5.90284076e-003 3.23806494e-003
      9.92930494e-003 -1.15970543e-005 -2.20571691e-003 -1.52384528e-004
      1.87125953e-003 4.89270198e-004 -3.14541976e-003 -1.99069572e-003
      5.90899540e-003 2.00220151e-003 9.55370488e-004 -9.66643624e-004
      -2.12809211e-003 -2.37659970e-003 -1.39190827e-003
      -5.70060080e-003 -3.17001995e-003 -8.01484857e-004
      -2.86451331e-003 3.93998018e-003 -1.08359708e-003 -4.24580043e-003
      -6.01709401e-003 -3.37292091e-003 -3.46402498e-003 2.46067508e-003
      1.08169122e-002 2.92797177e-003 -4.59909951e-003 -7.14521483e-003
      -4.88537643e-003 1.79067825e-003 1.39771530e-003 -3.95802362e-003
      -1.69844215e-003 6.35350309e-003 -1.92284642e-003 -7.46893405e-004
      -5.14540868e-003 -1.11549040e-002 -2.42805574e-004
      -1.80095551e-003 -2.92169373e-003 9.33589356e-004 -5.10962820e-003
      -2.43282272e-003 3.77175212e-003 -2.69144564e-003 -4.89812111e-003
      -2.06463365e-003 -4.11582296e-004 7.10937334e-003 8.19157867e-004
      -5.87198359e-004 2.76336912e-003 3.99284437e-003 3.43040447e-005
      -5.44837152e-004 -8.64096172e-003 -9.28723626e-003 3.97171389e-004
      -6.46598928e-004 3.80220422e-006 -2.09178217e-003 2.99363583e-003
      -1.36587059e-003 -6.19133050e-003 -1.16538082e-003 5.67203388e-003
      -1.58952258e-003 1.39673112e-003 3.81921697e-003 3.51481908e-003
      4.29454586e-003 2.88792333e-004 -4.27535269e-003 -7.92023167e-003
      3.66489083e-004 -3.37485177e-003 2.29158229e-003 3.36550106e-003
      -1.97074492e-004 4.88878088e-003 1.27198710e-003 -1.87065895e-003
      -6.35294151e-003 -7.07497820e-003 -8.26339587e-004 2.24156212e-003
      -1.10130897e-003 -3.17399413e-003 2.71086255e-003 1.18731579e-003
      -2.90298113e-003 -2.06085853e-003 -5.16997185e-004 1.25613832e-003
      4.74595046e-003 4.36443090e-003 -2.67717335e-003 -3.24431644e-003
      -2.17626197e-003 -5.41158905e-003 -5.46039455e-003
      -1.16685883e-003 -8.63304012e-004 2.57875491e-003 1.52853434e-003
      1.48054631e-003 1.61083858e-003 7.51771906e-004 -7.91048538e-003
      -6.31303119e-004 1.48896209e-003 2.17740866e-003 1.79855549e-003
      -1.62696512e-003 -2.97056744e-003 2.46856431e-003 1.79375173e-003
      -3.87160294e-003 -1.25473167e-003 7.25207012e-003 2.67645274e-003
      4.19338560e-003 3.69317073e-004 1.78844063e-003 -6.59155543e-004
      1.77359127e-003 -5.58270607e-003 -9.37912427e-003 -5.46987110e-004
      1.85878889e-003 4.40987013e-003 2.25898833e-003 3.24426568e-003
      5.82600804e-003 2.31632032e-003 -8.55987146e-003 -4.33198223e-003
      1.10119465e-003 2.26739119e-003 6.97283167e-003 3.39503284e-004
      -1.63344899e-003 2.80124543e-004 -1.24390703e-003 -8.14264826e-003
      -9.18272603e-003 1.12376758e-003 2.72628851e-003 7.32881390e-003
      1.82818458e-003 2.47907965e-003 -9.98243457e-004 4.07013635e-004
      -1.49298355e-003 1.07121980e-003 3.30789550e-003 1.45536277e-003
      3.14210681e-003 -1.84965460e-003 -2.64694658e-003 -5.88196283e-003
      -9.06438380e-003 -2.06707185e-003 4.59453231e-003 4.11657384e-003
      -3.70449910e-004 6.37298077e-003 4.52570937e-004 1.98312243e-003
      -1.12177501e-003 -2.35126750e-003 -2.35236972e-003
      -1.93569041e-003 7.96271767e-003 2.25309143e-003 8.92402197e-004
      8.81379645e-004 -9.57933778e-004 1.41696201e-003 -9.73730756e-004
      3.86338239e-003 1.16191469e-002 5.04903914e-003 1.35420938e-003
      -7.90885533e-004 -2.12133978e-003 -3.65470373e-003
      -2.18066125e-004 -6.14740979e-003 -3.55593418e-003
      -9.35034419e-004 -6.18340040e-004 -2.44708941e-003
      -2.11115787e-003 -3.25858337e-003 -4.96799126e-003 5.00665745e-003
      1.05820503e-003 8.59665871e-003 5.69712976e-003 2.91500706e-003
      3.36924248e-004 -1.39829732e-004 -8.17414140e-004 1.84244732e-003
      1.63985661e-003 -4.40074736e-003 -2.77380925e-003 3.86607787e-003
      2.71743885e-003 2.96404673e-004 8.70928809e-004 -6.93542883e-004
      -4.37572971e-003 2.33098771e-003 -3.22582177e-003 2.44478672e-003
      1.33620854e-003 2.13258411e-003 2.22075847e-003 -4.96727880e-003
      -6.43395446e-003 -6.49570161e-003 2.72076257e-004 -2.95368559e-003
      6.99259993e-003 4.05020360e-003 1.81810698e-003 -1.54342980e-003
      -5.41431503e-003 -3.69481510e-003 -9.62917577e-004
      -6.64715422e-004 -3.65410495e-004 -5.27353585e-003
      -1.76681427e-003 3.38916574e-003 -1.02794881e-003 3.08780046e-003
      1.40692643e-003 -7.45604560e-003 -5.41179301e-003 -8.78784899e-003
      5.23688598e-003 1.34141243e-003 4.67608171e-003 4.11827071e-003
      6.07501389e-003 2.94283777e-003 -4.82466072e-003 -3.78222833e-003
      -6.20425493e-003 -1.12038630e-003 2.30661756e-003 4.68224753e-003
      6.19603181e-003 -1.72542583e-003 -3.85192246e-003 -4.76228911e-003
      2.78063328e-003 4.30231076e-003 1.64995983e-003 -4.44726873e-004
      1.53054739e-003 -1.87586190e-003 8.70438875e-004 -1.24370027e-003
      -5.58949821e-003 -3.86854354e-003 -1.71249080e-003
      -1.49341731e-003 3.95030389e-003 -1.29628985e-003 -4.89562843e-003
      3.26132658e-003 1.71694835e-003 -3.70383821e-003 3.19024478e-003
      -2.01966916e-003 1.52089982e-003 6.35070261e-003 5.80174988e-003
      4.90704644e-003 4.99761896e-004 4.57844185e-003 -2.11739750e-003
      -1.62935932e-003 -5.90933394e-003 -7.51403486e-003 1.92202383e-003
      3.33375297e-003 -2.82694842e-003 -2.53000762e-003 -1.77034840e-003
      -3.07638617e-003 -5.23923989e-003 -5.23134647e-003 4.88468977e-005
      2.73262965e-003 -1.10027182e-003 3.70323774e-004 -2.55259848e-003
      6.07137627e-004 -9.34211537e-004 -7.31615117e-004 7.52361491e-003
      9.32362676e-003 -3.35218525e-003 -8.39902903e-004 7.54915411e-004
      -3.45680234e-003 1.18854642e-003 -5.25925308e-004 2.29047099e-003
      -2.21793843e-003 -2.95743276e-003 -1.34656869e-003
      -8.30987818e-004 -2.43790378e-003 -3.95896984e-003
      -5.07874975e-005 6.46527682e-004 6.88371575e-003 9.14062187e-003
      1.03243161e-002 3.14404606e-004 -4.74997889e-003 -2.09741248e-003
      4.22374392e-003 9.67993052e-004 -3.28702619e-003 -6.66780723e-003
      5.85820759e-003 3.13480105e-003 -1.07809401e-003 -6.80963567e-004
      4.19786759e-003 2.54319445e-003 5.20973746e-003 3.42250266e-003
      2.93995277e-003 8.65573529e-003 -6.24468876e-003 -5.32049080e-003
      -8.44025984e-003 1.09623838e-003 -3.66343418e-003 1.49260322e-003
      -4.74867906e-004 -6.64634397e-003 -2.21532630e-003
      -1.82649365e-003 -4.39280737e-003 -8.39547068e-003
      -6.88534789e-003 -1.38091214e-003 1.81882677e-003 -9.14345655e-005
      -7.49888550e-003 4.12634993e-003 -3.39909876e-003 -2.88508390e-003
      -1.05643207e-002 -7.40751438e-003 -4.91039944e-004
      -3.91183654e-004 -4.72657150e-003 -3.32243228e-003
      -2.04851083e-003 -5.37945377e-003 -5.30324504e-003
      -6.64570462e-003 -5.94717031e-003 8.96778330e-003 6.22507604e-003
      -1.56022294e-003 -3.08519718e-003 -2.97150016e-003 1.09818089e-003
      1.50433416e-003 5.17773116e-003 5.82428090e-003 -2.64916592e-003
      4.15662723e-003 -3.94397788e-003 -8.13380163e-003 -7.91767333e-003
      -3.09233484e-003 -3.80222662e-003 -1.12609426e-002
      -1.10729737e-002 1.22267213e-002 1.45749319e-002 -2.30139960e-003
      -3.93249001e-003 -2.31358921e-003 -2.67490657e-004
      -6.62803126e-004 -1.40777486e-003 6.91683311e-003 5.83493244e-003
      4.47988370e-003 -4.04809695e-003 -4.69140196e-003 -5.04626194e-003
      1.62439945e-003 6.26894005e-004 2.28019804e-003 3.65509721e-003
      2.11190223e-003 -1.85694208e-003 -1.09969592e-002 -1.22170942e-002
      -8.54201615e-003 -2.44435621e-003 -2.40777503e-003 4.44087107e-003
      9.92764067e-003 8.70357454e-003 8.40144139e-003 -5.49531961e-003
      -9.23041999e-003 -8.23047105e-003 -2.36667739e-003 2.11156881e-003
      3.37900920e-003 4.33952920e-003 -2.85457936e-003 2.99688545e-003
      -7.91174080e-003 -1.22878430e-002 -1.52622396e-002
      -1.00992117e-002 -2.75499839e-003 7.77761871e-003 6.05849177e-003
      3.56323319e-003 -1.77488523e-003 -4.51699598e-003 -4.53503011e-003
      -5.26213506e-003 -1.04203327e-002 -3.21945571e-003 3.49254836e-003
      5.75887831e-003 1.86820934e-003 1.83458731e-003 4.15417925e-003
      4.63593239e-003 -1.73978697e-005 -5.42282034e-003 2.42179912e-003
      6.37836847e-003 8.78697820e-003 -7.70824170e-003 -2.78834533e-003
      -5.03100827e-003 -5.66703128e-003 -5.00056241e-003
      -5.22751734e-003 -4.28331608e-004 2.61783204e-003 1.77960715e-003
      -8.48971494e-003 -1.39348046e-003 5.39504224e-004 3.00191855e-003
      -4.27176896e-003 -3.45645333e-003 3.09207523e-003 2.20798352e-003
      3.87955733e-005 -3.26379831e-003 -2.41656601e-003 1.11005630e-003
      8.44216382e-004 -1.98815088e-003 -1.89233117e-003 5.73439663e-003
      8.92023463e-003 5.77136828e-003 -6.23769592e-003 -3.43439355e-003
      -1.44744161e-004 -5.59409009e-003 -3.81595478e-003
      -3.03208246e-003 -1.29771128e-003 6.44356245e-004 -1.62510638e-004
      -1.25582088e-002 -2.50483002e-003 7.71189225e-004 2.88583734e-003
      -2.15244526e-003 -6.10797061e-003 3.02751292e-003 4.44319285e-003
      -3.49493581e-003 -9.30850208e-003 -2.01929710e-003 4.54038894e-003
      4.20571771e-003 3.16778314e-004 -2.62032985e-003 2.54371739e-003
      4.58108122e-003 -2.32651178e-003 -6.91569701e-004 3.54331150e-003
      5.59917605e-003 -8.54926126e-004 -7.81493913e-003 -1.02797542e-002
      -6.16334844e-003 -2.11235392e-003 -2.90387939e-003 5.26545849e-003
      9.14224330e-003 6.47428352e-003 -2.12429813e-003 -8.73198360e-003
      -1.08115366e-002 -6.36701984e-003 -4.98172129e-004
      -5.31237479e-003 -6.44274009e-003 9.39004385e-005 7.31045753e-003
      5.87751111e-003 -1.94980158e-003 -7.96435867e-003 -1.84163055e-003
      2.15280056e-003 -2.48933234e-003 -4.54904092e-003 4.34597349e-003
      4.93241102e-003 2.23238277e-003 -6.62131375e-003 -6.94259768e-003
      3.19935381e-003 1.78455201e-003 -2.16845097e-003 2.16540368e-003
      1.15953041e-002 7.07616843e-003 -2.80829892e-003 -4.95129265e-003
      -3.15650646e-003 1.33961381e-003 2.24884739e-003 -6.08193083e-003
      -1.75281987e-003 8.65446497e-003 2.62057409e-003 4.19363612e-003
      -2.45421426e-003 -4.32725344e-003 -9.82351019e-004
      -3.17733549e-003 -5.53338043e-003 1.98499346e-003 7.68784201e-003
      1.72144093e-003 1.44316451e-004 -1.14065257e-003 2.90629664e-003
      4.41385852e-003 3.71526065e-003 -1.10389339e-003 -1.95919862e-003
      3.68957175e-003 -2.36404579e-004 5.57632977e-003 8.13940074e-003
      5.49132656e-003 1.70013495e-003 -1.49885355e-003 -1.03071760e-002
      -5.51816449e-003 -1.90358097e-003 -1.93082215e-003 1.02357948e-002
      3.87298316e-003 2.62986025e-004 -1.07256952e-003 2.07922800e-004
      -1.43338600e-002 -4.05724254e-003 -3.35681648e-003
      -3.57786812e-005 6.78567355e-003 5.29485615e-003 -1.15412753e-003
      -3.12571228e-003 1.16811879e-003 -4.77886526e-003 -8.04890972e-003
      -8.46503535e-004 -3.37332254e-004 7.52499327e-003 1.32583454e-002
      5.40368119e-003 -4.18986194e-003 -4.71349526e-003 -1.19968420e-002
      -7.36393547e-003 -1.35412836e-003 3.26296501e-003 6.89248322e-003
      7.02714222e-003 1.81592605e-003 3.25626679e-005 -3.47994431e-003
      -6.50076568e-003 1.80411944e-003 -2.08755373e-004 -1.15341495e-003
      -1.46417308e-003 5.98193670e-004 -3.91158881e-003 -1.44478562e-003
      1.80423306e-003 -1.30261935e-003 1.07506588e-004 2.19544512e-003
      5.52611239e-003 -1.79049000e-003 1.18111633e-003 -3.06424382e-003
      7.85354816e-004 3.97663238e-003 1.65703823e-005 -1.64910674e-003
      -6.25971763e-004 2.30407401e-004 -2.91140866e-003 -5.90787560e-004
      -2.55173538e-003 -2.60963043e-005 -1.23142463e-003
      -2.20961007e-003 -2.70286878e-003 -3.47911054e-003 1.05911226e-003
      1.98906497e-003 3.15652881e-003 9.02329455e-004 3.84384324e-003
      1.84957765e-003 -4.50911978e-003 -3.47047782e-004 1.51199545e-003
      5.90910856e-003 3.33890039e-003 2.43977527e-003 -4.57677385e-003
      -1.05779630e-003 -5.11846854e-004 -5.12525765e-003 1.12869567e-003
      -6.20182883e-003 -5.90430573e-003 2.30500387e-004 -2.06551608e-003
      -5.06045949e-003 -6.33174495e-004 1.63380848e-003 -2.87480257e-003
      5.36303909e-004 6.32032345e-004 3.39735555e-003 5.54974657e-003
      4.51071188e-003 -9.35779419e-004 -1.42530177e-003 1.69276737e-003
      -1.08582946e-003 -4.42258408e-003 -2.15102453e-003 6.78839919e-004
      7.52347708e-003 3.88958375e-003 2.57730891e-004 1.82039663e-003
      -3.85969784e-003 -3.86644504e-003 -1.41140528e-003
      -8.37286096e-003 -6.50239876e-003 -3.25907348e-003
      -3.36449058e-003 9.52132046e-004 7.26998644e-003 6.90929405e-003
      1.21116114e-003 -7.32602505e-003 -5.73124224e-003 -4.50882083e-003
      -2.76137842e-003 3.15789063e-003 6.16070721e-003 9.75775905e-003
      3.11427214e-003 -1.02149148e-003 -2.67554051e-003 -9.15886462e-003
      -5.94571792e-003 5.06832963e-003 5.72258001e-003 6.07559271e-003
      7.85748567e-003 -3.87117587e-004 5.86248934e-005 -8.30757257e-004
      -2.85045244e-004 -2.31570075e-003 -2.47970433e-003 4.51664813e-003
      1.31573016e-002 1.16579710e-002 3.30482610e-003 -4.49905777e-003
      -1.56878878e-003 -1.38823478e-003 -1.88526115e-004 6.70385431e-004
      -4.09913668e-003 4.31237218e-004 3.35136754e-003 -8.11659324e-004
      -1.65261608e-003 1.99863687e-003 1.64502009e-003 -5.23977587e-003
      1.19970785e-003 -5.51596237e-003 -2.62531510e-004 1.26890314e-003
      8.05935997e-005 8.35481449e-004 2.46922532e-003 5.94744412e-003
      -2.37852844e-004 -2.69650621e-003 -2.87246471e-003 6.12558052e-003
      1.35160866e-003 7.54917128e-005 -1.72101101e-003 3.96472123e-003
      3.76230129e-003 2.87102023e-003 3.39640584e-003 -2.47077900e-003
      -1.36242819e-003 2.41241418e-004 -1.48378115e-003 1.52838591e-004
      -1.18240365e-003 -2.61566340e-004 -6.75963191e-003 6.33953081e-004
      -4.22005216e-003 1.47698258e-004 -3.65548884e-003 -6.36122015e-004
      -1.91367744e-003 4.11758292e-003 4.24819766e-003 -1.69097888e-003
      -4.97035822e-003 -1.94974255e-003 3.72652830e-005 3.10069555e-003
      2.48469482e-003 1.21673709e-003 -7.25486316e-004 1.85303634e-003
      -1.77397812e-003 1.54120114e-003 -7.27387145e-004 -1.28336553e-003
      -2.93104909e-003 -4.50092461e-003 -1.27364241e-003 2.80920602e-003
      4.69714729e-003 6.76120224e-004 -3.87245999e-003 2.44382791e-005
      2.69068347e-004 3.32754548e-003 1.42035738e-003 4.25832579e-003
      3.71245481e-003 5.51062636e-003 1.60487325e-004 -1.40125572e-003
      -1.56852836e-003 4.00455669e-003 6.02960214e-003 1.81074557e-003
      9.10432951e-004 3.78126255e-003 6.39593322e-003 -3.81923339e-004
      -1.81403745e-003 -7.14212423e-003 -4.91537713e-003
      -1.73178490e-003 -2.02516583e-003 -1.58283638e-003 2.58883066e-003
      5.85898338e-003 2.73058726e-003 -1.21659692e-003 9.12308751e-004
      8.55257548e-003 4.83324844e-003 -7.21938792e-004 1.01775618e-003
      -2.81083980e-003 3.28987464e-003 -1.67878927e-004 -1.72312884e-003
      -4.95866919e-003 -6.37723366e-004 1.79513285e-004 -2.08882010e-003
      5.74101170e-004 -2.37608794e-003 -5.38957596e-004 -2.86623789e-003
      4.94605536e-003 -3.32684978e-003 -7.69593986e-003 -1.30986748e-003
      -3.59420851e-003 -1.52759708e-003 -2.74045626e-003 3.24373657e-004
      3.81321093e-004 3.28351790e-003 5.29401051e-003 2.59864028e-003
      1.60788099e-004 -1.85227359e-003 -2.51989346e-003 -3.29398387e-003
      -2.02446408e-003 -4.09040740e-003 7.73899141e-004 -4.32727067e-003
      -2.64028343e-003 3.70068150e-003 4.50425828e-003 3.44385603e-003
      1.23069971e-003 -7.70135375e-006 -3.06214462e-003 -5.46115160e-004
      1.22593634e-003 3.25694401e-003 5.40759601e-003 3.62322526e-003
      4.88552591e-003 -2.19979021e-003 8.60317610e-004 -2.31257000e-004
      -7.82973506e-003 3.12511041e-003 -1.46724298e-004 -9.40337719e-004
      -3.89817497e-003 -4.32957488e-004 -3.24398326e-003
      -1.20092905e-003 -3.77073389e-004 -8.84143752e-004 7.29748281e-003
      8.33434897e-005 5.20048989e-003 1.47147535e-003 -3.06123309e-003
      4.22198419e-003 -1.67413993e-004 -2.41087459e-004 -7.17045972e-003
      6.85733836e-003 8.02415598e-004 -2.53056269e-003 -4.23560338e-003
      1.63415668e-003 -4.53778848e-005 -2.32631294e-003 6.42984116e-004
      -2.10707448e-003 2.59677251e-003 4.68448456e-003 5.75547386e-003
      2.47163372e-003 1.83983298e-003 -9.05728806e-003 1.29467621e-003
      -3.29024438e-003 -8.48791446e-004 2.19574591e-004 9.92275076e-004
      -7.88948615e-004 -2.50175060e-003 -1.03413155e-002 3.64965596e-003
      7.26806652e-003 1.75289169e-003 2.80011445e-003 1.98097434e-003
      -1.50366838e-003 4.13562357e-003 6.56138500e-003 1.46547426e-003
      -1.07052336e-002 -2.00374634e-003 -4.34151897e-003
      -1.90713489e-003 2.57268990e-003 1.30565721e-003 3.28235146e-005
      3.84166068e-003 -6.65312959e-003 2.48941360e-003 7.73634715e-003
      2.63305451e-003 -1.02417439e-003 1.65065133e-003 -4.69457067e-004
      1.88613206e-003 5.54298423e-003 8.83839908e-004 2.29691016e-003
      8.70831311e-003 1.41783283e-004 -3.91147798e-003 -7.18179764e-003
      -4.15356457e-003 7.53566017e-003 1.01461811e-002 2.14282051e-003
      -4.62166453e-003 2.09030858e-003 1.64405396e-003 -3.13067413e-003
      -2.06319639e-003 5.70989097e-004 6.90812804e-003 6.05997210e-003
      -3.44061363e-003 5.76148601e-003 1.03801889e-002 4.14960115e-004
      -4.60622879e-003 -7.37002213e-003 -3.96897970e-003 3.41550424e-003
      8.11614189e-003 2.28680810e-003 -2.56781164e-003 6.61707809e-003
      5.42644737e-003 -6.36190642e-003 -3.09663708e-003 8.25150230e-004
      8.36587977e-003 1.08796265e-002 1.68002662e-004 -7.94859696e-003
      -3.01197055e-003 1.45486940e-003 2.36735470e-003 -1.44530041e-003
      -5.32790727e-004 1.96574000e-003 -5.36610722e-004 -5.69663942e-003
      -2.91414466e-003 4.28423518e-003 4.67247190e-003 6.92483131e-003
      6.33398816e-003 -2.51694326e-003 -2.71774409e-003 -6.31682866e-004
      -1.05479558e-003 -7.62978150e-003 1.24680134e-003 4.46179044e-003
      -1.37499941e-003 -4.31570690e-003 -1.57921039e-003 2.79563805e-003
      2.26160954e-003 -6.64205709e-003 -2.06743809e-003 1.30837201e-003
      -1.00610044e-003 1.21409388e-003 8.52679648e-003 -2.25919508e-003
      -2.12365156e-003 2.75141536e-003 -8.54697637e-003 -1.02757392e-002
      5.18892833e-004 1.09679950e-003 3.96608794e-003 3.12242354e-003
      -7.43824989e-003 -5.36407693e-004 -1.29044720e-003
      -8.12919997e-003 -9.85151343e-003 -1.59878691e-003 1.48122129e-003
      8.00437853e-003 8.03759601e-003 -1.67708751e-003 2.95469793e-003
      3.81436828e-003 -3.89172952e-003 -7.80185685e-003 1.76985736e-003
      -2.16136500e-003 4.64516866e-004 -2.25641765e-003 -7.45025044e-003
      -3.68989818e-003 -5.34509541e-003 -5.87202748e-003 1.56467304e-005
      4.57576476e-003 -1.94208266e-003 2.83775548e-003 2.70314072e-003
      -3.44835455e-004 7.32952438e-004 4.43513185e-004 2.12173327e-003
      -5.96966688e-003 1.00865829e-004 2.60832417e-003 1.26945730e-002
      3.64908203e-003 -1.42585579e-003 1.69454573e-003 6.22413179e-004
      -3.08565539e-003 -6.86167553e-003 -3.54549848e-003
      -4.79684415e-004 3.83850979e-003 5.81492146e-004 -8.57512641e-004
      2.94300518e-003 1.71209197e-003 -1.07766213e-002 4.18506423e-003
      3.24786222e-003 -2.78974953e-003 2.84171430e-003 -1.70276873e-003
      -9.07190901e-004 4.59914329e-003 4.04965453e-004 3.47385160e-003
      -3.22526251e-003 -4.80987132e-003 -6.83446508e-003 1.53844955e-003
      1.82892638e-003 -2.32477835e-003 6.16255682e-004 -5.70195552e-004
      -8.48768093e-003 3.28734331e-003 2.55825173e-004 -3.87315615e-003
      3.04845278e-003 4.65448527e-003 4.39151516e-003 7.67911924e-003
      3.21982149e-003 -2.11946503e-003 -6.11066399e-003 2.38760142e-003
      -2.92490935e-003 3.34400102e-003 3.39461421e-003 5.92235941e-004
      -1.30073400e-003 -1.48463587e-004 -2.62926798e-003
      -1.21859754e-004 -2.11855466e-003 -7.33498391e-003 3.08322517e-004
      7.08904627e-005 3.45261535e-004 3.20892246e-003 -1.44785119e-003
      9.10712697e-004 -4.19337302e-003 -9.73988615e-004 -2.26225262e-003
      -4.77529550e-003 4.98876302e-003 2.85979640e-003 3.15841404e-003
      2.02203682e-003 -5.49733057e-004 -8.20758846e-003 1.15452125e-003
      -2.08653300e-003 3.22210230e-003 6.53548632e-003 2.92623066e-003
      -3.63259297e-003 -2.89920694e-003 -5.45369368e-003
      -4.71861567e-003 1.81767100e-003 2.87493662e-004 -1.51010230e-003
      4.90235165e-004 1.96423236e-004 2.31263251e-003 -1.91631203e-003
      -5.72391367e-003 -2.04117456e-003 -2.33325968e-003
      -3.01731937e-003 -3.11870151e-003 3.63707053e-003 -9.10574337e-004
      7.68981059e-004 -1.33893243e-003 -1.31840003e-003 7.79135094e-004
      -1.69895517e-004 -2.92449235e-003 -8.07688758e-003
      -7.05868611e-003 4.75458847e-003 2.46122945e-003 3.77095351e-003
      8.25539391e-005 3.68810317e-004 -4.22978355e-003 3.95979686e-003
      -1.43998803e-003 -2.76539056e-003 -2.17450992e-003 2.53149122e-003
      -3.93552892e-003 -3.07862624e-003 3.66290507e-004 -8.50066915e-003
      3.90163762e-003 5.00970753e-003 1.12896250e-003 -1.60663063e-003
      1.45043014e-004 -2.66707200e-003 -2.52993754e-003 1.38846983e-003
      -2.27484410e-003 4.56292275e-003 -1.67739217e-003 -4.92956676e-003
      1.45392201e-003 2.84461747e-003 -1.27124449e-003 -1.95351802e-003
      -1.23901048e-003 -4.25658980e-003 6.07855944e-003 7.49317044e-003
      8.77727289e-004 -8.88598245e-003 -2.80557806e-003 -4.60752798e-003
      -1.13883987e-003 6.22125529e-003 -4.22163773e-003 3.65758990e-003
      5.85195562e-003 2.84574181e-003 -2.28012446e-003 -3.51660233e-003
      -5.86944865e-003 7.24473968e-004 4.15104721e-003 -2.97416118e-003
      1.93081296e-003 4.14107833e-003 8.09021480e-003 3.65919224e-003
      -2.54862267e-003 -9.67845786e-003 6.73954142e-004 -2.86281062e-003
      -7.64423236e-003 3.48789571e-003 4.75101871e-003 1.69689709e-003
      -7.05111679e-003 -6.65487209e-003 -7.03061931e-003 2.59219576e-003
      -7.67021812e-003 -7.78042618e-003 -6.66803168e-003 3.17742862e-003
      8.18591379e-003 2.75396183e-003 -7.55564950e-004 -1.17019489e-002
      -5.10506146e-003 -1.33357313e-003 -5.82671631e-003
      -1.63118681e-003 3.81108723e-003 1.14973495e-002 7.49658095e-003
      2.77635525e-003 -1.05134156e-002 -5.18016843e-003 1.27366872e-003
      1.58522418e-003 -5.20245994e-005 1.43502199e-003 5.25770755e-003
      1.00972764e-002 4.55261627e-003 -4.43628663e-003 -4.95993579e-003
      -9.79719311e-003 -5.32015041e-003 -3.38308234e-003
      -2.58414564e-003 7.43754627e-003 9.07070283e-003 5.34899579e-003
      -1.08103817e-002 -9.04316548e-003 -1.96918030e-003 4.16391809e-003
      3.88579792e-003 5.79121429e-003 3.81538086e-003 7.91331753e-003
      4.69712028e-003 -9.29545797e-003 -7.30009144e-003 -5.33487881e-004
      4.78024688e-003 -7.12026551e-004 -3.85746919e-003 -6.36210572e-003
      4.48615570e-003 1.35333103e-003 -4.03110078e-003 -9.55485390e-004
      -8.82548396e-004 3.33806616e-003 1.82856701e-003 3.80754820e-003
      -5.13928710e-003 -2.77010258e-003 -3.97679105e-004
      -5.09007089e-003 -4.20215772e-003 3.77385551e-003 8.33528396e-003
      4.98503156e-004 -1.42894030e-004 -4.89942031e-003 2.85328925e-003
      6.85765175e-004 -3.06670927e-003 -7.09936314e-004 5.73213585e-003
      4.96176817e-003 -7.31126711e-005 2.41381675e-003 -6.50918856e-003
      -4.29387111e-003 -1.61073473e-003 -8.45055038e-005 6.15145592e-003
      -2.37084110e-003 2.85518449e-003 -7.05815473e-005 -3.16471123e-004
      -1.78439208e-004 -4.30303020e-003 -4.64305608e-003
      -6.28155284e-003 -4.07619542e-003 1.31422677e-003 7.51946573e-005
      -9.56789881e-004 -3.41729610e-003 5.23249013e-003 -2.01420480e-004
      -7.33746623e-004 -6.90180401e-004 2.71639583e-004 7.34862452e-003
      6.70430856e-003 -2.34748528e-004 6.90325571e-004 -1.30955956e-003
      -6.45992765e-003 -5.72467502e-003 -8.20337678e-004 5.38274460e-003
      2.90135620e-003 2.30229017e-003 2.00055132e-004 -1.09082364e-004
      1.88486290e-003 -6.02443889e-003 -8.77382420e-003 -1.95647101e-003
      -1.45537057e-003 1.06093299e-003 4.28158441e-004 -5.30098274e-004
      2.63938215e-004 4.02780809e-003 1.29623117e-003 2.09399659e-005
      -4.83125099e-004 -3.29111493e-003 -2.35024095e-003 1.07520109e-003
      -3.80550075e-004 1.59251806e-003 -5.76856197e-004 2.61619780e-003
      -9.46065586e-004 -3.45920748e-003 -3.96773778e-003 1.04865944e-003
      1.46615173e-004 -4.62203193e-003 2.29369942e-003 -3.32055090e-004
      -7.65045919e-003 -6.20805658e-003 4.89899598e-004 -1.79100456e-003
      1.69128692e-003 2.86393013e-004 -6.10091630e-003 -7.36249564e-003
      -3.99889378e-003 -3.83820222e-003 -7.47650769e-003
      -3.92738217e-003 -1.27598864e-003 -1.65076589e-003
      -2.27802969e-003 -5.51042194e-003 -1.63013246e-004
      -7.32348813e-003 6.94555521e-004 2.79264851e-003 2.50337226e-003
      2.52264016e-003 1.72155898e-003 -4.44512907e-003 -5.79724042e-003
      -4.38685733e-004 -2.24155607e-003 1.06130689e-002 2.25766841e-003
      4.55341395e-003 6.08001929e-003 3.65556189e-004 -2.18414445e-003
      -3.21914628e-003 -7.45875202e-003 -1.01578021e-002
      -5.38318744e-003 -2.81671342e-003 -2.11803359e-003 1.81279058e-004
      8.01109534e-004 -1.97829958e-003 -4.83627198e-003 3.56617893e-005
      -3.55206709e-003 8.80294852e-003 2.97699054e-003 2.75822915e-003
      1.29979639e-003 4.40709712e-003 -6.86071627e-003 -4.64086654e-003
      -9.40413959e-003 4.77220118e-003 -3.18153133e-003 -1.02547687e-002
      -4.89721354e-003 6.87970966e-003 1.36320770e-003 -3.75454407e-003
      -1.55482383e-003 -3.81761254e-003 -3.44491820e-003
      -2.56175129e-003 -7.94594921e-003 -7.20842835e-003 3.90672917e-003
      4.17103944e-003 -7.09265377e-003 -8.91916174e-003 -6.10218989e-003
      4.99812094e-003 -5.29594999e-003 -5.90420421e-003 -5.11971489e-003
      8.25624261e-003 6.77330187e-004 -3.34394095e-003 -2.42399704e-003
      1.18266058e-003 2.07916950e-004 1.69985136e-003 -5.78931207e-003
      -3.20400437e-003 1.95074384e-003 -8.31503700e-003 -1.42438675e-003
      -9.70937370e-004 -5.67602273e-003 3.96328360e-005 2.01935740e-003
      -4.24269820e-003 -2.19128258e-003 -5.15594194e-003
      -4.53978369e-004 6.44686678e-003 3.15993116e-003 -4.26264713e-003
      5.18568512e-003 -9.01356572e-004 -2.00080380e-004 -1.27230363e-003
      -3.14957392e-003 -6.47091866e-003 5.17500378e-003 1.29630894e-003
      1.21109933e-003 4.37939260e-003 2.40022922e-003 -5.28008724e-003
      -6.21108338e-003 -9.56631172e-003 -2.48927856e-003 1.01847090e-002
      5.52293332e-003 5.72004914e-003 5.43294847e-003 3.84370243e-004
      2.35378859e-003 -6.46073092e-003 -1.00603011e-002 1.17126266e-002
      1.05383294e-002 -1.61760510e-003 -7.34133366e-003 -7.96268694e-003
      -8.16369429e-003 -2.04109674e-005 3.38246301e-003 5.02215978e-003
      2.07265862e-003 8.72384664e-003 8.12856131e-004 -6.74590096e-003
      -1.39756259e-002 -9.85432882e-003 1.63416774e-003 2.19153520e-003
      5.05142519e-003 4.28763311e-003 6.81825355e-003 -3.28632281e-003
      -7.64170755e-003 -6.48958888e-003 -2.55294930e-004 6.04098290e-003
      1.17105502e-003 3.26482370e-003 1.72185551e-004 2.60104658e-003
      2.89555290e-004 9.28572204e-004 -5.03960205e-003 -1.03232954e-002
      1.36951462e-003 3.28113488e-003 4.76267748e-003 -2.40836525e-003
      7.52031757e-003 7.44612375e-003 7.56756999e-005 -1.21093057e-002
      -9.32197459e-003 2.76882737e-003 8.35711509e-003 8.86662398e-004
      -4.88041580e-004 9.83903650e-003 8.15031864e-003 4.79488773e-003
      -1.63815438e-003 -7.95967132e-003 -1.76729320e-003 9.21230763e-003
      -5.53593831e-003 -4.25162725e-003 5.93325635e-003 9.91521310e-003
      5.85451629e-003 -7.86905829e-003 -1.39992796e-002 -5.63589111e-003
      4.46209218e-003 2.62395130e-003 -5.31599810e-003 8.28506425e-003
      1.67366937e-002 6.64549135e-003 -4.17726953e-003 -9.75029264e-003
      -1.42963219e-003 3.99549678e-003 -4.30563232e-003 -3.98346782e-003
      6.22344343e-003 2.76783807e-003 1.00461708e-003 -1.97199086e-004
      -5.41129336e-003 -3.14066769e-004 2.49743252e-003 1.99615984e-004
      3.61217582e-003 5.95824281e-003 4.03817603e-003 3.12011968e-003
      -7.48262799e-004 -8.56307801e-004 4.84792097e-003 6.83043012e-003
      1.08394958e-002 -1.11820037e-002 -7.66067416e-004 3.25970445e-003
      -2.61684624e-003 -1.49759208e-003 -1.46873167e-003 1.36648290e-004
      6.66049449e-003 -5.06061688e-003 -1.14433998e-002 -4.59601684e-003
      -1.54671085e-003 -1.33975688e-003 4.52976394e-003 4.04342031e-003
      -7.19850417e-004 5.79456752e-003 4.29952051e-004 5.09972917e-003
      3.59782972e-003 3.27038253e-003 3.84866074e-003 -6.61103753e-004
      7.67509409e-005 6.97143236e-003 1.88860064e-003 8.27912986e-003
      3.44393164e-004 -7.39878742e-005 -4.04029386e-003 1.36098490e-004
      -3.15536512e-004 2.00620200e-003 6.88218325e-003 -1.91987795e-003
      -3.23622604e-004 -9.65664815e-003 -1.35832117e-003 4.56857728e-003
      -3.09973676e-003 8.05658929e-004 2.07798858e-003 2.76693230e-004
      -2.73103104e-003 -4.38350951e-003 -5.13695972e-003 4.76752035e-003
      5.08407084e-003 -2.62762350e-003 -7.19593139e-004 -1.63649314e-003
      1.20817788e-003 -5.10347076e-003 -8.22104234e-003 3.96030693e-004
      -4.36724396e-004 -3.47897597e-003 -2.18207506e-003
      -2.16468223e-004 5.70600911e-004 7.23563926e-003 -2.45272811e-003
      -3.74196476e-004 5.08751301e-003 -1.03348156e-003 2.81122950e-004
      -7.01694423e-003 -1.29219540e-003 4.66838537e-004 1.27373275e-003
      5.96965989e-003 2.25406257e-003 -1.32885482e-003 4.31726314e-003
      6.03578612e-003 -1.05490687e-003 2.42946343e-003 -6.29103649e-003
      2.41379789e-003 -5.49885724e-003 -4.60099848e-003 1.95120671e-003
      1.66627331e-004 4.43501817e-003 -1.63463561e-003 -2.67723436e-003
      -3.53863300e-003 1.47466920e-003 -3.89677985e-003 -4.35930584e-003
      2.62674224e-003 6.97970157e-004 -1.57394528e-003 -4.46069287e-003
      -2.84886756e-003 -1.64100528e-003 -4.96981025e-004 2.91607808e-003
      4.37836256e-003 -3.97262833e-004 -1.99801731e-003 8.18850065e-004
      -3.64942104e-003 -3.40018451e-004 -3.90904211e-003
      -6.50806236e-004 1.77884381e-003 3.33769806e-003 -3.65281967e-003
      -7.55056564e-004 -1.36557932e-003 -2.82176421e-003
      -6.18865131e-004 -5.30304108e-003 -2.01240508e-003
      -1.53732649e-003 -2.29335157e-003 -8.97318125e-003
      -5.31669008e-003 -5.04821958e-003 -1.05384702e-003 1.22342957e-003
      -8.71221907e-003 -7.98822846e-003 -1.07925059e-003
      -6.57869177e-003 -5.53773658e-004 -7.31266523e-003 3.81457643e-003
      3.08305630e-003 3.31316190e-003 -4.29548696e-003 1.82878412e-003
      2.06793053e-003 2.51877122e-003 -2.95403344e-003 -7.03183515e-003
      2.35872041e-003 6.62682392e-003 4.59928112e-003 -8.55511241e-003
      -2.30196558e-004 5.21985488e-003 3.01764696e-003 -5.76895289e-003
      -1.06125930e-002 -8.28769896e-003 1.59098112e-004 4.82674455e-004
      -8.82652681e-003 -4.19455813e-003 7.61803472e-004 -1.01147033e-003
      -5.53044863e-003 -1.10613424e-002 -7.44485669e-003 5.59038948e-004
      1.21360959e-003 -8.87402426e-003 4.68224811e-004 3.18172458e-003
      1.76593731e-003 -5.43173926e-004 -4.17661108e-003 -2.59569939e-003
      4.75577870e-003 4.17933892e-003 -4.17819805e-003 8.24964140e-004
      5.69012528e-003 4.09885310e-003 -1.96048454e-003 -1.01217739e-002
      -7.00011896e-003 1.00823655e-003 6.14761049e-003 3.44980694e-003
      -2.57469015e-004 -5.24036493e-003 1.42791122e-003 -3.56110325e-003
      -4.92989225e-003 -9.76674026e-004 2.29481352e-003 1.52797811e-003
      -7.19236676e-003 1.60090730e-003 2.51587160e-004 -1.51349173e-003
      1.57367962e-003 1.22519117e-003 1.09378051e-003 3.91211966e-003
      2.74224509e-003 -4.48140921e-003 -3.60894110e-003 -5.89013146e-003
      6.69018179e-003 -6.55793538e-003 -6.82330457e-003 -3.45491571e-003
      -1.47601671e-003 7.13532744e-003 6.44305302e-003 4.87024151e-003
      -8.67885631e-003 -4.16581286e-003 -2.30928435e-005 5.04126539e-003
      4.53402847e-003 1.99302007e-003 3.34809930e-003 6.16556779e-003
      2.49306532e-003 -9.98783298e-003 -6.38930127e-003 4.29814262e-003
      5.26420772e-003 1.40554947e-003 2.15844507e-003 2.71966681e-003
      -1.73549552e-003 -4.41915682e-003 -2.23058253e-003 2.28074472e-003
      3.52059113e-004 2.50310916e-003 4.95062303e-003 5.41655952e-003
      6.95026107e-003 3.51424422e-003 -2.20037671e-003 -4.71925712e-004
      -4.13653580e-003 9.64431185e-003 8.35612323e-003 2.08384334e-003
      2.69147963e-003 -1.87717879e-003 -2.17793204e-004 2.02501033e-005
      -5.77560253e-003 -2.76273163e-003 1.00179147e-002 7.08007766e-003
      -1.69095350e-003 8.03458877e-003 6.36451505e-003 -2.68899789e-003
      1.01274997e-003 7.47973099e-004 6.99118571e-003 -1.08317693e-003
      -2.63358373e-003 -9.01628169e-004 3.54506099e-003 5.70212398e-003
      1.44600496e-003 -5.86712640e-003 -8.52057524e-003 -7.27779930e-003
      -6.88059488e-003 -9.56331287e-003 -3.42675368e-003 9.43318941e-003
      6.18261658e-003 -3.10909934e-003 -2.73675774e-003 -2.03043059e-003
      -6.03181217e-003 3.46898474e-003 2.70966254e-003 -2.89718737e-003
      2.28391029e-003 1.55219529e-003 -5.86250238e-003 -3.40166525e-003
      -1.48659700e-003 5.15468558e-003 8.95322859e-003 5.46789169e-003
      1.80805800e-003 3.18575115e-003 1.21540739e-003 -9.04131960e-003
      -9.22081992e-003 -4.96436562e-003 -8.88871262e-004
      -7.46708829e-003 -6.32495759e-003 -8.26764852e-003 5.67810005e-003
      5.58609562e-003 -3.93313385e-004 1.28823321e-003 -1.98380975e-003
      -1.64584676e-003 2.03259266e-003 4.08314554e-005 -2.51694140e-003
      7.36801559e-003 4.55971155e-003 -4.76364698e-003 -6.60675950e-003
      -5.93627477e-003 -3.17371753e-003 7.67911272e-003 3.96557152e-003
      -2.59404466e-003 -5.16998989e-004 -9.74329829e-004
      -8.30718037e-003 -5.49829798e-003 6.74450530e-006 9.59740602e-004
      3.77797615e-003 -1.61793898e-003 -5.66052180e-003 -5.10275690e-003
      -1.91166927e-003 -1.15877707e-002 -5.48673747e-003
      -6.47124834e-004 5.13264863e-003 5.40572265e-003 2.00911236e-004
      -2.77782185e-003 4.94588341e-004 1.28781679e-003 -6.88869087e-003
      -7.28551717e-003 -3.69868055e-003 -6.47565466e-004
      -4.14388534e-003 -6.07940508e-003 -3.25740757e-003
      -1.36770436e-003 1.50649110e-003 -4.15731501e-003 -1.70678447e-003
      -1.70313148e-003 -1.00116036e-003 3.20185069e-003 -4.72165702e-004
      -8.81816435e-004 -3.45346658e-003 -2.39776797e-003
      -4.95152036e-003 -4.29025432e-003 -2.84302118e-003 2.04783352e-003
      2.72320118e-003 -3.31043242e-003 -3.99239734e-003 3.25885718e-003
      4.10573697e-003 3.73053947e-003 -4.36426082e-004 -9.39445221e-004
      5.74162463e-004 -6.74802670e-003 -6.11603400e-003 -6.53530518e-003
      -4.27930063e-004 -6.79616001e-004 3.21043772e-003 -2.62111425e-003
      -5.05356723e-003 -6.13314332e-003 -4.30625491e-003
      -4.51965397e-003 -8.04058369e-003 6.42527826e-003 5.37615502e-003
      3.11545306e-003 -9.87550896e-003 -9.99637786e-003 -8.79689120e-003
      5.17422194e-003 -6.17578905e-003 -6.27407944e-003 -9.66694020e-003
      -3.56416032e-003 -8.74831062e-003 -3.13109602e-003
      -2.16543116e-003 1.04150567e-002 -1.32715539e-003 -5.88630978e-003
      -4.44940943e-003 -3.36437370e-004 5.94029156e-003 1.22125447e-003
      2.16275547e-003 4.76690067e-004 -2.03848723e-003 1.53816154e-003
      -7.71481264e-003 -4.90562199e-003 -1.18797943e-002
      -8.60710163e-003 -1.18774176e-002 -4.28447733e-003 1.88439808e-004
      9.67578776e-003 -2.33093789e-003 -4.10852116e-003 -5.14362613e-003
      1.23844238e-003 8.78373440e-003 -3.53772752e-003 7.21656205e-003
      3.16287577e-003 -1.61693827e-003 -2.62081739e-003 -1.26306119e-003
      -4.67409985e-003 9.44976637e-004 3.35778948e-003 7.93043699e-004
      -1.83118822e-003 -3.13672004e-003 -6.86302129e-003 1.75927381e-003
      2.28778971e-003 -2.91952374e-003 7.64767290e-004 4.63288464e-003
      6.06886018e-003 7.52805173e-003 4.01554164e-003 -1.47609288e-004
      -2.60428106e-003 -6.31902600e-003 -6.40618894e-003
      -1.24297250e-004 2.50265165e-003 -7.32765440e-003 -2.50388496e-003
      -5.29524824e-003 -5.19745611e-003 1.95281929e-003 -2.75659095e-003
      -7.10386317e-004 8.17846681e-004 1.84015880e-004 -6.38934970e-003
      -1.49737194e-003 -7.70714483e-004 1.65694824e-003 3.58443684e-003
      1.87287026e-003 -1.92104769e-003 -6.55219005e-003 -6.00612164e-003
      -4.18197736e-003 6.84036687e-003 4.21326095e-003 5.17328689e-003
      4.53761313e-003 2.30317935e-003 3.15724872e-003 1.80961087e-003
      -6.67427375e-004 -1.09579293e-002 -1.26568123e-003 3.81049060e-004
      5.61529119e-003 1.99676841e-003 1.25735020e-003 3.39617999e-003
      3.87111359e-004 -2.91230739e-003 -4.69162129e-003 -6.88977249e-004
      1.14010694e-003 5.78586338e-003 2.35734787e-003 5.47135761e-003
      3.95317050e-003 5.02915354e-003 -4.87756042e-004 -6.84076920e-003
      -6.14673924e-003 -9.96337738e-004 1.06454839e-003 2.22358131e-003
      7.69661367e-003 8.81065149e-003 6.57740654e-003 -3.60773923e-003
      -1.23128183e-002 -5.95154287e-003 -5.81174903e-003 1.32504530e-004
      -1.57722249e-003 4.85026231e-003 1.27611747e-002 -3.83745413e-004
      -3.37810745e-003 -6.00503758e-003 3.87241860e-004 -3.42961052e-003
      -6.52125850e-003 4.05374262e-003 7.42388843e-003 8.27526301e-003
      6.57076063e-003 1.84163218e-003 -9.20004956e-003 -8.21141154e-003
      -3.95941967e-003 -5.60573360e-004 2.20933129e-004 3.44551960e-003
      9.56808962e-003 3.38726654e-003 6.80601178e-003 2.22081901e-003
      3.98234278e-003 1.17136783e-003 -3.01682786e-003 -7.46193994e-003
      -2.00123177e-003 4.69102245e-003 -3.94370826e-003 8.77002894e-004
      2.59814551e-003 1.82614278e-003 4.44622338e-003 -7.98656046e-003
      -8.24453868e-003 -3.50565137e-003 -4.71441599e-004
      -4.70601162e-003 7.67031312e-003 4.02855687e-003 -1.23134337e-003
      3.69815994e-003 -4.62735957e-003 4.61479044e-003 3.35515686e-003
      5.38489502e-003 -2.40177428e-003 1.60153315e-003 -2.76601152e-003
      5.04014175e-003 4.75530187e-003 1.40742632e-003 -6.32618496e-004
      -5.06176206e-004 -8.53553880e-004 -5.82444342e-003
      -2.20692530e-003 3.18652223e-004 -6.74381386e-004 2.16465537e-003
      -3.08462564e-004 -2.79783364e-003 -1.69186518e-004 3.34808952e-003
      -3.59051488e-003 1.40533329e-003 1.90611952e-003 -2.72742799e-003
      -2.14563147e-003 -2.52307439e-003 4.41355910e-003 3.38042248e-003
      -5.70682460e-004 -4.88145184e-003 3.76558892e-004 -2.74458015e-003
      9.96174549e-006 -4.01395001e-003 -6.44025952e-003 5.47842216e-003
      2.01745797e-003 -9.53900046e-004 -2.97480542e-003 2.91463407e-003
      4.08505119e-004 -4.47379937e-003 -3.03240935e-003 -8.55249818e-004
      7.65435025e-003 -2.37549259e-003 -1.10711381e-002 -9.18955356e-003
      1.74536952e-003 -6.78081764e-003 -6.35024859e-003 -2.03782786e-003
      -4.04772582e-004 4.65286104e-003 3.24847456e-003 2.21673655e-003
      -3.30321281e-003 -1.06803793e-003 -5.61993849e-003 2.70435633e-003
      -4.97340399e-004 -9.16308723e-003 2.28942651e-003 9.89434659e-004
      7.31792208e-003 3.04146810e-003 -3.22247832e-003 -9.54990648e-003
      3.13501596e-003 -3.37454397e-003 -6.15161331e-003 6.50368724e-003
      -1.51068671e-003 -5.19527821e-003 -6.94958726e-003 2.99693109e-003
      -6.48137322e-003 -3.95601662e-003 -3.24326218e-003
      -4.82841488e-003 6.07481226e-003 -1.20284269e-003 -1.96730136e-003
      -5.89602999e-003 -4.40129032e-003 -5.98152727e-003 1.12014741e-003
      4.81881248e-003 4.22252715e-003 -2.61026341e-003 3.50536982e-004
      1.96265313e-003 4.69280686e-003 5.07350266e-003 -1.83876807e-006
      4.50249249e-003 -3.80530511e-003 -8.48232489e-003 -7.72603042e-003
      -3.64859705e-003 -3.04604066e-004 7.33424677e-003 9.90078691e-003
      3.08239530e-003 -1.01631088e-003 -8.13951530e-003 -7.58899655e-003
      1.37706019e-003 9.63295810e-004 6.92965987e-004 1.86289614e-003
      2.78338022e-003 -1.30843872e-003 -1.84751651e-003 -5.13778767e-003
      1.75824238e-003 -1.53197348e-003 -1.91160524e-003 -1.73768506e-003
      6.31251466e-003 9.72969644e-003 -4.01571160e-004 -5.51795028e-003
      -1.25396987e-002 -8.70522577e-003 -1.19597837e-002
      -1.07144443e-002 -5.77517226e-003 6.86479034e-003 1.00063514e-002
      -4.26281290e-003 -6.04411820e-003 -7.74867088e-003
      -7.10810628e-003 -7.72285182e-003 -8.27555172e-003
      -4.34404518e-003 9.09264199e-003 9.02756490e-003 -4.29686718e-003
      -4.17239964e-003 -4.08208370e-003 -5.22423210e-003
      -3.63088632e-003 -5.29689481e-003 -5.83402021e-003 7.17852544e-003
      8.40909127e-003 -3.92050948e-003 -4.96301940e-003 -8.87759216e-003
      -1.06374389e-002 -2.50002719e-003 5.24877723e-005 3.67559900e-004
      9.80849750e-003 5.92408981e-003 -1.71289852e-004 -7.70002976e-003
      -8.67022015e-003 -6.44262508e-003 -4.78581339e-003
      -6.45464193e-003 -6.42303785e-004 5.66448923e-003 3.44050466e-003
      -7.74842780e-003 -2.41414947e-003 -5.21045504e-003
      -1.98879861e-003 5.14710881e-003 -4.53803339e-004 2.73321383e-003
      7.33205304e-003 1.69947837e-003 -8.98681348e-004 -1.34058937e-004
      -4.12029168e-003 2.83189025e-003 -5.30370977e-003 -1.85005338e-004
      -2.15007714e-003 4.95234225e-003 6.62972545e-003 6.80054480e-004
      -4.98074014e-003 -1.02610774e-002 -4.43976233e-003
      -4.40001301e-003 3.11402488e-003 5.32952324e-003 7.27309659e-003
      7.22538726e-003 5.07344399e-003 -3.44913897e-005 -1.04097137e-002
      -8.74339789e-003 1.18920496e-002 5.53394388e-003 2.63073179e-003
      1.78885052e-003 1.15272036e-004 -2.76749325e-003 6.92505739e-004
      5.49990963e-003 3.96803394e-003 1.04291539e-004 2.80608016e-004
      1.12158188e-003 1.22333807e-003 -2.29910715e-003 -4.34185332e-003
      -6.69511850e-004 5.89836808e-003 1.24173122e-003 -5.52703999e-003
      -2.75923056e-004 2.09998828e-003 1.79955282e-003 2.34684697e-003
      3.24450317e-003 4.82693221e-003 9.58795077e-004 -5.40599367e-003
      -3.15335812e-003 -8.41751788e-003 -6.06270554e-003
      -3.76286730e-003 -2.89286557e-003 -3.07156797e-003
      -2.06366018e-003 3.80009413e-003 1.90399098e-003 -3.90792545e-003
      -8.11864249e-003 3.83433129e-004 5.62193431e-003 3.19355703e-003
      -9.04440589e-004 -6.58421428e-004 -5.25124196e-005 1.32549065e-003
      -2.60654557e-003 -1.07264202e-002 -1.34261278e-003 1.40860910e-002
      8.03981163e-003 3.90284578e-003 3.12472763e-003 1.65416463e-003
      1.52358843e-003 -2.18619913e-004 -1.16258971e-002 -7.05507630e-003
      1.63058157e-003 -1.06754305e-003 -6.96999393e-003 -1.12894014e-003
      8.92586890e-004 6.26095897e-003 -5.44444774e-004 -9.53651778e-003
      -1.34238449e-003 6.03229878e-003 1.96586479e-003 1.21424464e-003
      -2.84285960e-003 -3.48125864e-003 2.75367708e-003 -3.57020041e-003
      -6.97803358e-003 -6.76052412e-003 1.01669636e-002 6.66448614e-003
      6.26431173e-003 5.40533662e-003 4.83650714e-004 -2.01403582e-003
      2.98826210e-003 -3.85386217e-003 -1.37031404e-003 1.16025209e-002
      8.41781311e-003 -4.74269909e-004 -1.16638676e-003 7.86451099e-004
      9.40812868e-004 -9.99020063e-004 -9.10182763e-003 -3.08480370e-003
      7.97503628e-003 3.11737787e-003 2.00432586e-003 -6.17238414e-003
      -9.40755848e-003 -6.78450568e-003 -6.20911922e-003
      -7.25933770e-003 -2.65219482e-003 1.23350685e-002 4.18470567e-003
      -2.47878814e-003 -1.21198269e-003 -3.61285475e-003
      -8.25179834e-003 3.68232909e-003 -1.66669185e-003 -1.15548457e-004
      7.59546738e-003 -1.15378865e-003 -3.81180155e-003 -2.75044260e-003
      3.21452593e-004 -2.75528524e-004 -4.71951440e-003 -3.71538964e-003
      -9.26985289e-004 2.65754573e-003 1.06164510e-003 -2.16872990e-003
      1.28187519e-003 -2.98597338e-003 -3.65607138e-003 -2.79478449e-003
      -8.32590333e-004 -1.44766411e-003 6.71588210e-003 -3.11795971e-003
      4.70145867e-004 1.39334006e-003 -1.27146937e-004 -5.71166538e-003
      -9.16285382e-004 -1.54399534e-003 -8.77008599e-004 2.83124740e-003
      5.69118187e-004 5.53378696e-003 -2.47930200e-003 -6.30820915e-003
      -4.38349415e-003 -7.00844312e-003 -4.49383585e-003
      -4.65132343e-003 2.37909518e-003 9.46444226e-004 5.93350083e-003
      2.12283060e-003 -3.76932090e-003 -8.56083445e-003 -5.20303007e-003
      -2.72244308e-003 -6.73341379e-003 5.11006638e-003 4.67011984e-003
      7.13435514e-003 -4.10498260e-003 -5.34023251e-003 -7.10611232e-003
      -3.25298356e-003 -2.52136053e-003 -1.59991067e-003
      -3.66410459e-005 -9.64262523e-004 6.09427737e-003 -4.06320626e-003
      -8.15493800e-003 -5.32058999e-003 -7.26498710e-003
      -6.82393601e-003 -4.56792535e-003 5.27037680e-003 4.42228187e-003
      6.07454870e-003 -2.82070902e-003 -3.87914549e-003 -7.54968869e-003
      -1.75895053e-003 -6.23807358e-003 -4.29281173e-003
      -1.07631478e-002 -3.26874526e-003 -4.28198325e-003
      -1.61015574e-004 -7.26340106e-004 1.77411886e-003 -3.99165694e-003
      1.03902002e-003 2.97998497e-003 7.77968764e-003 4.82609635e-003
      5.59130334e-004 1.88740971e-003 -6.98908838e-003 -9.10812896e-003
      6.61696447e-003 1.23927020e-003 2.69712205e-003 -1.00637563e-002
      3.40182683e-003 8.40624445e-004 7.39980908e-003 5.66430157e-004
      7.53042195e-003 5.80429006e-003 6.57925289e-003 8.78969580e-003
      2.94463895e-003 7.60635035e-003 8.92322510e-003 8.07039998e-003
      -1.72768487e-003 1.81602081e-003 -9.77611984e-004 1.12682616e-003
      3.34882131e-003 1.11101253e-003 -4.30086907e-003 -7.80095253e-003
      -3.91048891e-003 -1.06706321e-002 -1.10458005e-002 1.46320986e-003
      2.31135928e-004 7.75568467e-003 6.39678724e-003 6.04925724e-003
      -4.02778946e-003 -4.77266684e-003 -5.42496052e-003
      -4.19546338e-003 3.30698374e-003 -4.30943503e-004 3.78532731e-003
      2.80659995e-003 -6.90498913e-004 -1.49372991e-005 -1.01288757e-003
      -3.66132217e-003 -2.60045612e-003 7.72153772e-003 3.50581156e-003
      1.02743423e-002 1.14677437e-002 5.83525421e-003 -1.56565139e-003
      8.42522073e-004 -1.01684581e-003 2.36288388e-003 -1.96026242e-003
      -1.77758036e-003 6.55409228e-003 3.40415142e-003 2.80584791e-003
      -1.09050283e-003 -4.25391458e-003 -5.59034292e-003
      -5.31333871e-003 -7.53179891e-003 -3.65098077e-003 2.97185383e-003
      6.65542483e-003 2.76215817e-003 -2.71414081e-003 -4.49130451e-003
      -3.78436479e-003 -1.15655847e-002 5.52779157e-003 2.25243997e-003
      7.57273100e-003 1.25489170e-002 2.81405984e-003 3.18446138e-004
      7.00951437e-004 -6.36113284e-004 3.08308541e-003 4.36089421e-003
      2.92913709e-003 7.18969712e-003 1.08911796e-002 3.41561157e-003
      8.80524283e-004 1.88086252e-003 1.96280750e-003 7.26070022e-004
      -3.92131740e-003 1.96358375e-003 4.60659526e-003 5.43897878e-003
      2.70595821e-003 -1.01511797e-003 -3.99109116e-003 -2.84882635e-003
      -1.02804704e-002 -9.93617577e-004 7.07823597e-003 9.87387635e-003
      5.08048758e-003 7.22573977e-003 1.08879223e-003 -3.20363673e-003
      -3.22275539e-003 -7.41257984e-003 7.58607639e-004 6.56934734e-003
      1.27855949e-002 8.14675540e-003 -3.28519241e-006 -5.47472853e-003
      3.53291794e-003 -2.50279903e-003 -5.64281177e-003 9.26921493e-004
      1.14910230e-002 8.44035670e-003 4.44498099e-003 3.62467323e-003
      -5.84237743e-003 -4.67508566e-003 -9.64373071e-003
      -4.61012637e-003 3.96169303e-003 5.93932858e-003 5.92190120e-003
      3.75381700e-004 6.35443116e-003 -7.14443251e-003 -3.59965186e-003
      -3.52301355e-003 -2.10424932e-003 1.44506502e-003 1.49125524e-003
      1.35077862e-004 -6.73882989e-003 -2.43796944e-003 -1.24403136e-003
      -3.34286527e-003 -3.87349492e-003 -6.24366570e-004
      -5.08866552e-003 7.44658895e-003 7.03756278e-003 6.09263778e-003
      9.95540712e-003 -1.88443402e-004 -2.95174192e-003 -9.92698316e-003
      -6.73309900e-003 -2.20018183e-003 3.95185594e-003 5.18580619e-003
      7.14098476e-003 9.23335459e-003 1.89781946e-003 2.78341630e-003
      -2.98425299e-003 -4.95802565e-003 3.31050670e-003 -1.76034810e-003
      -7.44356727e-003 -5.20135555e-003 -1.62281352e-003 3.62803717e-003
      1.59644091e-003 -3.36769945e-003 5.37670785e-005 5.61647676e-003
      -2.65123020e-003 -7.53029995e-003 -8.99100676e-003
      -1.59810542e-003 1.26629591e-003 -4.57772939e-003 -3.03157861e-003
      1.37898372e-003 -2.39555282e-003 -7.05711136e-004 -7.41255702e-004
      3.07122292e-003 4.84188506e-003 5.17740613e-003 1.10659413e-002
      3.14201042e-003 -1.24179095e-003 3.23539949e-003 -1.14637485e-003
      -1.17871386e-003 -4.35449183e-003 -1.78456563e-003 4.70785145e-003
      9.80957318e-003 7.79794762e-003 7.47876149e-003 7.37047428e-003
      -1.50561961e-003 -4.00877232e-003 -7.86898844e-003 2.62930384e-003
      -4.34031361e-004 -2.67844996e-004 -7.83863885e-004
      -7.51816493e-004 1.30460015e-003 -3.95013066e-003 -5.92267001e-003
      -5.44677395e-003 -3.78092256e-004 1.98031223e-004 5.96155412e-003
      1.01539185e-002 3.11021809e-003 3.17573966e-003 4.56390483e-003
      1.65928458e-003 -6.28485205e-003 9.02975386e-004 -3.03418376e-003
      2.78202933e-003 7.45759299e-003 6.32783677e-003 1.22999249e-004
      -1.91243971e-003 -1.96930976e-003 -4.23004944e-003
      -4.00230027e-004 4.91188373e-003 5.24336414e-004 4.02983642e-005
      1.31988514e-003 -1.70149736e-003 -9.02382482e-004 -2.51799938e-004
      4.63252235e-003 3.78884934e-003 5.43893687e-003 7.47846789e-004
      -2.79016932e-003 1.74353633e-003 -5.97036676e-003 -6.41686434e-004
      -2.67681142e-004 5.30124921e-003 7.60210305e-003 -1.96025381e-003
      -2.78724008e-003 -1.28690042e-002 -7.90560059e-003
      -6.61528111e-003 -1.04218768e-002 -1.27554860e-003 3.90473707e-003
      2.28649192e-003 6.24678330e-003 9.72091744e-004 -3.15538491e-003
      -1.26877218e-004 -5.31073310e-004 -7.62652513e-003
      -2.19852687e-003 3.08602396e-003 2.84799258e-003 2.29889178e-004
      8.01272399e-004 -8.99386872e-003 -5.29862894e-003 -3.87472776e-003
      -3.99395498e-003 -5.58138080e-003 5.10693807e-003 6.59471331e-003
      9.40320548e-004 1.23516758e-004 -7.31974142e-003 -7.90856313e-003
      -1.75950839e-003 -3.14467889e-003 -4.41699149e-003 6.50739437e-003
      6.24057325e-003 2.67790092e-005 -1.92359462e-003 -2.72015738e-003
      -2.95503624e-003 2.17667525e-003 -4.57465928e-003 -1.04375398e-002
      7.75009918e-004 3.17377131e-003 -1.63829629e-003 -4.10766527e-003
      -6.49279170e-003 -4.91019199e-003 -3.44285555e-003
      -2.95280572e-003 -7.47996103e-003 6.64461171e-003 6.73726480e-003
      1.40065327e-003 -4.32391930e-003 -4.38608881e-003 -3.43748648e-003
      -1.50454522e-003 -2.71823490e-003 -3.91212618e-003 5.81437536e-003
      1.05565228e-002 4.28717164e-003 -5.11044869e-003 -4.51827142e-003
      -1.72391674e-003 -8.78911652e-003 -4.57098801e-003 2.15087086e-003
      6.56357687e-003 8.02808348e-003 1.92349509e-003 -3.31943971e-003
      -6.92270882e-003 -6.09169854e-003 -4.00980469e-003
      -6.27522497e-003 -3.46036232e-003 9.28364135e-003 9.14169196e-003
      3.28441965e-003 -8.65339022e-003 -7.81221874e-003 -5.24281757e-003
      -5.38167637e-003 -1.02426708e-002 -4.43972927e-003 2.05117813e-003
      8.20345804e-003 2.68379669e-003 -4.66525787e-003 -5.57516841e-003
      -6.25344831e-003 -4.56029689e-003 -2.43850634e-003 2.21385574e-003
      2.14099302e-003 1.71026529e-003 1.47944759e-003 5.90848224e-003
      2.84304551e-004 -4.41882247e-003 -4.46548860e-004 -6.18311297e-003
      -3.30306753e-003 -1.37549185e-003 -1.00554747e-003
      -5.91979733e-005 3.59411910e-003 1.59849937e-003 1.79212121e-003
      -4.28428501e-003 -7.91809522e-003 4.50186478e-003 4.65121632e-003
      1.60930725e-003 2.12774938e-003 5.38377697e-003 3.35083692e-003
      -1.89403584e-003 -8.73356941e-004 -5.07528661e-003 7.06809049e-004
      -1.72440626e-003 8.44901835e-004 3.41262808e-003 5.75364847e-003
      -9.71240588e-005 7.08976109e-003 4.68061259e-003 -5.96987642e-003
      -2.31084810e-003 2.48109712e-003 -2.02813908e-003 -3.93844908e-003
      3.16564372e-004 1.17857393e-003 9.00318567e-003 7.29025155e-003
      -2.05053715e-003 -1.31722831e-003 4.55672340e-003 -3.32918204e-003
      8.21644207e-004 -1.96955260e-003 -4.50400868e-003 6.45155786e-003
      5.15430048e-003 8.57129111e-004 -6.92083209e-004 -4.24044719e-003
      -2.33457051e-003 3.85637116e-003 5.33376122e-003 -1.56519993e-003
      6.62421435e-003 7.09497370e-003 3.58626340e-003 1.50653138e-003
      -3.88097391e-003 -5.43857086e-003 3.57049459e-004 -2.74625001e-003
      -3.12426151e-003 3.64490179e-003 5.63398376e-003 -1.60042499e-003
      6.48077403e-004 7.90832471e-003 1.19409827e-003 3.59217101e-003
      -2.04549008e-003 -6.79393904e-003 1.43351709e-003 4.02500154e-004
      1.90545700e-003 2.69182282e-003 1.35721788e-002 -1.22958131e-003
      -9.29640199e-004 -7.98734778e-004 -2.17689760e-003
      -5.28314942e-003 5.44427428e-003 3.45987803e-003 -2.34905980e-003
      -2.92349490e-003 -3.69667681e-003 4.93428996e-003 -1.85879879e-003
      -4.75088833e-003 3.18863872e-003 6.67466025e-004 3.77814658e-003
      -1.46817998e-004 1.24126987e-003 -4.94411401e-003 -1.16346870e-003
      1.97656103e-003 -4.81449097e-004 -2.74476060e-003 -2.93707219e-003
      1.08595949e-003 -1.91135425e-003 3.30150733e-003 -7.00926175e-003
      -2.44356552e-003 1.52071542e-003 3.05000902e-003 -4.84752841e-003
      -4.51487489e-003 -3.90684791e-003 -3.90039873e-003 2.45130504e-004
      3.31738195e-003 2.81587243e-003 -1.04037556e-003 1.93884014e-004
      -3.66557785e-003 -4.25489666e-003 -2.22499715e-003
      -6.19737105e-003 6.86609372e-003 -4.67751786e-004 -6.09860290e-004
      7.08961766e-003 6.60619698e-003 -2.18612212e-003 -5.82455704e-003
      -6.75718253e-003 -6.12368016e-003 6.19787723e-003 4.69426066e-003
      -4.40526113e-004 2.88003869e-003 1.20045245e-003 -3.52117606e-003
      -2.55278521e-003 -1.54030335e-003 -1.75519148e-003
      -2.87102233e-003 3.61535326e-003 4.49879008e-004 -7.16937799e-003
      -6.39863778e-003 -1.97866280e-003 3.32423672e-003 2.56899017e-004
      5.87259012e-004 6.27956027e-003 5.36411395e-003 7.13980896e-003
      -4.17589257e-003 -4.95699467e-003 1.04202516e-003 -3.80428717e-003
      -5.64269768e-003 -7.18190661e-003 -3.89993074e-005 5.72041096e-003
      -3.76162212e-003 -4.99583036e-003 -2.03532958e-003 1.25179722e-004
      4.67209332e-003 -3.80250532e-003 -5.93255600e-003 4.67624159e-005
      4.78547253e-003 1.19808847e-002 -2.46180990e-003 -5.96454553e-003
      8.12340295e-004</_></support_vectors>
  <decision_functions>
    <_>
      <sv_count>1</sv_count>
      <rho>8.5332598732904175e-001</rho>
      <alpha>
        1.</alpha>
      <index>
        0</index></_></decision_functions></my_svm>
</opencv_storage>
