<?xml version="1.0"?>
<opencv_storage>
<my_svm type_id="opencv-ml-svm">
  <svm_type>C_SVC</svm_type>
  <kernel><type>LINEAR</type></kernel>
  <C>1.0000000000000000e-002</C>
  <term_criteria><epsilon>1.1920928955078125e-007</epsilon>
    <iterations>2000</iterations></term_criteria>
  <var_all>3780</var_all>
  <var_count>3780</var_count>
  <class_count>2</class_count>
  <class_labels type_id="opencv-matrix">
    <rows>1</rows>
    <cols>2</cols>
    <dt>i</dt>
    <data>
      -1 1</data></class_labels>
  <sv_total>1</sv_total>
  <support_vectors>
    <_>
      9.40240454e-003 1.47558032e-002 1.21496348e-002 -2.28127912e-002
      -1.09883752e-002 -2.20252685e-002 1.79216918e-002 1.26374783e-002
      1.58660067e-003 -8.99279863e-003 1.78423598e-002 1.38381878e-002
      -2.34079957e-002 6.58219354e-003 -4.63614846e-003 9.46439151e-003
      -1.12750521e-002 -1.61287300e-002 1.84213873e-002 2.34045144e-002
      1.58070792e-002 -3.26785408e-002 2.18097950e-004 -1.31107457e-002
      4.05865945e-002 2.63402592e-002 1.03436569e-002 -3.73941381e-004
      5.26829669e-003 -2.08636490e-003 -4.04634885e-002 1.09650915e-004
      4.09968290e-003 2.40074191e-002 9.18525178e-003 -6.23243349e-003
      -8.51767603e-003 2.41165459e-002 1.58779453e-002 -2.62947027e-002
      2.42429879e-002 3.34660918e-003 1.54867861e-002 -2.12878874e-003
      -2.46632453e-002 -1.24527179e-002 9.86390840e-003 7.00599328e-003
      -2.23810505e-002 3.09641869e-003 -2.67933880e-004 1.95234772e-002
      6.52414048e-003 -2.39035189e-002 2.56139017e-003 1.44926803e-002
      1.49011090e-002 -3.62005681e-002 7.49561982e-003 -2.59188330e-003
      1.82870571e-002 5.26865805e-003 -2.75243842e-003 1.77793726e-002
      8.63069016e-003 9.17332899e-003 -4.05265503e-002 5.57937333e-003
      -1.48134772e-002 2.58351211e-002 2.48301625e-002 9.57251247e-003
      -6.84585655e-003 1.30181434e-002 1.03470255e-002 -2.12637931e-002
      -2.48595048e-003 -1.74554959e-002 1.12391626e-002 4.51286091e-003
      -2.40268745e-002 3.36686731e-003 1.58907603e-002 6.91165403e-003
      -1.74376033e-002 7.61150476e-003 -2.03295648e-002 1.83088146e-002
      1.71215937e-003 -9.21723619e-003 3.89920082e-003 7.21599534e-003
      -4.58859699e-003 -3.10885962e-002 7.01818429e-003 -1.37009183e-002
      1.76382679e-002 1.92026049e-002 -3.43283755e-003 1.71315279e-002
      1.75698455e-002 1.30008217e-002 1.79096614e-003 2.22555064e-002
      3.88986943e-003 2.41132677e-002 1.18913753e-002 2.25869659e-002
      -1.12368334e-002 4.66196146e-003 -8.41677375e-003 -2.47627590e-002
      -1.11072706e-002 -2.44380236e-002 1.94197765e-003 -6.35137642e-003
      -1.54171763e-002 6.75729755e-003 1.28743593e-002 -1.72784342e-003
      -9.17212479e-003 1.65687613e-002 -1.69835752e-003 3.26510257e-004
      -2.33431044e-003 -1.34666145e-004 1.23336418e-002 1.26807867e-002
      -1.07744643e-002 -8.42096657e-003 1.24350027e-003 -1.25793098e-002
      7.85816368e-003 7.79487286e-003 1.98647678e-002 3.33505683e-002
      1.73201431e-002 -9.65272728e-003 2.76345829e-003 1.27498833e-002
      -1.08013842e-002 3.91451409e-003 3.52248596e-003 2.95876842e-002
      -1.40011369e-003 9.47936717e-003 7.28500122e-003 -2.59355264e-004
      2.49762535e-002 6.23501325e-003 3.56248091e-003 -2.39030528e-003
      -1.38126714e-002 -3.07368697e-003 -3.41470260e-003 5.89594478e-003
      5.05998405e-003 3.00314315e-002 1.16932001e-002 1.49290813e-002
      4.45857272e-003 -1.30517464e-002 1.87294073e-002 3.69330589e-003
      -1.46031873e-002 -3.19472584e-003 2.67986991e-002 -2.97926250e-003
      5.00148023e-003 -1.19050853e-002 1.12580769e-002 4.66697291e-003
      1.31792534e-004 2.24729534e-003 3.40704992e-003 2.45108884e-002
      8.32836609e-004 4.77523776e-003 -2.68322341e-002 -1.46176005e-002
      -2.00533066e-002 -6.73143333e-003 2.14724359e-003 6.30814070e-003
      1.96670536e-002 -2.25946758e-004 6.78949058e-003 -9.82338283e-003
      -1.46906869e-002 1.05038388e-002 8.66096281e-003 2.31712032e-002
      5.69131924e-003 2.59959940e-002 7.85605982e-003 1.35111948e-002
      -1.07251480e-002 -6.17963122e-003 -1.19940517e-002
      -1.26171857e-002 -2.32188846e-003 -6.96143787e-003 1.61999948e-002
      -1.40640633e-002 -6.06486166e-004 -2.98992116e-002
      -2.35800166e-002 1.66705288e-002 2.12552007e-002 1.62230525e-002
      -8.86944216e-003 1.86967570e-002 2.78650876e-003 1.00344131e-002
      -9.04988218e-003 5.63918008e-003 7.74134649e-003 1.28053064e-002
      2.58321613e-002 1.77085237e-003 1.10853165e-002 -4.36145859e-003
      3.58165218e-003 -1.71001442e-002 -4.38672397e-003 1.55083062e-002
      1.42705282e-002 1.15860440e-002 -1.70396257e-003 3.27256299e-003
      -8.26361403e-003 1.64362788e-002 9.60932462e-004 1.75438896e-002
      7.59757776e-003 1.36221619e-002 1.62998233e-002 -5.38906595e-003
      9.78008495e-004 -8.18737131e-003 -1.16997678e-002 -3.93661447e-002
      -4.28137276e-003 1.50660221e-002 -4.36688354e-003 1.17076663e-002
      -1.24768913e-002 2.17113388e-003 -8.22388753e-003 -3.52842361e-003
      -2.80288439e-002 7.29952240e-004 1.23263728e-002 9.16130375e-003
      8.86496902e-003 -1.51328568e-003 -2.63822870e-003 -6.36178069e-003
      2.11407505e-002 -2.16189795e-003 6.34226389e-003 2.13240609e-002
      1.26789203e-002 1.77671816e-002 -1.11793657e-003 1.50451739e-003
      -6.24716235e-003 1.06745698e-002 -1.29623897e-002 -7.23749911e-003
      1.48263471e-002 -7.14079756e-003 -8.26540112e-004 -1.48029458e-002
      -5.52874617e-003 -6.39083004e-003 1.48755861e-002 -4.36426420e-003
      9.50448588e-003 2.31925566e-002 5.37730614e-003 2.92258570e-003
      -1.60843488e-002 -5.03145484e-003 -6.71440130e-003 1.50617454e-002
      -2.89841904e-003 1.05157876e-002 2.19290145e-002 9.46855173e-003
      7.47994846e-003 -1.80871394e-002 -2.84540784e-002 -2.26540286e-002
      -3.05029703e-003 -1.51610645e-002 -3.47609574e-004 2.48350520e-002
      8.84744059e-003 4.53389762e-003 -2.32703909e-002 -1.08815543e-002
      -2.56327773e-003 1.64183248e-002 -5.92610100e-004 2.06200927e-002
      3.53607051e-002 7.20762135e-003 3.27142468e-003 -2.17033681e-002
      -1.08379498e-002 -1.07567115e-002 1.06904134e-002 -1.15812393e-002
      1.85656808e-002 2.61887982e-002 5.35825174e-003 1.96366254e-002
      -3.03213741e-003 -9.12145246e-003 -6.02951460e-003 2.88947001e-002
      4.22827806e-003 2.00459100e-002 -1.43524236e-003 -7.69029744e-003
      7.63235672e-004 -1.18559804e-002 3.54158430e-004 -5.32587431e-003
      1.12859660e-003 -2.64001754e-003 6.44557923e-003 -2.63022445e-003
      1.23413815e-003 1.37938252e-002 1.71766710e-002 2.01029126e-002
      -3.56662786e-003 -1.23455552e-002 -1.30227497e-002
      -5.44399768e-003 3.21379339e-004 -8.20668414e-003 1.47389490e-002
      3.21200001e-003 6.87303371e-004 -5.11419959e-003 1.13793248e-002
      1.78381073e-004 4.47879499e-003 4.10005543e-003 2.89299968e-003
      2.09438186e-002 2.53052618e-002 2.47043651e-002 3.64120025e-003
      -2.47830385e-003 -4.54683835e-003 7.02163111e-003 -2.51298747e-003
      1.03866728e-002 1.93421412e-002 1.14502078e-002 -2.28998251e-003
      -7.92354345e-003 -9.46795009e-003 -2.50874981e-002
      -1.24664977e-002 1.36391362e-002 2.25676391e-002 3.98067757e-002
      8.03733431e-003 -6.55492907e-003 -7.29830179e-004 1.17356973e-002
      -3.11762770e-003 8.11118819e-003 1.14842784e-002 6.78195432e-003
      2.80083120e-002 1.27250645e-002 4.68052411e-003 -1.68863247e-004
      -2.95370910e-003 -1.17718149e-002 2.73451558e-003 1.51455030e-002
      1.84471477e-002 3.37184593e-002 3.46409692e-003 3.10225575e-003
      5.71376923e-003 1.03895664e-002 4.18138318e-003 1.25680147e-002
      6.92828465e-003 7.18355179e-003 2.28694230e-002 5.58097148e-003
      -4.37165005e-003 2.53255945e-003 1.37473503e-002 7.87477940e-003
      6.59415219e-003 -4.49573767e-004 2.95785978e-003 1.45203145e-002
      4.40575602e-003 5.70305018e-003 1.55024193e-002 1.87360700e-002
      1.71321481e-002 1.00336075e-002 2.76350533e-003 -6.73933420e-003
      1.39528615e-002 4.76073660e-003 7.91848358e-003 1.31568359e-002
      2.22994443e-002 7.15827476e-003 6.27561053e-003 1.86094013e-003
      -1.50307184e-002 3.39928753e-004 6.61224127e-003 2.64633354e-002
      2.41798982e-002 3.00532002e-002 9.38346144e-003 2.88382638e-003
      -3.62351281e-003 1.86655973e-003 2.39700153e-002 1.15130644e-003
      -1.43299880e-003 1.02870297e-002 1.26550635e-002 1.07355425e-002
      1.61395536e-003 -7.00444123e-003 -2.34162062e-003 2.94086486e-002
      1.41862622e-002 5.67795709e-003 1.63255762e-002 9.81785823e-003
      -2.70237168e-003 1.01933826e-003 3.64188035e-003 -3.46071692e-003
      6.13253610e-003 7.70291453e-003 2.30929200e-002 2.34814826e-002
      2.06536390e-002 1.65269561e-002 8.77728686e-003 -4.86944336e-003
      -1.19597430e-003 1.39878243e-002 1.23670278e-002 1.95520353e-002
      1.35936625e-002 4.74438071e-003 1.15262307e-002 1.05097303e-002
      -1.19569548e-003 1.67545222e-003 1.77232176e-002 7.66521227e-003
      2.06101146e-002 1.08902743e-002 8.51463806e-003 2.35410407e-003
      4.25942801e-003 -9.16680321e-003 1.47562213e-002 2.06068326e-002
      4.52617882e-003 1.30798118e-002 -5.63601265e-003 8.52132402e-003
      3.28379706e-003 -2.57803057e-003 3.15213855e-003 7.28302449e-003
      1.16354562e-002 1.29704699e-002 1.82368215e-002 2.39013880e-003
      4.68894187e-003 2.19362555e-003 8.87940358e-003 1.22843692e-002
      9.64447949e-003 9.29397997e-003 8.38924944e-003 1.19626168e-002
      -2.94293044e-003 4.88122320e-003 1.99363125e-003 6.92480803e-003
      4.11457695e-005 8.60701129e-003 1.31347599e-002 -4.81965661e-004
      -3.01757129e-003 -1.56842880e-002 3.58333113e-003 -3.17834481e-003
      7.75224238e-004 1.94179621e-002 1.81525163e-002 2.97985412e-002
      8.68629385e-003 1.12533132e-002 8.92816298e-003 4.79060411e-003
      1.43551081e-003 1.37427179e-002 1.36379618e-002 5.93381468e-003
      2.28875852e-003 -1.80751679e-003 7.43931253e-003 -1.12904282e-002
      -6.44505909e-003 -1.15667749e-002 1.02181723e-002 2.26147119e-002
      2.16040369e-002 1.47434548e-002 8.39529373e-003 7.64528289e-003
      3.13241524e-003 -2.69438652e-003 -4.35437914e-003 2.29651257e-002
      2.43474320e-002 1.19772535e-002 8.22972506e-003 -3.00604030e-002
      8.11047852e-003 -1.87339429e-002 3.28937657e-002 1.01505565e-002
      1.63418055e-002 1.33612417e-002 2.11126730e-003 -6.57615624e-003
      -3.47649120e-002 -3.68792238e-003 -6.71020756e-003 2.59717833e-002
      9.85869765e-003 5.24637429e-003 6.88588386e-003 9.42539144e-003
      3.22828838e-003 -2.87215188e-002 4.11521271e-003 -2.30114684e-002
      2.13260353e-002 1.13797290e-002 2.45052110e-003 1.76765975e-002
      5.36289439e-003 -5.36124688e-003 -2.77619176e-002 2.52655777e-003
      -1.32100070e-002 1.67294238e-002 -3.61323426e-003 5.01107308e-004
      1.42037915e-002 7.85758905e-003 6.10793801e-003 -3.29786316e-002
      1.17570460e-002 -5.44181513e-003 2.87169144e-002 1.27817672e-002
      1.94791760e-002 2.73314752e-002 -1.57615356e-003 -8.45005456e-003
      -4.04822454e-002 1.29963318e-002 -1.29586374e-002 2.82855500e-002
      2.73183249e-002 2.21840348e-002 1.02678454e-002 -7.97139772e-004
      -5.54616190e-003 -3.28625813e-002 -5.36586205e-003
      -1.88141856e-002 2.32314989e-002 -3.98628227e-003 -7.81349558e-003
      5.48867043e-003 -4.26837150e-003 -1.18991174e-002 -3.24938037e-002
      4.78037912e-003 -2.90256888e-002 1.76467635e-002 8.05376156e-004
      2.91245105e-003 5.11878962e-003 -7.29518663e-003 -1.82526894e-002
      -2.96878163e-002 1.32890586e-002 -1.46426298e-002 1.21965865e-002
      5.06604370e-003 2.09005084e-003 7.39707705e-003 1.43894609e-002
      1.04922149e-002 -4.84320661e-003 4.20226716e-002 9.90914996e-004
      1.95929259e-002 1.12461746e-002 7.53080053e-003 -1.64163677e-004
      -2.11008787e-002 -1.70848202e-002 -2.98379548e-002 1.24901766e-002
      -2.52027903e-002 1.83762703e-003 -2.01922003e-002 -1.20540941e-002
      6.95165666e-003 -8.46445374e-003 -9.18040331e-003 -1.08723324e-002
      3.88907269e-002 -9.84451827e-003 2.06470415e-002 -4.18035127e-003
      1.46874022e-002 1.27987424e-002 4.13417211e-003 -1.47499209e-002
      -2.57169139e-002 2.48353870e-004 -1.88604146e-002 -4.09927656e-004
      6.81531429e-003 2.03291737e-002 4.16648239e-002 -4.56220750e-003
      -3.37404050e-002 -3.13084424e-002 -6.02240581e-003
      -1.98677368e-002 5.23877563e-003 5.42315142e-003 3.45960408e-002
      5.82935568e-003 -2.30674352e-002 -3.03988531e-002 -3.65943648e-002
      8.62031989e-003 -2.46250872e-002 3.05950711e-003 1.02956360e-003
      1.86806973e-002 2.62898318e-002 -1.66656394e-002 -3.58908437e-002
      -4.04140763e-002 1.32515021e-002 -3.99032002e-003 7.60453427e-003
      1.49440696e-003 2.79301982e-002 2.44633649e-002 -1.20342998e-002
      -3.17360424e-002 -2.51952820e-002 1.40498932e-002 -1.33883459e-002
      6.18683966e-003 -7.46954419e-003 2.52707135e-002 1.14415735e-002
      -1.46496855e-002 -1.31655894e-002 -1.80152513e-003 2.17857137e-002
      -9.37841740e-003 6.78058341e-003 -2.00128537e-002 5.94506878e-003
      2.40760464e-002 -1.13765411e-002 -2.78244112e-002 -3.25172246e-002
      2.38497593e-002 3.24118393e-003 5.81101980e-004 -1.55735407e-002
      2.29908898e-002 1.54603915e-002 -4.83084423e-003 6.93208771e-003
      3.42924125e-003 2.17719376e-002 1.38036965e-003 2.35102256e-003
      -1.21706771e-002 1.26467412e-002 -5.85935544e-003 -1.23138055e-002
      2.94919754e-003 -8.13654903e-003 1.72773935e-002 -1.00455452e-002
      8.67572427e-003 -1.40536698e-002 -6.55238051e-004 1.81701109e-002
      2.30745226e-003 1.17041236e-002 -9.87696368e-003 2.30489746e-002
      9.29780956e-003 1.76264104e-002 -3.57704400e-003 1.22292396e-002
      6.83420431e-003 -1.03424815e-002 8.36275518e-003 1.80283416e-004
      1.93520710e-002 -4.87971725e-003 5.07413363e-003 -3.47866258e-003
      7.33941700e-003 2.14182176e-002 -1.61947347e-002 6.40211720e-003
      2.47429777e-003 2.69760881e-002 7.43706105e-003 1.46255651e-002
      8.85883160e-003 9.42710973e-003 1.89454425e-002 -3.23029235e-003
      1.62862204e-002 -4.01028432e-003 1.19402334e-002 6.15502382e-003
      -9.72230267e-003 -2.39967629e-002 -3.86898848e-003 2.30705198e-002
      -4.40495135e-003 1.76551584e-002 -5.76359499e-003 5.54212648e-003
      3.74247669e-003 1.13478350e-003 -1.69220027e-002 6.59703801e-004
      1.29280109e-002 -1.73650533e-002 -9.84891225e-003 -2.68779439e-003
      2.01798528e-002 6.51799561e-003 -3.53784533e-003 -9.85508785e-003
      1.03758685e-002 1.59946010e-002 -1.31170265e-002 -1.57391676e-003
      -1.66182499e-003 1.44016342e-002 -3.30328272e-004 4.47500590e-003
      -1.79709364e-002 1.82653740e-002 2.28383690e-002 -2.60874536e-003
      -2.51291413e-003 -1.10791679e-002 -3.02027003e-003
      -1.12514580e-002 1.42868026e-003 -1.22481100e-002 1.62074696e-002
      2.71067210e-002 4.57869936e-003 2.38734111e-003 -9.81905777e-003
      -1.17192161e-003 -1.09654749e-002 4.03002510e-003 -3.19978176e-003
      2.78780609e-002 5.94804436e-003 -1.47851584e-002 -5.43160015e-004
      -1.11390301e-003 -6.66040136e-003 -2.20670849e-002
      -5.81417140e-003 -1.71357132e-002 2.27000285e-002 1.14942137e-002
      -2.10642479e-002 1.13633287e-003 1.39120063e-002 9.73076094e-003
      -5.85369766e-003 -1.05347286e-003 -6.18259748e-003 2.49141157e-002
      1.37341004e-002 -1.08102392e-002 -3.17775994e-003 -2.11140718e-002
      -4.53900732e-003 -1.01183830e-002 8.03429633e-003 -6.32948289e-003
      2.26819068e-002 1.26247527e-002 -8.91591422e-003 8.95651337e-003
      1.73303543e-003 3.55428108e-003 1.88213089e-004 1.27535500e-002
      -2.68993876e-003 2.27954444e-002 2.25248630e-003 -3.60281840e-002
      -1.46300346e-003 3.43748252e-003 1.30358739e-002 -4.04341053e-003
      7.61400769e-003 -1.44439458e-003 1.81455072e-002 9.21951700e-003
      -1.26851518e-002 1.59129277e-002 1.26474453e-002 2.54880302e-002
      2.07563285e-002 2.09898502e-002 1.04694786e-002 1.89188346e-002
      1.06631615e-003 -2.58455472e-003 1.84587464e-002 5.89765515e-003
      1.99930859e-003 -9.92420223e-003 1.99787458e-003 -2.02794261e-002
      -5.33844251e-003 3.80068063e-003 -4.66358615e-003 2.15277318e-002
      2.29425561e-002 3.10989413e-002 5.44849271e-003 4.07992583e-003
      -1.17456159e-002 -7.54725479e-004 -2.83532380e-003
      -1.02756759e-002 1.06547587e-002 1.34027731e-002 2.44685058e-002
      1.10933781e-002 1.25771342e-002 -6.23046141e-003 -3.54196294e-003
      1.03226928e-002 6.13904791e-003 2.10556928e-002 3.71951535e-002
      4.20490131e-002 2.59064231e-002 1.74563508e-002 1.57261244e-003
      4.00803238e-003 1.01951584e-002 3.47210513e-003 2.30719205e-002
      1.90398470e-002 2.49494705e-002 6.19179197e-003 -1.34996674e-003
      -1.52657703e-002 -7.36437691e-003 1.41945966e-002 1.10741658e-002
      2.36623697e-002 7.70605926e-004 8.60640593e-003 3.93878063e-003
      3.55914119e-003 3.52915260e-004 3.30442912e-003 8.20745621e-003
      7.87070114e-003 1.90817267e-002 2.60697789e-002 2.99516320e-002
      1.01980017e-002 5.69561264e-003 -3.02339112e-003 4.26227553e-003
      9.12300870e-003 3.04552191e-003 2.40933467e-002 6.60587195e-003
      2.08166782e-002 1.17947040e-002 6.57299999e-003 6.46822015e-003
      8.27536453e-003 6.89649628e-003 3.81297985e-004 1.34951789e-002
      6.21329309e-005 1.26878750e-002 1.55426199e-002 1.34263271e-002
      2.01941328e-003 7.56576611e-003 4.48364904e-003 -1.30210095e-003
      6.94371108e-003 1.01211220e-002 2.79929694e-002 2.67671682e-002
      1.71592087e-002 1.09437192e-002 7.79844169e-003 1.79020911e-002
      -3.53309559e-003 1.84780527e-002 1.14115397e-003 2.03709975e-002
      6.20933808e-003 1.35899158e-002 1.48883241e-003 1.85330845e-002
      3.00423219e-003 -3.64097534e-003 1.02652181e-002 6.66682096e-003
      1.75983459e-002 1.44101270e-002 2.08851472e-002 7.56935356e-003
      9.76598077e-003 -2.51266349e-004 2.90862308e-003 1.21270111e-002
      4.73558810e-003 1.72169618e-002 1.71583872e-002 6.76072622e-003
      2.02159472e-002 1.48392818e-003 2.85189552e-003 8.94775707e-003
      1.01269186e-002 -3.87563207e-003 1.47946058e-002 5.70459384e-003
      9.41514736e-004 1.63433123e-002 6.29157713e-003 1.66307238e-003
      5.93677908e-003 1.95453260e-002 2.67841411e-003 7.63175264e-003
      2.08358243e-002 1.54346637e-002 2.43694577e-002 6.87304838e-003
      2.08891518e-002 5.04789455e-003 1.62419751e-002 -9.16328165e-004
      8.66832025e-003 1.49216251e-002 9.04077664e-003 1.24736866e-002
      2.21091416e-002 4.75994404e-003 1.23927686e-002 6.46927813e-003
      -5.22418041e-003 9.45148896e-003 -1.91732554e-003 -2.19024671e-003
      2.72066070e-004 8.11733492e-003 1.69554818e-002 1.69828255e-002
      4.57415031e-003 3.01759946e-003 1.11402664e-002 -7.88321067e-003
      -7.74530228e-004 2.56511057e-003 1.17928898e-002 2.66981199e-002
      8.08104314e-003 8.64497293e-003 -7.56478868e-003 1.18572759e-002
      6.55807555e-004 -1.46855251e-003 -5.75695827e-004 2.66054329e-002
      2.28912812e-002 1.37031181e-002 1.02206394e-002 1.07558239e-002
      7.41863763e-003 1.68054074e-003 3.01002222e-003 -6.75061811e-003
      1.56852845e-002 1.37912957e-002 1.06133083e-002 -7.73632759e-003
      2.47262116e-003 1.11602796e-002 -1.30549334e-002 -1.06919622e-002
      -1.10731311e-002 1.10494148e-003 1.95154492e-002 2.48915013e-002
      6.18474744e-003 7.85707682e-003 9.38282348e-003 -6.86113816e-003
      -2.58368719e-003 -5.89246687e-004 1.22410096e-002 9.67312790e-003
      -1.83368305e-004 -2.77234218e-003 1.15638040e-002 1.56312007e-002
      -1.98879209e-003 3.91311664e-003 -8.29735491e-003 2.29162094e-003
      1.54248523e-002 1.15566859e-002 7.95225054e-003 1.71883889e-002
      1.35440147e-002 1.78987463e-003 6.87974645e-003 1.08682122e-002
      9.04165488e-003 5.07840654e-003 -5.99654205e-003 -9.36796982e-003
      -2.88352296e-002 1.29408380e-002 -2.18667313e-002 1.78139023e-002
      1.91179737e-002 1.24458000e-002 2.06188168e-002 -3.50085204e-003
      -1.41938077e-002 -3.04696336e-002 -3.19610722e-003
      -1.66072398e-002 1.79261062e-002 1.28321033e-002 8.63663293e-003
      2.03349553e-002 -1.03135183e-002 -2.83415895e-002 -5.15563153e-002
      1.01080183e-002 -2.66544931e-002 8.35096464e-003 9.21806227e-003
      1.94756091e-002 3.09450217e-002 -8.59314390e-003 -3.13062966e-002
      -4.21374105e-002 -7.54499761e-003 -2.74162646e-002 1.01180440e-002
      4.70337691e-003 2.97734048e-002 2.67891921e-002 5.10994403e-004
      -5.36543410e-003 -3.17134298e-002 -1.14169782e-002
      -1.85062699e-002 1.69675630e-002 3.63629987e-003 5.17450413e-003
      2.47343387e-002 -9.60370805e-003 -1.73433255e-002 -4.16068025e-002
      -2.27828249e-002 -3.82479392e-002 6.66750036e-003 1.11615914e-003
      2.46574963e-003 4.36005592e-002 -1.45573169e-002 -2.54522618e-002
      -4.09768037e-002 -9.70148575e-003 -2.46908292e-002 7.61431083e-003
      -4.74869180e-003 3.76303904e-002 4.15937230e-002 -2.75592767e-002
      -2.68876329e-002 -5.32919094e-002 -1.81290638e-002
      -3.71150710e-002 1.04904044e-002 -1.06687425e-002 2.79380884e-002
      9.56256967e-003 -1.47773707e-002 -3.04653924e-002 -4.18237820e-002
      -5.51498914e-003 -2.85951868e-002 5.75253041e-003 -1.14931539e-002
      7.08772149e-003 3.62155139e-002 -1.30519420e-002 -3.35806906e-002
      -3.18344571e-002 2.83307806e-002 -1.17087262e-002 2.89197564e-002
      5.46018360e-003 3.46100070e-002 2.44406722e-002 -1.66836586e-002
      -3.11073475e-002 -5.16955219e-002 -1.67668462e-002
      -4.37123924e-002 -1.46179122e-003 -8.27345159e-003 1.41977193e-002
      3.35087143e-002 -7.19816657e-003 -4.11951095e-002 -3.32099311e-002
      5.78197977e-003 -2.95673590e-002 -2.32136576e-003 -8.22336692e-003
      3.21760774e-002 1.45900957e-002 -3.56737711e-002 -5.32951467e-002
      -5.41129075e-002 -3.54166748e-003 -2.89379321e-002 3.55258514e-003
      -3.99795827e-003 2.02672537e-002 4.37345766e-002 -2.12639980e-002
      -3.96048315e-002 -5.13819866e-002 1.16218310e-002 -1.03369849e-002
      -1.36419164e-003 -6.81978418e-003 3.53755280e-002 3.46271880e-002
      -2.75878292e-002 -5.52662760e-002 -5.44537008e-002
      -1.37039842e-002 -3.93337719e-002 -1.37173776e-002
      -1.65325813e-002 2.47652177e-002 6.57182559e-002 -8.20240937e-003
      -2.52446681e-002 -4.70211618e-002 6.94721611e-003 9.58003220e-004
      1.76276313e-003 -5.16988849e-003 4.68222424e-002 1.45868687e-002
      -1.96734071e-002 -3.20192240e-002 -4.04829234e-002 1.45433461e-002
      -5.73900109e-003 -8.11264664e-003 -2.39524730e-002 8.07633251e-003
      1.19764050e-002 -2.12205015e-002 -8.76768027e-003 -1.09131616e-002
      7.52581097e-003 -7.59565923e-003 -8.33611842e-003 -1.69782676e-002
      1.11601977e-002 4.30232808e-002 -9.70155559e-003 -1.78748667e-002
      -2.85676736e-002 1.58491321e-002 -9.23766274e-005 -6.35279855e-003
      -1.29311567e-003 3.41300741e-002 2.83136405e-002 -2.23534629e-002
      -1.53980516e-002 -1.23573681e-002 1.31390663e-002 -5.74915856e-003
      4.73280437e-003 3.29688448e-003 3.56887579e-002 3.97747057e-003
      -1.87369976e-002 -2.28782557e-003 -8.64131935e-003 6.36051456e-003
      -1.15146162e-002 -5.85721293e-003 -9.58521850e-003 1.11870104e-002
      1.12030925e-002 -3.04862373e-002 -1.66445468e-002 -6.64408645e-003
      3.44078168e-002 1.11501582e-003 9.49492212e-003 7.50467996e-004
      1.99676510e-002 2.71623526e-002 -2.16057245e-002 -1.08408062e-002
      -8.49339925e-003 1.21961972e-002 -3.43298144e-003 5.20092063e-003
      -3.25624016e-003 2.57254634e-002 3.66627760e-002 -3.03926114e-002
      -1.23597244e-002 5.58145158e-003 4.27014120e-002 1.07405316e-002
      1.79788228e-002 -3.32831382e-003 2.92227957e-002 9.67539009e-003
      -3.51493172e-002 -2.56561898e-002 -2.66734324e-002 1.68228876e-002
      -9.19057615e-003 -1.55302009e-003 -1.11254025e-002 2.03804970e-002
      1.31881619e-002 -1.96428224e-002 -1.05833486e-002 -8.49174708e-003
      2.43804846e-002 -7.40803825e-003 3.80636915e-003 -1.16955340e-002
      2.04106942e-002 2.28611436e-002 -3.23542506e-002 -1.78320780e-002
      -1.26393093e-002 2.51444243e-002 -5.85257122e-003 5.53481281e-003
      -6.99805981e-003 2.66422648e-002 3.05861533e-002 -1.55436620e-003
      1.51076503e-002 8.93765595e-004 2.12960541e-002 4.07352392e-003
      5.96031034e-003 -1.90536096e-003 2.94840597e-002 -9.02802497e-003
      -2.09582597e-002 -5.67898713e-003 -9.05671681e-004 5.67958225e-003
      -1.39771393e-002 1.05917791e-003 -1.59123875e-002 6.05912833e-003
      4.72013652e-003 -2.96473298e-002 -1.28922360e-002 3.49904946e-003
      1.37205739e-002 -5.32319071e-003 1.59744211e-002 -8.63215793e-003
      1.66628584e-002 1.56616569e-002 -3.39065352e-003 1.35320155e-002
      1.75980590e-002 1.78924538e-002 5.33013325e-003 1.36752231e-002
      -7.08153611e-003 1.56590510e-002 2.44429633e-002 1.04476893e-002
      1.24207102e-002 1.59790870e-002 2.40226053e-002 5.81622124e-003
      2.19022464e-002 4.25355369e-003 3.66799533e-002 -4.31098975e-003
      -3.87909450e-002 -1.12308552e-002 -7.50668719e-003 4.28671716e-003
      -7.33892806e-003 3.99166165e-004 -3.90992872e-003 9.77247022e-003
      8.87056533e-003 -2.77079958e-002 7.88317434e-003 -1.82025670e-003
      2.22313646e-002 1.38351852e-002 7.81050790e-003 1.12504698e-003
      1.73657611e-002 2.74999328e-002 -2.21804273e-003 -6.42979576e-005
      -1.35940046e-003 1.21871894e-002 -6.05546986e-004 -5.25223417e-003
      -2.27316190e-003 1.97913069e-002 3.54614705e-002 4.00496554e-003
      9.78595112e-003 4.19918960e-003 3.07466425e-002 2.28390936e-002
      1.03363330e-002 1.22692436e-002 1.90916322e-002 9.27656190e-004
      -2.35563535e-002 -5.87026030e-003 -1.16079859e-002 1.16086667e-002
      1.01829357e-002 2.80988426e-003 -1.06943846e-002 9.62611195e-003
      1.19052315e-002 9.60537873e-004 8.25041346e-003 8.45453329e-003
      2.64361314e-002 9.63172596e-003 4.64602374e-003 -1.83478892e-002
      1.52829317e-002 2.23448314e-002 -6.53363299e-003 -8.32725503e-003
      -9.48852208e-003 2.23821923e-002 9.19148140e-003 4.93871700e-003
      -7.36642920e-004 1.29153635e-002 2.55772881e-002 1.31749036e-002
      3.13228671e-003 6.13527792e-003 3.03220470e-002 2.02214951e-003
      1.29922377e-002 -2.06809714e-002 6.26885099e-003 8.01021233e-003
      1.05434544e-002 2.18041912e-002 1.37880221e-002 2.15194337e-002
      3.52627877e-003 3.52134369e-003 -1.97098777e-002 1.07586000e-003
      -7.76033662e-003 -6.99866447e-004 2.40388196e-002 7.07996823e-003
      1.79001261e-002 6.59674127e-003 1.51071148e-002 -5.35015063e-003
      -9.59530380e-003 1.84622873e-002 7.95516651e-003 9.30978917e-003
      1.00733843e-002 2.79374383e-002 -3.03733256e-003 7.06868758e-003
      -1.67423468e-002 1.62472413e-003 4.16733744e-003 -5.46017522e-003
      2.03859340e-002 8.59405752e-003 2.19914000e-002 7.04223476e-003
      1.83870252e-002 -9.04330518e-003 9.38215014e-003 4.82227700e-003
      -2.24827183e-003 2.20405199e-002 6.67974725e-003 1.29067264e-002
      7.94204045e-003 1.70677342e-002 1.60594110e-003 8.58272612e-003
      5.71627636e-003 -6.70760544e-003 1.55704161e-002 2.52824603e-003
      8.12412426e-003 8.19741562e-003 1.98041443e-002 1.33351991e-002
      1.02207940e-002 1.29852463e-002 -7.70595344e-003 1.35777760e-002
      1.13666744e-003 1.37657216e-002 1.23453951e-002 1.97416469e-002
      3.80967336e-004 1.71554778e-002 2.06558760e-002 -8.52409843e-003
      1.45672206e-002 4.93123801e-003 6.22011069e-003 9.55453329e-003
      3.29538831e-003 7.15071242e-003 1.48748690e-002 4.14765021e-003
      -7.91342743e-003 1.82276238e-002 -3.08380905e-003 -2.86910799e-003
      2.93182791e-003 1.53241409e-002 1.63577385e-002 7.23862695e-003
      1.61113106e-002 -1.54744303e-002 -9.89149325e-004 -8.60140845e-003
      2.94462545e-003 -2.13361508e-003 4.33263695e-003 1.57002471e-002
      2.35799756e-002 1.11290822e-002 -8.74276273e-003 2.01755278e-002
      9.01921373e-003 4.40826779e-003 3.53409140e-003 1.63469755e-004
      -5.85894217e-004 1.96168590e-002 2.24649627e-002 -1.57430898e-002
      -7.91837461e-003 -1.05236832e-003 1.18910847e-002 9.80436523e-003
      4.78559313e-003 3.60173220e-003 2.67596263e-002 2.91397814e-002
      -8.35609064e-003 -5.66421030e-003 -7.22985389e-003 1.86273409e-003
      -9.99243464e-003 2.49917270e-003 4.05498408e-003 3.33799012e-002
      2.89014373e-002 2.29251361e-003 9.92376637e-003 9.54282563e-003
      5.94595214e-003 -7.13811070e-003 5.71169984e-003 -5.09808585e-003
      2.50630546e-002 2.54899245e-002 -7.89556932e-003 -5.16436202e-003
      3.99368303e-003 9.15184431e-003 3.90207372e-003 8.05708859e-003
      -2.53502093e-003 3.12194023e-002 1.68267284e-002 9.85615794e-003
      7.15616671e-003 9.09610838e-003 5.90649946e-003 -1.71063337e-002
      -6.83472678e-003 -1.31701510e-002 2.17415709e-002 4.20434261e-003
      -7.03734253e-003 4.25277837e-003 1.71820093e-002 2.12809704e-002
      -6.43263047e-004 1.33370114e-002 -7.74393696e-003 1.03401556e-003
      1.55978156e-002 1.07136527e-002 2.33329576e-003 1.75238028e-002
      2.33261436e-002 1.48403989e-002 1.99315716e-002 1.28857717e-002
      6.52560405e-003 3.88199580e-003 2.11691181e-003 -1.02396170e-002
      -6.43324992e-003 1.18186669e-002 -1.10156331e-002 -3.03532626e-003
      -1.28489211e-002 2.42326269e-003 1.83508210e-002 6.34098426e-003
      -1.70119200e-002 -7.55795930e-003 7.53609836e-003 2.30866903e-003
      5.95417479e-003 -5.95670193e-003 6.33915793e-003 2.55425051e-002
      -2.35340511e-003 -2.05823611e-002 -4.31111977e-002 2.26693526e-002
      -1.65057257e-002 3.55624856e-004 -4.84032184e-003 1.75205600e-002
      2.35248469e-002 -1.13321096e-002 -3.61986011e-002 -5.06463200e-002
      1.27209388e-002 -2.86994409e-002 -5.58540644e-003 -7.07711931e-003
      2.03842726e-002 1.32084256e-002 5.16872806e-003 6.75520813e-003
      -2.68518012e-002 2.64070146e-002 -2.65985783e-002 -5.85329998e-003
      -8.27151258e-003 1.10629154e-003 8.04846454e-003 -5.45490021e-003
      5.50895231e-003 -3.38897668e-002 1.53407250e-002 -2.82753892e-002
      6.51796069e-003 -1.86061375e-002 -3.24662449e-003 2.63543073e-002
      -2.12323070e-002 -2.09984146e-002 -3.24539319e-002 6.41143462e-003
      -2.13506389e-002 3.86097818e-003 2.96710804e-003 2.97192167e-002
      3.18958014e-002 -2.54874099e-002 -3.02590393e-002 -5.07024452e-002
      -8.62643961e-003 -4.02007923e-002 -1.14218257e-002
      -1.23863379e-002 3.54058817e-002 1.27403252e-002 -7.80881755e-003
      3.22415726e-003 -3.25827450e-002 1.97169278e-002 -2.53825039e-002
      1.02780771e-003 -9.60361864e-003 9.06182360e-003 2.27026604e-002
      -1.79060902e-002 -2.44870298e-002 -5.60090393e-002
      -3.02451779e-003 -4.69212644e-002 -1.26750115e-002
      -5.24656847e-003 2.29209531e-002 4.35673259e-002 2.44728144e-004
      -1.61745641e-002 -3.82587686e-002 -7.88375642e-003
      -4.74778786e-002 -1.11072632e-002 -6.13526645e-005 3.39175388e-002
      6.01275116e-002 1.17724650e-002 -9.42073483e-003 -2.18927432e-002
      3.01965652e-003 -3.69042866e-002 -1.88797787e-002 4.43670806e-003
      4.84514125e-002 1.18413502e-002 -1.71352960e-002 -1.29768290e-002
      -4.17444631e-002 -1.29959835e-002 -5.27845286e-002
      -2.35326644e-002 -8.81435908e-003 6.18955679e-003 1.70014221e-002
      -7.69190583e-003 -3.26000340e-003 -2.22085677e-002 7.37164496e-003
      -3.46465670e-002 -1.87634174e-002 -5.92235709e-003 1.87993962e-002
      4.68786843e-002 -9.47637670e-003 -3.43098715e-002 -4.38504480e-002
      -1.63627584e-002 -5.04611507e-002 -3.34916376e-002
      -2.13382058e-002 4.04667892e-002 7.67092630e-002 9.99886636e-003
      -1.00777205e-003 -2.22150255e-002 1.72245651e-002 -1.01942550e-002
      -8.50562192e-003 -2.67799897e-003 5.92403933e-002 9.85015370e-003
      -1.96350031e-002 -2.79175062e-002 -5.93941212e-002
      -1.97060723e-002 -6.05359003e-002 -4.63673621e-002
      -3.73087451e-002 1.48660354e-002 4.60583977e-002 -4.80587315e-003
      -2.31594732e-003 -3.04121058e-002 6.20697718e-003 -3.31590474e-002
      -1.99846309e-002 -2.98871174e-002 3.31677459e-002 4.64038029e-002
      -1.54367862e-002 -7.37908063e-003 -2.26229690e-002 4.80112061e-003
      -2.25623604e-002 -2.85972804e-002 -1.56725254e-002 3.23826894e-002
      4.22663912e-002 -1.80971976e-002 -5.33327134e-003 -1.86194829e-003
      2.42759231e-002 -1.06911371e-002 -1.03566702e-002 -6.32152287e-003
      4.02301960e-002 2.55469047e-002 -2.20171325e-002 -1.70938484e-003
      -2.28020605e-002 8.66241474e-003 -3.11816987e-002 -3.59413959e-002
      -5.08917645e-002 7.86896423e-003 3.10811270e-002 -7.96744786e-003
      1.02461725e-002 1.50106242e-002 4.49108630e-002 -2.82928487e-003
      -3.65213417e-002 -3.80999595e-002 1.42106060e-002 2.83183996e-002
      -2.17748806e-002 -1.15758022e-002 -9.85403825e-003 2.58675329e-002
      -2.60369014e-003 -4.22689319e-003 -1.91817321e-002 2.09419839e-002
      3.31852883e-002 -3.43964882e-002 -1.87255796e-002 -8.05917569e-003
      4.01605479e-002 8.83958954e-003 3.61945340e-003 -1.38776805e-002
      1.98191628e-002 2.25400086e-002 -1.46745825e-002 -9.90558881e-003
      -1.36468618e-003 5.11952303e-002 8.16376228e-003 -2.09579505e-002
      -3.80410142e-002 2.93953973e-003 2.92366408e-002 -2.23818738e-002
      -1.55246137e-002 -1.31351745e-003 5.90914600e-002 2.15022024e-002
      -1.75795320e-003 -1.54547263e-002 1.43851312e-002 2.07105540e-002
      -2.71685552e-002 -1.81221925e-002 -1.83522142e-002 2.59664431e-002
      -4.21433197e-003 1.47169791e-004 -6.48608292e-003 1.72818098e-002
      2.50231046e-002 -1.07738618e-002 7.70909479e-003 -1.03222504e-002
      2.28274781e-002 1.48387437e-004 3.37356701e-003 -7.93342199e-003
      1.62586980e-002 2.26931795e-002 -1.95542742e-002 -9.91290994e-003
      -6.18360797e-003 4.09109332e-002 1.72397625e-002 -3.06521938e-003
      -1.41860982e-002 1.78658310e-002 2.47363523e-002 1.62885350e-003
      8.19859374e-003 3.48682166e-003 4.32202481e-002 8.05253536e-003
      -9.41864564e-004 -2.20307950e-002 2.13418230e-002 7.52997352e-003
      -1.21479332e-002 6.05649548e-003 -1.39467535e-003 9.84335970e-003
      -6.35254337e-003 4.52283863e-003 -1.19770244e-002 9.31947026e-003
      2.64112577e-002 7.42771709e-003 1.98666956e-002 1.08019877e-002
      1.43008418e-002 -9.02581215e-003 7.34531181e-003 -5.58849005e-003
      2.27998104e-002 1.31193670e-002 -6.46775635e-003 2.55541061e-003
      4.92657954e-003 2.92444043e-002 5.12928423e-003 1.42209465e-003
      -2.19166204e-002 5.28395502e-003 2.64839213e-002 1.46549977e-002
      1.35715129e-002 8.87454767e-003 1.89558268e-002 -1.75077806e-003
      1.59010966e-003 -3.69511079e-003 4.71686618e-003 4.02965434e-002
      1.35302758e-002 1.43955173e-002 6.35023607e-005 4.11127834e-003
      5.03280899e-004 -2.81726406e-003 1.24245300e-003 2.39565093e-002
      3.51503678e-002 -1.70543662e-003 2.77485256e-003 1.60378811e-003
      1.57902464e-002 1.71419866e-002 1.02461912e-002 8.89347866e-003
      2.02766694e-002 2.02188343e-002 1.36922346e-002 1.66779086e-002
      -2.51504150e-003 7.69727584e-003 2.59732897e-003 6.36512297e-004
      -1.85695838e-003 7.68611301e-003 1.41380494e-002 -1.49086909e-003
      -2.38618674e-003 3.56864743e-003 1.32467905e-002 1.36173693e-002
      6.65116776e-003 7.02446327e-004 4.85044671e-003 2.97892112e-002
      8.69013369e-004 -6.49324013e-003 2.59950943e-003 2.15817522e-002
      1.14712501e-002 9.93202161e-003 4.37366683e-003 2.75528543e-002
      2.82762479e-002 1.90747273e-003 -6.11053919e-003 1.78328771e-002
      4.07279357e-002 6.72897184e-003 9.60970472e-004 -1.11218840e-002
      1.28680225e-002 1.32379066e-002 -1.38279544e-002 -1.79654937e-002
      1.23797625e-003 1.60535388e-002 8.22631922e-003 3.79136903e-003
      2.04866752e-003 1.00353220e-002 -5.08813537e-004 -3.14183794e-002
      -1.34624429e-002 5.60129853e-003 3.34618017e-002 6.51310524e-003
      4.34557907e-003 -2.35911291e-002 -5.34362299e-003 2.50808001e-002
      1.41759228e-003 6.74834335e-003 1.99326314e-002 3.74801904e-002
      6.37008285e-004 4.33822861e-003 -1.06529025e-002 7.59217888e-003
      1.36802513e-002 -5.19525819e-003 1.60888955e-002 1.33058028e-002
      2.95359660e-002 1.87894311e-002 1.46608986e-002 -4.78148181e-003
      1.85670312e-002 -1.22820353e-002 -1.55473053e-002 -3.48566391e-004
      1.83236431e-002 3.87922674e-002 1.44459633e-002 3.64465662e-003
      -2.45418567e-002 -1.12865642e-002 2.66749616e-004 -7.29887327e-003
      8.29158630e-003 1.99785605e-002 4.22521196e-002 2.82618292e-002
      9.50278901e-003 -1.86844561e-002 4.96403920e-003 7.88918417e-003
      -7.07471278e-003 4.97531472e-003 -5.91294840e-003 1.84939150e-002
      1.12529648e-002 1.46873482e-002 -8.76256730e-003 1.01539427e-002
      1.29603306e-002 8.74263409e-004 1.53099298e-002 9.27435886e-003
      2.20047217e-002 9.75124259e-003 1.22521864e-002 9.76232346e-003
      3.69779253e-003 3.10751086e-004 -2.19334895e-003 9.73120984e-003
      6.37760293e-003 1.92277655e-002 1.68410838e-002 9.45662428e-003
      -5.46189677e-003 1.20346863e-002 -7.90814694e-004 1.31020602e-002
      1.92347579e-002 7.69621413e-003 2.40048300e-002 2.06059758e-002
      2.06456874e-002 8.06054473e-003 -1.90316257e-003 -3.50115891e-003
      1.35077932e-003 8.32172949e-003 3.63680720e-003 2.51209345e-002
      2.13301741e-003 6.11419510e-003 -9.64557566e-003 -9.38438065e-003
      6.49205735e-003 5.71496459e-003 -2.63695372e-003 5.49815316e-003
      3.14798057e-002 2.03710124e-002 2.03789258e-003 -1.92576405e-002
      -6.16060384e-003 -5.38577652e-003 5.71294595e-003 1.13952132e-002
      1.51988713e-003 2.45698560e-002 9.55832005e-003 1.92876328e-002
      -2.65932083e-003 -1.79427341e-002 5.06340945e-003 1.30953351e-002
      1.11627141e-002 1.60823688e-002 2.95298528e-002 1.72805972e-002
      1.40787689e-002 2.35713942e-005 -1.14421155e-002 1.89306273e-003
      1.43867137e-003 -3.51755484e-003 4.75318544e-003 2.44553182e-002
      3.85341910e-003 -2.85454048e-003 -1.84074976e-002 -2.82392628e-003
      3.78896669e-003 -2.28926074e-003 -2.49028322e-003 6.16179546e-003
      1.69324540e-002 -1.22728944e-002 -5.96896280e-003 -1.21092200e-002
      1.00871772e-002 5.68282371e-003 1.53760966e-002 2.51934188e-003
      1.88020021e-002 2.93838624e-002 -4.66361380e-004 6.08882634e-003
      4.95706918e-003 -3.71737778e-003 1.37649821e-002 1.02972426e-002
      -4.20651631e-003 6.24013180e-003 1.48502374e-002 -1.28026819e-002
      1.11234389e-004 1.02378093e-002 1.58233121e-002 6.50757458e-003
      7.78479595e-003 -1.04546398e-002 -4.81120776e-003 1.90916173e-002
      -1.23030113e-005 6.14687335e-003 -8.81181448e-004 8.04083049e-003
      2.26482041e-002 1.12843718e-002 -1.25619005e-002 -5.81294904e-003
      2.34158244e-003 -9.71348397e-003 3.56971193e-003 7.82057177e-003
      2.14406718e-002 1.40745435e-002 9.23706777e-003 -6.83664205e-003
      -5.45860082e-003 1.09633366e-002 -3.84992501e-003 8.64117406e-003
      1.03628207e-002 1.48984864e-002 1.51726566e-002 1.21495025e-002
      -4.40744497e-003 -3.35751055e-003 -9.79092624e-003
      -1.79330632e-002 7.79752806e-003 1.86900403e-002 1.79869104e-002
      1.09113539e-002 2.13995297e-002 2.67179087e-002 -5.72742848e-003
      1.73457488e-002 -3.14316750e-002 -9.77985747e-003 -3.73225985e-003
      -1.62322586e-003 7.80066801e-003 1.98422763e-002 2.38038916e-002
      -1.97365638e-002 -9.74137336e-003 -3.97492573e-002 1.02758559e-003
      -1.16384113e-002 7.88899197e-004 9.78998654e-003 1.97568275e-002
      2.82134749e-002 -1.47541920e-002 1.66834313e-002 -2.85815336e-002
      2.13823956e-003 -5.16687939e-003 -4.29502456e-003 2.78815459e-002
      3.08374558e-002 2.80034654e-002 -2.14586724e-002 -5.27537521e-003
      -3.28563824e-002 -2.24173022e-003 1.46121625e-003 1.36616630e-002
      2.45939791e-002 1.88096613e-002 1.78606790e-002 -1.90608595e-002
      3.17102554e-003 -3.14846784e-002 -1.33728655e-002 -1.18567767e-002
      1.73169561e-002 2.53784508e-002 -1.12873670e-002 -1.00760134e-002
      -4.74999286e-002 4.98320581e-003 -4.63949405e-002 -3.54016535e-002
      -1.28995171e-002 3.24045531e-002 2.65469868e-002 1.19141042e-002
      1.28735639e-002 -2.48470977e-002 5.65374467e-005 -2.92535927e-002
      -1.85608398e-002 -7.87210767e-004 2.03803293e-002 2.87734736e-002
      -1.46518247e-002 -1.12403324e-002 -4.37662825e-002 7.40420353e-003
      -3.81318592e-002 -2.36045625e-002 -6.20215666e-003 2.87022032e-002
      1.67776495e-002 -1.69970747e-002 -1.31815923e-002 -3.14628966e-002
      -9.52814415e-004 -3.08807194e-002 -1.69689953e-002
      -9.95643251e-003 1.77743956e-002 1.23591889e-002 -1.04338983e-002
      -1.20664691e-003 -1.63837075e-002 1.93057898e-002 -9.49222222e-003
      -2.13788776e-003 -8.20617098e-003 1.73595846e-002 2.67959461e-002
      -7.31641613e-003 -8.42893869e-003 -2.75583453e-002 1.73821691e-002
      -3.00937593e-002 -1.51104713e-002 -8.03816225e-003 2.70264950e-002
      2.74784360e-002 1.17420708e-003 2.06781668e-003 -1.34317176e-002
      2.53189690e-002 -1.38523644e-002 -1.04201753e-002 -6.06115954e-003
      2.67150942e-002 7.59246666e-003 -2.62963939e-002 -1.66483670e-002
      -3.48733142e-002 1.93165452e-003 -3.06466166e-002 -2.71711834e-002
      -2.87053697e-002 1.68442186e-002 4.25053500e-002 5.27316844e-003
      5.78554627e-003 -1.41363470e-002 2.05265097e-002 -1.66171733e-002
      -1.14610111e-002 -1.29393507e-002 4.56818044e-002 4.75275470e-003
      -2.15029120e-002 -1.65834241e-002 -2.27864049e-002 1.03045525e-002
      -2.60478184e-002 -3.13873105e-002 -2.88785510e-002 1.58715770e-002
      3.88193578e-002 -3.18320980e-003 -4.49020276e-003 2.49522389e-003
      3.85746211e-002 -7.11921230e-003 1.24708680e-003 -4.55707964e-003
      4.18661237e-002 4.09965627e-002 1.32924295e-003 1.07469009e-002
      -8.97675008e-003 1.59177575e-002 -2.37279180e-002 -2.30513271e-002
      -4.74617183e-002 1.88889038e-002 3.92431356e-002 1.17598465e-002
      2.05150805e-002 2.34219059e-002 4.79678810e-002 7.16060214e-003
      -2.12425236e-002 -4.05385531e-002 6.45331806e-003 3.28459032e-002
      -3.16703320e-003 -9.91468318e-003 -1.51990848e-002 1.07603855e-002
      -2.72183977e-002 -1.68444049e-002 -3.02960873e-002 9.51324031e-003
      2.76567526e-002 1.02823162e-002 9.09953564e-003 1.99062191e-003
      3.32511887e-002 -6.87343860e-003 -1.45181203e-002 -3.32372524e-002
      3.13625135e-003 2.06157025e-002 -3.54477344e-003 -6.28429552e-005
      -1.10943383e-003 3.95859033e-002 8.77636194e-004 -1.65255740e-002
      -4.44484763e-002 -1.14648417e-002 4.45471592e-002 7.78912101e-003
      2.58595869e-003 6.99248305e-003 5.63962013e-002 1.69489831e-002
      -3.50542995e-003 -1.67062469e-002 7.42653199e-003 1.95768476e-002
      8.26270226e-003 4.40435112e-003 -7.19891489e-003 2.46778317e-002
      -6.69209706e-003 -1.59057844e-002 -4.58760224e-002
      -1.58901922e-002 3.09474748e-002 1.97224095e-002 1.21278912e-002
      1.47717760e-003 3.28008719e-002 -3.88917816e-003 -1.42180109e-002
      -4.45353501e-002 4.05083131e-003 3.87816988e-002 -7.40935421e-003
      -2.88159680e-003 -2.16307584e-003 4.04564291e-002 1.34303356e-002
      2.38772156e-003 -9.24583897e-003 1.51836481e-002 2.93751918e-002
      -2.67369859e-003 6.34101511e-004 6.02227263e-003 3.99106108e-002
      1.74906123e-002 1.97220426e-002 -1.60609540e-002 1.07499221e-002
      1.09712780e-002 -3.89837223e-004 -1.02933613e-003 -7.11506233e-003
      1.40857017e-002 -1.33446455e-002 -1.20389499e-002 -4.37165573e-002
      3.14813020e-004 1.14389081e-002 -8.75113253e-003 -1.19553774e-003
      -1.85086892e-003 1.94823593e-002 5.98314777e-003 1.52293071e-002
      -2.25746129e-002 -2.01336472e-004 2.75737084e-002 -3.80792771e-003
      3.28146736e-003 1.31284597e-003 3.66493650e-002 1.68066490e-002
      1.58784911e-002 -1.54477227e-002 2.03181151e-002 3.75191867e-002
      1.74559113e-002 2.69269734e-003 2.79226014e-003 1.82431675e-002
      1.11324815e-002 9.68555547e-003 9.62936727e-004 2.37713140e-002
      1.55725647e-002 -1.34020736e-002 4.36870568e-003 -4.52984916e-003
      1.40212309e-002 1.16717359e-002 1.82859506e-002 -1.36043839e-002
      2.84908176e-003 1.80201270e-002 -6.60543563e-003 -2.19279435e-003
      -2.42329366e-003 1.18526705e-002 7.13015208e-003 1.08649759e-002
      -1.39623685e-002 1.30074034e-002 3.05934530e-002 1.49571961e-002
      6.82939216e-003 2.33076187e-003 1.16220079e-002 1.04402602e-002
      7.29708374e-003 -2.15239637e-003 2.11613234e-002 9.13996529e-003
      1.36167905e-003 9.53014847e-003 1.20889293e-002 2.23836582e-002
      1.39001226e-002 1.13055650e-002 -6.77390350e-003 1.57840122e-002
      1.74398553e-002 -7.25226989e-003 -8.49528611e-003 -8.12602229e-003
      1.23214098e-002 -1.41046511e-003 9.00715031e-003 -1.41291916e-002
      2.89216507e-002 9.42376349e-003 -1.73147349e-003 3.49897379e-003
      1.35262255e-002 2.72081103e-002 1.28545109e-002 1.14887897e-002
      -1.47165917e-002 1.32154999e-002 -7.39989476e-003 -2.15843841e-002
      -1.01359412e-002 5.61021268e-003 2.42786966e-002 1.67453513e-002
      7.91368447e-003 -1.33014573e-002 4.27123904e-003 -8.34436342e-003
      -2.93341968e-002 -1.20580541e-002 1.26487389e-002 3.54875810e-002
      2.11548191e-002 1.69000477e-002 -1.24775684e-002 -4.13868390e-003
      4.25115647e-003 -1.73634663e-002 9.08480491e-004 1.12036094e-002
      2.97379754e-002 1.39322327e-002 -4.09576902e-003 -2.32206006e-002
      6.06645597e-003 3.70485964e-003 -9.11235530e-003 1.22822458e-002
      1.72167346e-002 3.15949023e-002 2.78887898e-002 1.14521300e-002
      -1.19145131e-002 3.71419825e-003 -2.14279424e-002 -2.21170019e-002
      -1.73092522e-002 4.16874420e-003 3.04037724e-002 2.21741237e-002
      1.25725241e-002 -2.20982060e-002 -2.53639892e-002 7.88768847e-003
      2.63507571e-003 -3.99015192e-003 -2.15033675e-003 2.91028656e-002
      2.32698135e-002 1.17593240e-002 -1.51644759e-002 1.73174869e-003
      1.63118895e-002 2.86855153e-003 -4.57319943e-003 9.30258888e-004
      2.74418723e-002 1.98643543e-002 1.55448839e-002 -1.22840144e-002
      3.42267915e-003 4.01532762e-002 2.96457727e-002 -2.73204688e-003
      -3.35124740e-003 2.23045498e-002 2.61305459e-002 1.90288089e-002
      1.75920606e-003 2.52652410e-002 1.73973963e-002 -6.21893816e-003
      -5.06182434e-003 -1.00348322e-002 6.94477092e-003 1.59090105e-002
      5.86432545e-003 -7.46171037e-003 6.67490391e-003 1.47440657e-002
      -2.91460485e-004 1.40587129e-002 -1.49783143e-003 3.83409951e-003
      1.15779834e-002 1.35667454e-002 -1.09906783e-002 -4.40218160e-003
      3.77314724e-002 1.89252365e-002 -3.24368157e-004 -1.12657500e-002
      3.87985772e-003 1.04173450e-002 3.54077178e-003 1.60633877e-003
      2.27833856e-002 3.37611735e-002 1.15464637e-002 1.58525836e-002
      -1.83467474e-003 -4.61391453e-003 -3.58555838e-003 1.35202352e-002
      4.87727346e-003 1.40961763e-002 4.09160322e-003 -3.44780530e-003
      1.33100497e-002 -5.12837106e-003 2.83049769e-004 1.40791090e-004
      1.39146103e-002 -1.24969492e-002 -1.09356465e-002 1.92062333e-002
      -4.19990160e-003 1.28591538e-003 1.10399798e-002 1.29553191e-002
      -6.61133497e-004 1.02754626e-002 -9.65054729e-004 4.41593584e-003
      2.11955812e-002 4.37807612e-005 6.56458922e-003 7.40944827e-003
      -1.13891196e-002 -1.24501493e-002 1.73614994e-002 2.05367524e-003
      1.06782857e-002 3.06571238e-002 -4.72351909e-003 -2.79702479e-003
      1.53157990e-002 8.18478875e-003 -5.04259439e-003 1.00544458e-002
      -2.77796667e-003 1.32643282e-002 2.10173801e-002 2.02105613e-003
      1.60536391e-003 1.28158731e-002 2.07327586e-002 -1.00070070e-002
      7.98896141e-003 1.53762931e-002 1.29808653e-002 2.33389288e-002
      1.10525200e-002 -7.18158809e-003 -9.41748556e-004 -8.66213068e-003
      -3.15710679e-002 2.98552820e-003 1.71005968e-002 2.42255796e-002
      2.78578475e-002 -1.55977355e-002 -1.02299703e-002 9.22299828e-003
      8.73692986e-003 -3.22565157e-003 1.01411566e-002 9.98699013e-003
      2.77656373e-002 1.52510544e-002 -2.32090261e-002 -2.36080922e-002
      -1.57516245e-002 -1.25744184e-002 -2.67378651e-002 4.85115638e-003
      1.53813362e-002 1.43547915e-002 2.65260376e-002 1.87798347e-002
      2.60469224e-003 -1.01314187e-002 -9.32685845e-003 -1.99155845e-002
      1.19943069e-002 1.29914004e-002 2.30696686e-002 2.52695326e-002
      1.83720440e-002 -2.91192508e-003 -7.97430333e-003 -1.21272830e-002
      -1.48382178e-002 1.00384364e-002 1.44066392e-002 2.22756639e-002
      1.91295892e-002 -3.15056910e-004 -9.28044505e-003 -1.82641130e-002
      -8.63404479e-003 -2.22736821e-002 8.54454283e-003 6.27161562e-003
      1.52434893e-002 2.30828021e-002 8.80985521e-003 -6.08925615e-003
      -3.17440531e-003 2.97629181e-003 -9.47293267e-003 1.49959596e-002
      3.57371289e-003 2.22828873e-002 1.46847637e-003 1.03095276e-002
      1.96029041e-002 -1.81302540e-002 1.15480572e-002 -3.05765029e-002
      3.44557245e-003 -7.78246345e-003 -5.78012643e-003 1.43314013e-002
      1.89612731e-002 1.09297642e-002 -2.62734406e-002 -1.24584911e-002
      -2.82645002e-002 -1.04209380e-002 -3.16190161e-003 8.95341858e-004
      -3.73328989e-003 4.31223679e-003 9.25346185e-003 -2.05404367e-002
      2.48864517e-002 -2.47591492e-002 1.00095579e-002 4.39621304e-004
      -3.85380513e-003 1.04715750e-002 2.31965948e-002 1.74514838e-002
      -1.68204531e-002 -2.03983439e-003 -2.51804404e-002
      -2.20218976e-003 -6.69266190e-003 -4.16021008e-004 9.03205294e-003
      1.07193217e-002 -1.13660215e-004 -3.20271365e-002 -3.73261631e-003
      -3.30728777e-002 -1.88190844e-002 -1.29069230e-002
      -4.41100867e-003 2.23793797e-002 1.35142368e-003 2.87047541e-003
      -2.56650876e-002 4.34004609e-003 -3.68351974e-002 -2.61100456e-002
      -1.85972452e-002 9.81320906e-003 1.89776830e-002 2.25418527e-002
      1.17325354e-002 -1.79423019e-002 5.70647651e-003 -2.38521639e-002
      -7.85046723e-003 -9.62742232e-003 -9.17256530e-003 2.13115551e-002
      2.46891044e-002 1.42157683e-002 -1.91730391e-002 3.63207012e-002
      -2.61913687e-002 -1.46537833e-002 -2.29095947e-002 7.06102746e-003
      2.03974936e-002 2.63148104e-003 -2.04639975e-003 -2.22427677e-002
      2.22097561e-002 -3.53535675e-002 -2.85551660e-002 -2.84466855e-002
      3.23976506e-003 2.58816127e-002 1.03712603e-002 6.61743106e-003
      -1.83408540e-002 2.37884149e-002 -2.89650336e-002 -2.42735576e-002
      -2.60659605e-002 3.25753051e-003 6.46000914e-003 1.31132659e-002
      1.51892975e-002 -1.07946629e-002 4.08888049e-002 -1.59053113e-002
      -5.96289849e-003 -2.24574376e-002 -5.94561081e-003 1.54267000e-002
      2.20257640e-002 2.54171696e-002 1.43324416e-002 4.08277847e-002
      -2.01835344e-003 -1.17486541e-003 -1.55929867e-002 6.22378895e-003
      1.47691313e-002 -1.25621539e-002 -1.94598455e-002 -2.98979487e-002
      7.94229843e-003 -2.26663928e-002 -3.59561667e-002 -2.98626125e-002
      1.61260031e-002 3.42443511e-002 -1.18986629e-002 -1.47650382e-002
      -1.24909524e-002 3.61315385e-002 -7.96185806e-003 -5.68831619e-003
      -1.36598675e-002 2.83083320e-002 1.67798698e-002 2.52920622e-003
      2.40474194e-003 -9.35405213e-003 1.72733944e-002 -2.30342448e-002
      -2.20194180e-002 -2.10319497e-002 6.48412062e-003 3.08082234e-002
      5.51455235e-003 1.19935358e-002 -1.43362954e-003 2.97286343e-002
      -4.70669288e-003 -1.00798411e-002 -2.82828733e-002 2.05314513e-002
      2.36426909e-002 -1.88189875e-002 -2.03936994e-002 -1.76618118e-002
      2.94736624e-002 -1.60142854e-002 -1.66537929e-002 -3.98955420e-002
      -9.10526374e-004 2.50127073e-002 7.30178598e-003 8.02433176e-004
      -5.32750366e-003 3.05829868e-002 2.54884898e-003 -3.74254910e-003
      -3.44374552e-002 -5.54767577e-003 1.76948514e-002 -1.25325313e-002
      -8.54593609e-003 -9.52744205e-003 2.26741657e-002 3.06407269e-003
      -1.09688211e-002 -3.84361148e-002 -8.57077632e-003 3.05979680e-002
      3.12289223e-003 3.69092962e-003 6.11242419e-003 3.66300792e-002
      1.98330861e-002 7.27910595e-003 -2.27016956e-002 -1.90966181e-003
      2.79188603e-002 9.67114884e-003 -1.16128556e-003 -8.83534178e-003
      1.16110686e-002 -6.04397943e-003 -2.39290716e-003 -4.37393039e-002
      -1.95255131e-002 2.67734826e-002 1.44371912e-002 1.13092409e-002
      4.03949339e-003 2.12117303e-002 5.07473247e-003 -1.03105428e-002
      -4.07414660e-002 2.49528396e-003 3.21352854e-002 4.08052467e-003
      -6.91680145e-003 -4.17167088e-003 1.19904932e-002 -2.42413161e-003
      4.36119968e-003 -3.14134359e-002 -4.64276224e-003 3.91880460e-002
      8.06653686e-003 -6.58647204e-003 4.18447563e-003 1.83470864e-002
      1.10966451e-002 -2.14227312e-003 -3.33351158e-002 1.19052613e-002
      1.69722326e-002 -9.51739307e-003 6.99813664e-003 7.48998253e-003
      2.37016696e-002 -4.70706122e-003 -1.39389168e-002 -4.52812538e-002
      5.07574948e-003 3.18135880e-002 -5.97337913e-003 1.20785655e-002
      1.15127610e-002 2.34854408e-002 4.14095214e-003 8.07520747e-003
      -2.70230137e-002 1.89314666e-003 3.61955985e-002 -1.05455350e-002
      2.93705787e-004 -1.45061547e-003 2.31654141e-002 6.23448286e-003
      -6.23571686e-003 -2.99066026e-002 1.26369800e-002 3.71396020e-002
      8.29091296e-003 1.48023600e-002 -6.41851046e-004 2.20603440e-002
      7.21819187e-003 -1.11672916e-002 -3.27908546e-002 1.49332704e-002
      2.03272905e-002 -1.40043441e-002 -1.80397404e-003 -1.32201461e-003
      1.67241432e-002 8.03713407e-003 7.21049495e-003 -2.17652451e-002
      -1.87587868e-002 2.00523846e-002 -1.39643122e-002 -2.87685008e-003
      3.26209515e-003 2.64158621e-002 7.88942073e-003 1.04694683e-002
      -1.67281851e-002 -5.59576973e-003 2.75809988e-002 -1.90303742e-003
      -3.78729659e-003 -2.61201453e-003 3.03225946e-002 1.30467378e-002
      -6.57875976e-003 -3.15133519e-002 -5.86807204e-004 3.48949097e-002
      7.10067013e-003 1.00981975e-002 1.50322113e-002 2.70287879e-002
      1.27815427e-002 3.26995552e-003 -2.41285712e-002 5.01767406e-003
      1.91425662e-002 -1.80381294e-002 -1.68702472e-002 -1.63749866e-002
      1.77668445e-002 7.09653785e-003 1.36110224e-002 -1.54597070e-002
      6.26112986e-003 1.45047884e-002 -9.28044971e-003 -1.40646817e-002
      -5.57282800e-003 1.65888742e-002 2.08134279e-002 1.52525064e-002
      -1.44409789e-002 5.32034039e-003 2.60072537e-002 -1.84236187e-003
      4.75621875e-003 -8.99469072e-004 1.09486263e-002 6.20602397e-003
      -1.43287674e-004 -2.25525480e-002 1.75759033e-003 3.40376012e-002
      -5.54533023e-003 -1.21932719e-002 2.02405499e-003 1.48686441e-002
      1.13829374e-002 6.06345898e-003 -1.79619361e-002 2.05646995e-002
      8.04152712e-003 -8.10480770e-003 -4.99641197e-003 7.60646490e-003
      1.85080506e-002 1.62858497e-002 4.93182521e-003 -2.75097601e-002
      -2.43724161e-003 1.64475255e-002 -7.11955549e-003 1.27965480e-003
      1.74727924e-002 2.75021587e-002 1.79449096e-002 6.53531123e-003
      -1.47252642e-002 7.53250718e-003 1.72641631e-002 -2.01073568e-002
      -2.21865438e-002 -6.56330073e-003 1.21675748e-002 1.49297528e-003
      -1.62426964e-003 -2.86725722e-002 -1.51710841e-003 2.22402550e-002
      -8.99791438e-003 -1.72253742e-004 1.03220306e-002 3.69310416e-002
      2.06916556e-002 2.21569464e-002 -1.16594266e-002 7.53491744e-003
      2.05694567e-002 5.57408063e-003 -1.51125155e-003 -6.84253639e-004
      2.14133468e-002 9.25438851e-003 5.32567780e-003 -1.16301831e-002
      4.87247156e-003 4.21144888e-002 2.35924516e-002 5.18181501e-003
      4.07274172e-004 1.69344079e-002 2.23360378e-002 1.50521994e-002
      3.56677407e-003 2.34666020e-002 8.42568744e-003 -7.81505555e-003
      3.27896024e-003 3.67260625e-004 2.77442969e-002 1.81303769e-002
      2.19294745e-002 -8.82200059e-003 2.91881151e-004 1.42908879e-002
      1.75414756e-002 1.75441913e-002 4.31417575e-004 2.91070826e-002
      2.24176701e-002 2.41100751e-002 3.60239553e-003 3.62432003e-003
      3.95994671e-002 1.43224783e-002 5.68563491e-003 -3.22145666e-003
      4.09842329e-003 1.50551656e-002 1.85004752e-002 5.73497824e-003
      2.67796963e-002 3.64453830e-002 1.86349656e-002 3.08407154e-002
      8.61921627e-003 -4.15675761e-003 -1.29417866e-003 2.12430283e-002
      3.51120043e-003 2.85082012e-002 6.75206911e-003 -5.14171377e-004
      9.42276604e-003 -3.62231792e-003 1.75289009e-002 1.51181361e-002
      2.89463289e-002 1.25708021e-002 1.20802352e-003 8.54347949e-004
      6.55917078e-003 2.97723692e-002 3.05608497e-003 5.23678865e-003
      -1.77556789e-003 2.28580479e-002 5.08953491e-003 -2.78740050e-003
      2.96060424e-002 1.62209962e-002 1.40581671e-002 1.20872566e-002
      5.65646391e-004 -8.55620950e-003 2.21782234e-002 4.56850184e-003
      2.42946427e-002 2.81095468e-002 -2.00137240e-003 2.26120581e-003
      2.47762911e-002 9.69091710e-003 -1.92693039e-003 2.14420632e-002
      5.54203382e-003 2.68108360e-002 2.23233248e-003 2.88198283e-003
      1.89835541e-002 1.22585408e-002 1.95102878e-002 -2.89840670e-003
      1.53275989e-002 -1.18478406e-002 -1.50173658e-003 9.64476448e-003
      -1.24931764e-002 1.32797658e-002 1.73221901e-002 4.76831105e-003
      -8.03597644e-003 1.93421189e-002 -3.32707446e-003 7.40696955e-003
      2.12847721e-002 -1.69353690e-002 2.79807230e-003 1.76598243e-002
      1.00411223e-002 5.04542748e-003 2.45516989e-002 2.10264772e-002
      2.78735068e-002 3.85237369e-003 -2.54564248e-002 -1.02048591e-002
      -4.39147651e-003 -9.88668064e-004 -7.31814420e-003 1.31666185e-002
      1.99275836e-002 1.71311442e-002 1.60331521e-002 -1.00708231e-002
      7.49176042e-003 8.56518652e-003 5.86205954e-003 -9.92235914e-003
      2.38621403e-002 2.17052214e-002 1.83190033e-002 1.65533517e-002
      -2.84009823e-003 -5.05774561e-003 3.32578178e-003 2.54984410e-003
      -5.89255802e-003 6.23777369e-003 1.52903376e-002 6.81238482e-003
      1.21270269e-002 -7.57620670e-003 -1.00357663e-002 -1.30159203e-002
      4.67161043e-003 -1.31456936e-002 5.81934396e-003 7.06359919e-004
      1.11766467e-002 2.05696654e-002 2.39773747e-003 -8.63886345e-003
      -3.08999349e-003 6.71841437e-003 -6.37685461e-003 1.79941896e-002
      2.07772391e-004 2.36324333e-002 2.34963279e-002 8.38232972e-003
      -9.65440529e-004 -3.23684514e-003 1.46131439e-003 -1.45445308e-002
      -2.34922417e-003 -4.61946288e-003 6.59428351e-003 1.94408577e-002
      3.05534573e-003 -9.01088235e-004 -2.61165877e-003 -1.29072156e-004
      -1.64813176e-002 1.35045825e-002 8.71983450e-003 2.57923678e-002
      -3.56200454e-003 2.29218113e-003 4.35969094e-003 -1.13484599e-002
      3.16451453e-002 -2.76622102e-002 8.73885863e-003 8.82103387e-003
      5.72990207e-003 5.05181774e-003 1.24637149e-002 3.93211050e-003
      -1.21486094e-002 6.92007504e-003 -2.66517922e-002 4.41274932e-003
      1.03910761e-002 -8.78685736e-004 3.25405505e-004 5.16729150e-003
      7.24659441e-003 -8.65249150e-003 2.79059615e-002 -2.15980131e-002
      7.36632990e-003 3.46925552e-003 -5.54391462e-003 3.68658639e-003
      7.49818189e-003 1.08651770e-002 -5.97441476e-003 2.24107513e-004
      -2.65684072e-002 6.68095099e-003 1.69191358e-003 1.95463281e-003
      5.64729329e-003 1.77707151e-002 1.44637031e-002 -1.54984631e-002
      5.34310425e-003 -1.79665443e-002 1.25630165e-003 8.32969323e-004
      -5.88775007e-003 1.14028072e-002 1.80409569e-002 2.72169560e-002
      -1.56793501e-002 4.12695222e-002 -2.27766875e-002 1.12026359e-003
      -2.82973447e-003 -3.16380616e-003 -2.16921768e-003
      -1.71012303e-003 1.47911310e-002 -6.57193596e-003 9.12117958e-003
      -2.13500932e-002 1.14841340e-002 7.90960807e-003 3.07814474e-003
      2.59318529e-003 8.42814986e-003 1.92300398e-002 -1.19513310e-002
      3.89679074e-002 -7.04487041e-003 1.90728568e-002 4.07815957e-003
      -9.85755771e-003 -1.59884000e-003 7.61499209e-003 1.62694026e-002
      -6.39315648e-003 4.11030836e-002 -1.91926006e-002 -4.71305975e-004
      -1.02195740e-002 -1.77456625e-002 1.94504834e-003 1.07125230e-002
      1.51052186e-002 1.51903369e-002 4.16542664e-002 -3.28920712e-003
      5.20412251e-003 -7.66707491e-003 -9.15406272e-003 -8.25919770e-003
      8.54158867e-003 1.64955799e-002 -1.01364683e-002 5.00386283e-002
      -1.20815076e-002 1.21725211e-002 -6.68747071e-003 -2.01966222e-002
      -9.33063217e-003 7.63624813e-003 1.16413683e-002 9.13958438e-003
      3.99398319e-002 -1.44455321e-002 7.59640848e-003 -1.38954734e-002
      -1.01085594e-002 -4.68996732e-004 -9.23457119e-005
      -1.14730885e-003 3.36070452e-003 2.53236070e-002 -1.50277568e-002
      -1.83561984e-002 -2.23510880e-002 -1.81516614e-002 2.05675587e-002
      2.74613942e-003 1.00931497e-002 -3.11597879e-003 3.95519733e-002
      6.53059047e-004 -2.75768945e-003 -1.34612136e-002 4.74833511e-003
      -1.23765999e-002 -7.04749182e-005 -2.64744274e-003 2.11897912e-003
      1.71971973e-002 -2.36930065e-002 -1.19925896e-002 -2.15892401e-002
      -1.07106557e-002 1.34064574e-002 1.16280727e-002 5.49962698e-003
      6.59231655e-003 2.94506978e-002 -6.42806059e-003 -5.25246421e-003
      -7.73870433e-003 5.00492100e-003 2.28841007e-002 -3.22716660e-003
      2.77566956e-004 -1.15408991e-002 1.36977732e-002 3.32751032e-003
      2.30311346e-003 -2.06535831e-002 -5.99953439e-003 3.25284563e-002
      1.35653596e-002 1.60271935e-002 4.30023065e-003 3.08989137e-002
      1.75715443e-002 1.77556947e-002 -4.96289926e-003 2.39437306e-003
      3.09957867e-003 -5.17148990e-003 -7.48808729e-003 -1.19862705e-002
      1.32271799e-003 -2.27693990e-002 -1.05151888e-002 -1.52299283e-002
      -1.59738213e-002 1.72423862e-003 -3.84210981e-003 6.70110760e-003
      -5.11000538e-003 1.72579233e-002 1.00868456e-002 1.01407943e-002
      -1.21953022e-002 -1.25853093e-002 2.85936631e-002 1.20103620e-002
      8.29499774e-003 -2.74205208e-003 1.67600568e-002 -2.76735082e-004
      1.56248128e-002 -1.08835176e-002 -2.01453432e-003 2.48940624e-002
      5.56821376e-003 1.21707481e-003 4.32431232e-003 2.32491922e-002
      1.09626716e-002 1.59004424e-002 -2.88608344e-003 6.80849003e-003
      -4.75587673e-004 1.61679822e-003 7.79515784e-003 -1.19325947e-002
      5.14652673e-003 -8.30535591e-003 7.43637653e-003 -1.03809740e-002
      -1.07355034e-002 2.25522020e-003 2.37615197e-003 1.41948797e-002
      -3.17844958e-003 3.60785797e-003 -6.25525927e-003 1.96233904e-003
      -2.45823944e-003 -6.18928857e-003 2.66080629e-002 -6.89175725e-003
      3.95021075e-003 -5.20698843e-004 1.82526726e-002 6.61484851e-003
      7.47305015e-003 -4.52401303e-003 1.31917074e-002 4.09262255e-002
      1.30089261e-002 1.15841823e-002 -6.57195691e-003 2.53931507e-002
      8.98057315e-003 -4.77168272e-004 -4.17855894e-003 1.99352205e-002
      2.78574741e-003 -5.92062110e-003 2.43917294e-003 -1.06302844e-002
      4.12810594e-003 -4.53250308e-004 -6.76301261e-003 -6.23548729e-003
      5.88622876e-003 1.31310746e-002 -3.02354619e-003 -2.28369609e-003
      -2.71812957e-002 6.82305032e-003 3.88905103e-003 -1.68207369e-003
      6.16795558e-004 1.37464274e-002 3.85518819e-002 9.01483279e-003
      5.84804825e-003 -2.84457160e-003 2.21441165e-002 4.49107634e-003
      1.03665504e-003 -1.50039671e-002 1.43337585e-002 3.24189216e-002
      1.66792721e-002 2.12717671e-002 -9.88504107e-005 2.41829790e-002
      3.98570020e-003 6.37832331e-003 -9.79453418e-003 1.53577663e-002
      8.05594493e-003 -1.57735832e-002 -1.41043626e-002 -2.25020908e-002
      -6.83483784e-004 -7.38888793e-003 3.85960378e-003 -2.58127134e-003
      7.64680048e-003 2.04468891e-003 -1.05077727e-002 -1.01574687e-002
      -2.09097955e-002 4.54331096e-003 -2.68344358e-002 8.89879186e-003
      1.69113599e-004 1.42248729e-002 1.70447882e-002 9.18296818e-003
      1.11632776e-002 1.70161453e-004 1.45397726e-002 -3.24805104e-003
      6.80854591e-003 -1.04271788e-002 5.06984349e-003 2.39278618e-002
      -7.12888222e-003 -1.01567910e-003 -5.36371314e-004 2.36249585e-002
      5.43206232e-003 1.77483521e-002 1.05871423e-003 2.69902237e-002
      3.18617397e-003 -1.61085725e-002 -9.51451901e-003 -1.56389587e-002
      1.03017502e-002 -1.94848813e-002 4.18085745e-003 -4.88177827e-003
      8.59401934e-003 2.23875195e-002 -1.39760794e-002 -8.96726456e-003
      -1.32888975e-002 1.32177165e-002 5.77914005e-004 2.16223225e-002
      2.30574165e-003 1.96599979e-002 1.21869240e-002 -1.69815868e-002
      -9.86535195e-003 -5.84823312e-003 6.52889302e-003 -2.54361681e-003
      1.76140480e-002 -8.44951253e-003 1.08871153e-002 1.58570968e-002
      4.95046284e-003 1.59932729e-002 1.54751372e-002 2.76410654e-002
      2.85243858e-002 3.03072203e-002 -9.48287081e-003 -2.75931391e-003
      1.94760058e-002 -1.00087682e-002 8.15381412e-004 -1.96861550e-002
      -4.57716454e-003 5.87892195e-004 2.33683661e-002 9.26095806e-003
      2.64887866e-002 2.91534979e-002 1.76692922e-002 1.69383194e-002
      1.33699050e-005 2.25409269e-002 2.97107231e-002 2.55947933e-002
      1.30985081e-002 2.70501859e-002 4.40041488e-003 3.49359307e-003
      6.85963035e-003 -3.59568535e-003 1.86835621e-002 1.32432515e-002
      2.46533658e-002 -5.59063675e-003 -7.90886115e-003 5.61995665e-003
      2.02212501e-002 1.87716428e-002 -2.29400769e-003 2.00241264e-002
      7.71947857e-003 3.78569961e-002 1.81929544e-002 6.70673838e-003
      2.31239051e-002 2.39170548e-002 1.10546714e-002 -1.44173382e-002
      5.41070756e-003 8.50284193e-003 1.90213062e-002 1.72754340e-002
      1.89954899e-002 2.06934474e-002 1.91749036e-002 1.97955221e-002
      4.18048701e-004 3.42264841e-003 2.88975681e-003 3.13198380e-002
      4.13396284e-002 2.87188254e-002 -4.31935024e-003 7.10917171e-003
      1.34047586e-002 3.30883166e-004 1.20695541e-002 2.73677637e-003
      3.48423906e-002 2.14270335e-002 3.10600363e-003 -4.85278340e-003
      8.56918842e-003 2.45735869e-002 4.07187361e-003 3.37035838e-003
      3.27710365e-003 3.24624330e-002 2.75603216e-002 1.40581252e-002
      1.22990897e-002 8.57578963e-003 6.69475039e-003 2.07881909e-003
      -3.84183484e-003 -1.11189776e-003 2.83335168e-002 3.17299329e-002
      2.28037611e-002 1.03411106e-002 8.87217559e-003 1.31380102e-002
      1.24283321e-003 -4.03594458e-003 8.98587052e-003 3.40062305e-002
      3.03430576e-002 1.32344933e-002 -1.07553480e-002 -2.81453691e-003
      1.93934217e-002 3.97992879e-003 7.31814979e-003 2.13226629e-003
      2.07531564e-002 7.67702330e-003 6.81837462e-003 1.73495430e-003
      -6.27237791e-003 1.29742995e-002 1.31143187e-003 3.51048959e-003
      -6.92273583e-003 1.29955309e-002 6.17886009e-003 7.63853360e-003
      1.18703907e-002 1.29907662e-002 9.65942163e-003 -4.95835161e-003
      7.92294275e-003 -2.35805099e-004 2.98038609e-002 1.97647735e-002
      1.70974713e-002 1.36243096e-002 8.21814314e-003 3.68943624e-003
      -1.29754124e-002 -7.98721518e-003 -1.44107873e-002 1.98547151e-002
      1.52703226e-002 2.19986308e-002 1.98145099e-002 3.68758547e-003
      3.12671298e-003 -1.00823175e-002 -2.21261717e-002 -2.39833575e-002
      1.12671591e-002 1.77785922e-002 1.17592206e-002 2.50983872e-002
      8.86832550e-003 -1.00329714e-002 1.91372808e-003 -5.66418516e-003
      -2.65287068e-002 -2.23841984e-003 1.06141055e-002 1.24761360e-002
      2.60686651e-002 1.19109722e-002 3.04910005e-003 -1.73113625e-002
      -1.68288089e-002 -1.69306230e-002 1.87279116e-002 2.03465316e-002
      3.00029293e-002 2.73977946e-002 1.01324236e-002 -8.31750408e-003
      -6.61232229e-003 -7.98691064e-003 -2.48686913e-002 5.18125948e-003
      1.44177014e-002 2.53517851e-002 1.68859083e-002 5.82828838e-003
      -5.46201877e-003 -4.26263129e-003 -4.05056216e-003
      -1.79342609e-002 -6.80431398e-003 -3.30599723e-004 8.57685599e-003
      2.40116064e-002 1.86674786e-003 5.41773811e-003 -5.80661558e-003
      -9.71050188e-003 -2.09403522e-002 7.48235453e-003 1.63058098e-002
      3.09506673e-002 1.86744295e-002 1.22496998e-003 -4.23787814e-003
      -4.40589711e-003 -1.51465014e-002 -2.31757928e-002
      -1.99759868e-003 5.22307539e-003 1.87303238e-002 2.59790216e-002
      7.49087986e-003 4.30910755e-003 -1.48400078e-002 -8.01067520e-003
      -8.38225149e-003 8.72467272e-003 1.71418414e-002 3.08202952e-002</_></support_vectors>
  <decision_functions>
    <_>
      <sv_count>1</sv_count>
      <rho>2.6326676121246906e+000</rho>
      <alpha>
        1.</alpha>
      <index>
        0</index></_></decision_functions></my_svm>
</opencv_storage>
